\data\
ngram 1=898
ngram 2=9760

\1-grams:
-4.053693	<unk>	0
0	<s>	-0.18420292
0	</s>	-0.18420292
-1.8022888	cái	-1.8097196
-2.3093638	đèn	-1.436475
-3.8734543	tranh	-0.58637583
-1.8759327	trong	-1.2819319
-2.3572712	nhà	-0.94830483
-3.7631705	giữ	-1.2558546
-3.0414042	đồ	-0.56523305
-3.531191	trường	-1.5153797
-3.8734543	sa	-0.38397193
-2.081649	có	-0.8438181
-2.7136207	còn	-0.39748582
-2.0606828	không	-0.7414975
-2.2122226	ấy	-0.60862666
-2.995023	nhờ	-0.30447873
-1.7442518	đi	-0.85656774
-1.8468336	kiểm	-2.9280694
-3.8734543	tra	-1.5231851
-2.6301365	ngay	-0.655154
-1.6996993	nhé	-1.00252
-1.8531337	bật	-1.3197237
-2.8797872	lò	-1.936385
-3.3016987	nướng	-0.593799
-2.0658302	lúc	-1.0748962
-2.914908	16	-1.2521383
-2.3003855	giờ	-0.85881495
-2.8170662	3	-0.62201613
-2.2345476	phút	-0.9425144
-1.7593267	bạn	-1.3582475
-2.4726171	ơi	-1.3782632
-3.0933375	chán	-0.55988085
-2.184136	quá	-1.1815486
-2.7372649	gì	-0.37304682
-2.995023	nghe	-0.6031418
-1.8759327	mở	-1.2907194
-2.7622707	radio	-0.63012123
-1.767065	giúp	-2.0741737
-2.1707458	mình	-1.288485
-1.6843727	với	-1.1598256
-2.4596026	máy	-1.7474633
-3.7631705	tính	-1.1539187
-2.8170662	tưới	-0.6826106
-3.2206275	cây	-0.56834865
-2.9531207	đủ	-0.5446502
-1.9856771	rồi	-0.9142482
-1.8792896	đóng	-1.526791
-2.081649	tôi	-1.0326557
-2.7136207	vòi	-1.7179753
-1.6279628	em	-1.5327272
-1.9368618	giảm	-1.3485651
-2.560142	độ	-0.93188524
-2.1707458	sáng	-0.8622806
-3.4014595	tường	-0.84375733
-2.2050288	xuống	-0.71498096
-1.8166354	cho	-1.8818488
-2.0032494	anh	-1.3252563
-1.7517239	nhá	-0.8995615
-2.5141783	bóng	-1.4458649
-3.8734543	đứng	-0.55252814
-3.7631705	mau	-0.30272028
-1.9180373	lên	-0.8799958
-2.1514041	phòng	-1.2380228
-2.1451435	này	-0.6249511
-3.2206275	đầy	-0.38378954
-2.611552	mùi	-0.68454957
-2.5141783	thôi	-0.33530402
-1.9687883	tăng	-1.3656566
-2.7622707	quạt	-1.640935
-3.2206275	hút	-1.7076203
-2.3998075	xem	-0.65551233
-2.6698756	nào	-0.396583
-2.995023	tủ	-2.005466
-2.5141783	lạnh	-0.83139944
-3.1523356	màn	-1.9326248
-3.531191	cuốn	-0.94692034
-2.446967	của	-0.9392486
-3.4014595	long	-0.3481127
-2.446967	lại	-0.48359582
-2.0032494	nhớ	-0.64494884
-3.0933375	chào	-0.65379465
-3.531191	thể	-0.7532924
-2.8170662	van	-1.7507046
-2.411126	nước	-0.6840834
-2.8472953	tắm	-0.7714377
-1.9687883	hộ	-1.6653746
-2.0505676	được	-1.2509264
-2.7136207	học	-0.50680625
-1.8726014	tắt	-1.3719584
-2.9531207	chưa	-0.34472245
-3.7631705	gái	-0.25951993
-2.3998075	chị	-0.96065843
-1.8792896	ở	-1.5247182
-3.1523356	ban	-1.4071224
-3.7631705	công	-0.4399984
-2.7888048	số	-1.1659986
-2.411126	sao	-0.57258654
-2.0555959	tối	-1.026156
-2.3780186	thế	-0.6636557
-2.6698756	điện	-0.6165376
-3.3016987	ờ	-0.22780938
-2.2915888	hình	-1.7564571
-3.0414042	như	-0.6115384
-3.4014595	đúng	-0.18420292
-2.7622707	lắm	-0.2758706
-2.7372649	chuẩn	-1.691471
-2.2829669	bị	-0.7010723
-2.8472953	ngủ	-0.7263591
-3.7631705	tròn	-0.6798284
-2.3374696	làm	-1.4658133
-3.3016987	việc	-0.61435723
-3.531191	thông	-1.3952911
-3.531191	minh	-0.22023073
-2.9531207	bình	-1.6521394
-2.4346883	nóng	-1.0488364
-3.0414042	chơi	-1.554559
-3.7631705	game	-0.56165355
-2.995023	18	-0.7445459
-2.5141783	tiếng	-0.6371
-2.995023	22	-1.3138839
-3.3016987	tình	-0.7984323
-3.7631705	trạng	-0.33586195
-2.2829669	đang	-0.6003015
-2.995023	rèm	-1.0846776
-2.8472953	ê	-0.38818747
-3.4014595	sưởi	-0.7741424
-2.9531207	muốn	-0.5394838
-3.7631705	trụ	-2.0946436
-2.9531207	cổng	-0.839855
-2.2269776	trời	-0.87125325
-2.7622707	hôm	-1.0419748
-2.8170662	nay	-0.3524747
-3.7631705	rất	-0.25951993
-2.7622707	là	-0.45051765
-2.6698756	nên	-0.44373763
-3.2206275	ẩm	-0.54409295
-3.8734543	pha	-1.7962064
-3.3016987	cafe	-0.51659834
-3.3016987	kêu	-0.3490483
-2.2345476	hơi	-0.6223624
-2.995023	ồn	-0.5307261
-3.3016987	trần	-0.8445218
-3.531191	họp	-0.65821815
-3.8734543	gia	-1.4282296
-3.8734543	đình	-0.30506644
-3.8734543	led	-0.46748888
-3.7631705	chùm	-0.7886609
-2.8472953	chỗ	-0.6239835
-3.7631705	ngồi	-0.18420292
-3.8734543	ván	-0.18420292
-2.1151276	hãy	-1.2333863
-2.8170662	23	-0.9526971
-3.2206275	mát	-1.3440434
-3.531191	treo	-2.0211463
-2.914908	chắc	-0.26681715
-2.914908	nhở	-0.32932308
-3.2206275	điều	-1.6970575
-3.8734543	hòa	-0.7661667
-3.7631705	tiếp	-1.4155555
-3.531191	đón	-0.31830674
-3.2206275	mỏi	-0.35463482
-3.7631705	xa	-0.61071795
-2.8170662	cửa	-1.0270118
-2.3472576	ra	-0.66723454
-3.4014595	hắt	-0.9187419
-3.7631705	57	-1.5794972
-2.8797872	thấy	-0.41836092
-2.914908	mấy	-0.7198046
-3.2206275	nhanh	-0.22023073
-3.1523356	in	-0.5849011
-3.7631705	vi	-0.92085886
-3.8734543	sóng	-0.5968528
-3.4014595	chiều	-0.5446502
-3.8734543	vắng	-0.18420292
-3.3016987	loa	-0.6702218
-2.8472953	trên	-0.87264454
-2.995023	tầng	-1.3738401
-3.7631705	thượng	-0.4429856
-3.2206275	con	-0.2758706
-2.2195375	nó	-0.6350118
-3.4014595	tập	-1.1997329
-3.8734543	nhảy	-0.18420292
-3.3016987	mới	-0.18420292
-3.8734543	mua	-0.18420292
-2.995023	nhiều	-0.22780938
-3.2206275	ăn	-0.3151504
-2.611552	về	-0.43269014
-1.9943743	vào	-0.8916186
-2.157756	trợ	-1.7038735
-3.531191	lý	-1.1031188
-3.0414042	khách	-0.436228
-3.0414042	ôi	-0.2476478
-2.7888048	chết	-0.5661737
-2.7372649	quên	-0.7394953
-2.8170662	mất	-0.5332794
-2.6911974	giùm	-1.0438545
-3.2206275	giặt	-0.69556576
-2.8170662	à	-0.3005113
-3.531191	chú	-0.18420292
-2.9531207	hầm	-0.7121308
-3.8734543	rượu	-0.46303606
-2.914908	đó	-0.26253903
-3.1523356	âm	-1.6580566
-3.8734543	sợi	-1.7292596
-3.8734543	đốt	-0.5586023
-3.7631705	phim	-0.45708105
-3.8734543	hân	-0.2357568
-3.4014595	nồm	-0.5764836
-3.7631705	thả	-0.65240496
-3.0933375	mạnh	-0.3413794
-2.7136207	4	-0.57718873
-3.3016987	tao	-1.1506807
-3.7631705	tuýp	-0.6915959
-2.367521	đến	-0.39029542
-2.8797872	sân	-0.79132545
-3.531191	khô	-0.32131106
-2.560142	nhỉ	-0.683985
-3.2206275	hoạt	-1.3330207
-3.531191	động	-0.40944868
-3.8734543	my	-0.4051126
-2.2422519	ý	-0.55788124
-3.2206275	hey	-0.6026421
-2.914908	11	-0.9305576
-3.1523356	15	-1.3490483
-3.8734543	okei	-0.18420292
-2.9531207	bếp	-0.6287463
-2.6911974	hay	-0.89912
-3.7631705	ốp	-1.7962064
-2.544274	ngoài	-0.6437949
-3.7631705	51	-1.5879304
-3.7631705	quản	-0.30272028
-3.8734543	hoa	-1.9990319
-3.8734543	sen	-0.6413271
-3.531191	bàn	-0.6084361
-3.7631705	compact	-0.75095385
-2.914908	5	-0.75700206
-3.7631705	45	-1.3190851
-3.7631705	chờ	-0.622114
-3.7631705	liệu	-0.18420292
-2.411126	chói	-0.9429065
-3.1523356	mắt	-0.62583905
-3.8734543	38	-1.2336549
-3.8734543	lí	-0.8239162
-3.7631705	ảo	-0.6103177
-3.8734543	cuối	-0.37264806
-3.2206275	ti	-1.2698671
-2.7622707	to	-0.73319733
-3.531191	hôi	-0.23943123
-2.9531207	đê	-0.23911162
-3.0414042	cháu	-0.35576084
-2.6911974	sắp	-0.32043388
-2.5937304	tí	-0.60935783
-2.2915888	nữa	-0.6442379
-3.8734543	haizz	-0.18420292
-2.9531207	bé	-0.33970386
-3.7631705	chính	-0.53539807
-3.0933375	6	-1.1582339
-3.8734543	suất	-0.18420292
-3.4014595	tiền	-1.4629917
-3.0933375	sảnh	-0.56176335
-3.3016987	đầu	-0.57210755
-3.2206275	hè	-0.4371686
-3.531191	89%	-0.2588508
-3.7631705	mùa	-0.90367216
-3.8734543	xuân	-0.31508264
-2.995023	21	-0.9630075
-3.8734543	uây	-0.18420292
-3.1523356	mưa	-0.23943123
-3.7631705	chả	-0.18420292
-3.2206275	nhìn	-0.3565131
-3.4014595	cả	-0.19825745
-3.0933375	alo	-0.48239404
-2.8170662	đồng	-1.947474
-3.8734543	hồ	-0.6802956
-3.8734543	xách	-1.8114463
-3.7631705	tay	-0.50340796
-2.6911974	tại	-0.45095927
-2.6301365	nắng	-0.6646197
-3.8734543	thờ	-0.3767908
-3.3016987	gió	-0.60729384
-3.7631705	vệ	-1.596203
-3.531191	sinh	-0.9482725
-3.3016987	yêu	-0.2652809
-3.8734543	rõ	-0.18420292
-2.6495516	và	-0.28649017
-3.7631705	theo	-0.18420292
-3.8734543	smarthome	-0.18420292
-3.3016987	26%	-0.3066173
-3.0414042	17	-1.1108091
-3.4014595	30	-1.1729571
-3.0414042	chiếc	-0.31851456
-3.1523356	thật	-0.23895195
-2.4227474	đấy	-0.47442046
-3.4014595	khó	-0.5708971
-3.7631705	chịu	-0.47770342
-2.6495516	kia	-0.25416186
-3.8734543	fax	-0.5144571
-2.9531207	9	-0.77841973
-2.914908	13	-1.4097462
-2.486034	khoảng	-0.29703856
-3.0414042	39%	-0.360684
-3.7631705	thu	-0.4446355
-3.4014595	ít	-0.276288
-2.995023	mành	-0.88514525
-2.5289655	cậu	-0.8916216
-3.0933375	tớ	-0.8713094
-3.7631705	xông	-1.7352499
-2.914908	mức	-0.37576437
-3.8734543	vòng	-0.4613725
-2.8797872	dưới	-0.67939866
-2.9531207	ông	-0.85589933
-3.531191	83%	-0.35463482
-2.6301365	bây	-1.4739871
-3.2206275	bụi	-0.51606417
-3.8734543	24	-0.871927
-2.4998782	tầm	-0.26634812
-3.0933375	7	-0.75700206
-3.7631705	34	-1.1506807
-3.3016987	vấn	-1.2793357
-3.8734543	đề	-0.5856863
-3.4014595	13%	-0.31822902
-3.531191	sử	-0.3490483
-3.8734543	dụng	-0.18420292
-2.544274	xong	-0.81010646
-3.3016987	nhiệt	-0.6500783
-3.7631705	chung	-0.48448336
-2.8472953	mà	-0.26343393
-3.531191	coi	-0.25951993
-3.2206275	84%	-0.27236062
-3.7631705	nhỡ	-0.18420292
-3.531191	trộm	-0.18420292
-3.2206275	vườn	-0.44670534
-3.8734543	cu	-0.18420292
-2.995023	bên	-0.98366904
-2.8472953	phải	-0.46010745
-2.1979523	nha	-0.56565595
-3.7631705	đọc	-0.5115823
-3.7631705	phía	-0.51246554
-3.8734543	đông	-0.21093976
-3.531191	mày	-0.23251657
-3.7631705	sách	-0.9548247
-3.1523356	8	-0.3563638
-2.7136207	vẫn	-0.3710543
-3.2206275	19	-0.9858704
-3.8734543	43	-1.3032908
-3.8734543	gym	-0.45896995
-3.8734543	trái	-0.38212255
-2.8797872	sau	-0.26912048
-2.8472953	29%	-0.44129252
-2.995023	luôn	-0.3285475
-2.995023	6%	-0.31712946
-3.2206275	dùm	-0.379303
-3.1523356	đại	-1.7231854
-2.5141783	hết	-0.4697715
-3.8734543	ayo	-0.18420292
-3.8734543	okay	-0.18420292
-3.2206275	hiên	-0.76572776
-2.995023	trước	-0.43689686
-3.8734543	vẻ	-0.3505919
-3.8734543	dần	-0.18420292
-3.4014595	95%	-0.22780938
-3.0933375	đã	-0.2901045
-3.8734543	nực	-0.18420292
-3.7631705	61%	-0.23293634
-3.0933375	camera	-0.6272643
-3.7631705	28	-1.4401288
-3.7631705	bà	-0.33285996
-2.2829669	để	-0.48335886
-3.0414042	cầu	-1.2310311
-3.8734543	thang	-0.4671358
-3.7631705	huỳnh	-1.3632888
-3.8734543	quang	-0.42699242
-3.4014595	92%	-0.18420292
-2.486034	một	-0.6810061
-3.3016987	73%	-0.4244206
-3.4014595	23%	-0.18420292
-3.8734543	ủi	-1.0180551
-3.8734543	nhi	-0.2928205
-3.0414042	nhạc	-0.2681147
-3.7631705	nghỉ	-0.7215362
-2.7888048	hỏng	-0.7282189
-3.531191	xe	-0.65379465
-3.1523356	nhấp	-0.871927
-3.8734543	nháy	-0.25137264
-2.4726171	thì	-0.7749687
-3.531191	0	-0.9858704
-2.7372649	2	-0.6089734
-3.8734543	quân	-0.23895195
-3.7631705	27%	-0.30390906
-3.8734543	25	-0.775017
-3.8734543	44	-0.7170251
-3.3016987	ánh	-0.5446502
-3.4014595	laptop	-0.72738785
-3.8734543	thời	-0.30272028
-3.7631705	gian	-0.23895195
-3.0933375	12	-0.83184487
-3.3016987	đợi	-0.3748881
-3.1523356	đau	-0.38378954
-3.531191	lưng	-0.42158163
-3.531191	xin	-0.25951993
-3.7631705	lỗi	-0.18420292
-3.2206275	rửa	-1.241381
-3.1523356	bát	-0.56582904
-3.531191	76%	-0.22780938
-3.8734543	kịch	-0.18420292
-3.0933375	vậy	-0.25137264
-3.0933375	14	-0.8419638
-3.7631705	42	-1.2336549
-3.4014595	sạch	-0.23943123
-2.914908	ai	-0.36667302
-3.1523356	bắt	-0.775017
-3.531191	khôi	-0.26915294
-3.531191	ấm	-0.39852214
-3.0933375	10	-0.89995575
-2.995023	nãy	-0.32284498
-2.995023	chảy	-0.3268325
-3.2206275	yếu	-0.47936565
-3.4014595	bao	-0.6500783
-3.8734543	ngơi	-0.37624955
-3.8734543	27	-0.9133197
-3.531191	garage	-0.18420292
-3.7631705	40	-1.2521383
-3.3016987	34%	-0.23293634
-3.8734543	trầm	-0.18420292
-3.531191	cánh	-0.3490483
-3.8734543	đạt	-0.22756048
-3.8734543	thiết	-0.18420292
-2.995023	chạy	-0.2421355
-3.4014595	sai	-0.34106296
-3.8734543	rủ	-0.39445734
-3.4014595	97%	-0.28882152
-3.2206275	71%	-0.40067032
-3.8734543	58	-0.5708971
-3.4014595	wc	-0.39221627
-3.8734543	ròi	-0.18420292
-3.4014595	lượng	-0.23895195
-3.4014595	thành	-0.18420292
-3.3016987	78%	-0.39395958
-3.7631705	bảo	-0.18420292
-3.4014595	vợ	-0.23943123
-3.8734543	56	-0.5708971
-3.2206275	khi	-0.48069954
-3.4014595	hỗ	-0.9511083
-2.7888048	mọi	-0.93821144
-3.3016987	người	-0.3504135
-3.4014595	gác	-1.3490483
-3.8734543	xép	-0.355928
-3.1523356	cảm	-0.5708971
-2.611552	thêm	-0.3339895
-3.4014595	12%	-0.24446553
-3.7631705	ngôi	-0.30272028
-3.7631705	77%	-0.25951993
-2.8797872	dùng	-0.5533705
-3.8734543	khả	-0.18420292
-3.8734543	nghi	-0.18420292
-3.531191	lâu	-0.25951993
-3.8734543	59	-1.0180551
-3.8734543	bận	-0.18420292
-3.8734543	hư	-0.2588508
-3.7631705	suốt	-0.22023073
-3.3016987	cứ	-0.47621304
-3.3016987	chập	-1.0005821
-3.8734543	chờn	-0.28255484
-3.8734543	trặng	-0.18420292
-3.531191	26	-0.7170251
-3.531191	15%	-0.22780938
-3.7631705	duy	-0.18420292
-3.3016987	dọn	-0.22780938
-3.8734543	dẹp	-0.18420292
-2.7372649	lát	-0.71880656
-3.7631705	thay	-0.97830576
-3.3016987	9%	-0.27761105
-3.7631705	47	-0.871927
-3.4014595	37%	-0.39907587
-3.7631705	22%	-0.18420292
-3.1523356	65%	-0.3410629
-2.7372649	kìa	-0.46949673
-3.7631705	chỉ	-0.18420292
-2.914908	cần	-0.542892
-3.2206275	hành	-1.4401288
-3.8734543	lang	-0.49103355
-2.914908	1	-0.6138622
-3.4014595	20	-0.52382994
-3.3016987	99%	-0.29394737
-3.1523356	các	-0.21489729
-3.8734543	41%	-0.18420292
-3.3016987	bẩn	-0.43797296
-3.2206275	gấp	-0.24792719
-3.8734543	ừm	-0.18420292
-3.8734543	đơn	-0.18420292
-3.8734543	giản	-0.18420292
-3.531191	62%	-0.25097847
-3.1523356	phát	-0.20788638
-2.8170662	chút	-0.34376025
-3.8734543	chuyện	-0.18420292
-2.8170662	riêng	-1.6278019
-3.8734543	tư	-0.62359524
-3.8734543	ào	-0.47398704
-3.7631705	ơn	-0.91335887
-2.8797872	á	-0.30403844
-3.8734543	toang	-0.18420292
-3.8734543	hoang	-0.18420292
-3.0933375	muộn	-0.34106296
-2.9531207	mệt	-0.69992125
-3.8734543	phỏng	-0.18420292
-3.3016987	hơn	-0.18420292
-3.8734543	48	-0.3490483
-3.8734543	dướ	-0.18420292
-3.7631705	thân	-0.23943123
-3.8734543	mến	-0.18420292
-3.2206275	ơ	-0.33015972
-3.8734543	đất	-0.18420292
-3.1523356	38%	-0.27431202
-3.2206275	đỡ	-0.32030547
-3.1523356	tốn	-0.9511083
-3.7631705	sợ	-0.18420292
-3.2206275	từ	-0.2588508
-3.4014595	khỏi	-1.1179729
-3.8734543	biết	-0.18420292
-3.8734543	do	-0.18420292
-2.7136207	đây	-0.3156666
-3.8734543	đêm	-0.18420292
-3.8734543	trọ	-0.18420292
-3.8734543	lập	-0.3490483
-3.7631705	tức	-0.18420292
-3.531191	ạ	-0.21489729
-3.2206275	88%	-0.38283032
-3.531191	kinh	-0.25951993
-3.8734543	42%	-0.18420292
-3.7631705	huy	-0.23895195
-3.4014595	4%	-0.40331185
-3.531191	33%	-0.18420292
-3.8734543	vy	-0.30483124
-3.4014595	tẹo	-0.39852214
-3.3016987	47%	-0.23251657
-3.8734543	choạng	-0.18420292
-3.7631705	tất	-0.30272028
-3.8734543	nhập	-0.18420292
-3.8734543	nhằng	-0.18420292
-2.8170662	thư	-1.3417491
-3.8734543	viện	-0.32346162
-3.8734543	truyền	-1.2336549
-3.8734543	thống	-1.2336549
-3.531191	59%	-0.28511944
-3.531191	ngập	-0.18420292
-3.8734543	c	-0.43527654
-3.531191	87%	-0.21489729
-3.531191	20%	-0.2054591
-3.8734543	29	-0.871927
-3.0933375	8%	-0.35170037
-3.7631705	tiết	-0.25951993
-3.7631705	kiệm	-0.25951993
-3.531191	64%	-0.39221546
-3.8734543	xịt	-0.18420292
-3.3016987	bố	-0.18420292
-3.531191	nhỏ	-0.27545357
-3.1523356	nhưng	-0.6026421
-3.4014595	xíu	-0.22780938
-3.8734543	hẳn	-0.18420292
-3.4014595	sang	-0.18420292
-3.7631705	mẹ	-0.18420292
-3.8734543	họ	-0.18420292
-3.8734543	dược	-0.18420292
-3.8734543	trông	-0.18420292
-3.7631705	ngày	-0.18420292
-3.8734543	tau	-0.18420292
-3.7631705	55	-0.8261696
-3.531191	3%	-0.18420292
-3.8734543	chiếu	-0.18420292
-3.8734543	nhể	-0.18420292
-3.7631705	33	-0.9858704
-3.2206275	tràn	-0.37451148
-2.8797872	35%	-0.29826
-3.8734543	rét	-0.18420292
-3.4014595	ui	-0.30198124
-3.4014595	ướt	-0.23943123
-3.7631705	sàn	-0.30272028
-3.7631705	eo	-0.30272028
-3.8734543	toàn	-0.18420292
-3.7631705	cá	-0.18420292
-3.8734543	muỗi	-0.18420292
-3.8734543	cơm	-0.18420292
-3.0933375	51%	-0.35438067
-2.995023	buồn	-0.74489343
-3.2206275	36%	-0.35246873
-3.8734543	miếng	-0.18420292
-3.7631705	thịt	-0.18420292
-3.7631705	ngon	-0.18420292
-3.7631705	oi	-0.18420292
-3.8734543	điên	-0.18420292
-3.3016987	bí	-0.42158163
-3.8734543	bách	-0.18420292
-3.2206275	tự	-0.4159951
-3.8734543	dưng	-0.18420292
-3.8734543	ổn	-0.18420292
-3.4014595	31%	-0.3122118
-3.7631705	cường	-0.3490483
-3.8734543	hiểu	-0.18420292
-3.8734543	màu	-0.18420292
-3.8734543	hồng	-0.18420292
-3.1523356	ghê	-0.26940978
-3.7631705	om	-0.18420292
-3.8734543	với	-0.18420292
-3.7631705	chậm	-0.27545357
-3.8734543	ơigiảm	-0.18420292
-3.8734543	53	-0.3490483
-3.8734543	39	-0.3490483
-3.8734543	kịp	-0.30272028
-3.531191	qua	-0.18420292
-3.531191	85%	-0.21093976
-3.7631705	lạ	-0.18420292
-2.8797872	sẽ	-0.5642103
-3.8734543	tuyệt	-0.18420292
-3.8734543	vời	-0.18420292
-3.531191	nếu	-0.25951993
-3.3016987	bài	-0.26940978
-3.8734543	ế	-0.18420292
-3.7631705	72%	-0.18420292
-3.7631705	54%	-0.23943123
-3.8734543	ới	-0.18420292
-3.7631705	cài	-0.18420292
-3.8734543	tròng	-0.18420292
-3.7631705	46	-0.8261696
-3.4014595	chà	-0.18420292
-3.531191	lênh	-0.39852214
-3.8734543	láng	-0.23943123
-3.7631705	cỡ	-0.18420292
-3.4014595	gần	-0.18420292
-3.8734543	khét	-0.18420292
-3.8734543	hình	-0.18420292
-3.8734543	hộ	-0.18420292
-3.4014595	yên	-0.30161214
-3.8734543	lặng	-0.18420292
-3.8734543	ơitắt	-0.18420292
-3.8734543	sẵn	-0.18420292
-3.7631705	96%	-0.23943123
-3.8734543	giai	-0.30272028
-3.7631705	64	-0.6500783
-2.7888048	đâu	-0.4563341
-3.8734543	41	-0.47398704
-3.4014595	hiện	-0.42158163
-3.8734543	21%	-0.276288
-3.531191	khuya	-0.25951993
-3.8734543	trì	-0.18420292
-3.3016987	82	-0.8261696
-3.531191	khá	-0.25951993
-3.4014595	19%	-0.28337407
-3.8734543	nhiên	-0.23943123
-3.531191	hẹn	-0.6500783
-3.2206275	50%	-0.20348312
-3.7631705	31	-0.9858704
-3.8734543	ca	-0.18420292
-3.8734543	/giảm	-0.18420292
-3.8734543	/47%	-0.18420292
-3.8734543	/21	-0.18420292
-3.8734543	/hè	-0.18420292
-3.8734543	hoàng	-0.5708971
-3.7631705	hôn	-0.22023073
-3.8734543	giời	-0.18420292
-3.7631705	hãng	-0.18420292
-3.3016987	2%	-0.22780938
-3.8734543	chồng	-0.18420292
-3.8734543	hú	-0.18420292
-3.2206275	45%	-0.23943123
-3.8734543	trục	-0.7170251
-3.8734543	trặc	-0.3257976
-3.7631705	vãi	-0.18420292
-3.8734543	nhà	-0.18420292
-3.7631705	hóng	-0.18420292
-3.8734543	quả	-0.18420292
-3.8734543	pin	-0.25951993
-3.4014595	dạo	-0.47398704
-2.995023	chế	-0.8855578
-3.8734543	chậu	-0.18420292
-3.4014595	chín	-0.47398704
-3.7631705	mãi	-0.5340401
-3.4014595	14%	-0.18420292
-3.7631705	40%	-0.39852214
-3.2206275	bớt	-0.22332302
-3.1523356	tý	-0.18420292
-3.1523356	vừa	-0.18420292
-3.7631705	ok	-0.18420292
-3.8734543	nổi	-0.18420292
-3.8734543	da	-0.18420292
-3.8734543	gà	-0.18420292
-3.8734543	náy	-0.18420292
-3.2206275	28%	-0.36913598
-3.8734543	linh	-0.26940978
-3.4014595	74%	-0.18420292
-3.8734543	50	-0.30272028
-3.8734543	nhávào	-0.18420292
-3.8734543	héo	-0.18420292
-3.531191	dậy	-0.47770342
-3.531191	í	-0.18420292
-3.2206275	tới	-0.18420292
-3.8734543	góc	-0.18420292
-3.8734543	xả	-0.18420292
-3.7631705	bồn	-0.18420292
-3.7631705	thoáng	-0.18420292
-3.531191	bánh	-0.18420292
-3.7631705	hà	-0.30272028
-3.8734543	nội	-0.18420292
-3.8734543	thiếu	-0.18420292
-3.8734543	cúng	-0.18420292
-3.8734543	vui	-0.18420292
-3.8734543	tai	-0.18420292
-3.8734543	44%	-0.18420292
-3.8734543	siri	-0.28307098
-3.531191	thức	-0.3490483
-3.8734543	bể	-0.18420292
-3.531191	mặt	-0.25951993
-3.531191	phóng	-0.25951993
-3.7631705	nghĩ	-0.30272028
-3.8734543	ô	-0.18420292
-3.8734543	gặp	-0.18420292
-3.3016987	lấy	-0.22780938
-3.7631705	vội	-0.18420292
-3.8734543	kẹt	-0.18420292
-3.3016987	kết	-0.47770342
-3.8734543	nối	-0.18420292
-3.4014595	nấu	-0.47398704
-3.4014595	thằng	-0.18420292
-3.8734543	sôi	-0.18420292
-3.3016987	16%	-0.3133373
-3.8734543	nho	-0.18420292
-3.3016987	cháy	-0.27545357
-3.7631705	quần	-0.30272028
-3.8734543	áo	-0.18420292
-3.7631705	hát	-0.18420292
-3.0414042	bỏ	-0.2873613
-3.8734543	cất	-0.18420292
-3.531191	bọn	-0.30198124
-3.7631705	trẻ	-0.39852214
-3.7631705	nhó	-0.18420292
-3.7631705	mờ	-0.30272028
-3.4014595	tốt	-0.18420292
-3.7631705	trưa	-0.30272028
-3.8734543	mính	-0.18420292
-3.8734543	lau	-0.18420292
-3.8734543	hanh	-0.18420292
-3.8734543	thank	-0.18420292
-3.8734543	you	-0.18420292
-3.8734543	kéo	-0.18420292
-3.8734543	ngại	-0.18420292
-3.8734543	bắn	-0.18420292
-3.8734543	tung	-0.18420292
-3.8734543	toé	-0.18420292
-3.8734543	chứ	-0.18420292
-3.8734543	dễ	-0.18420292
-3.8734543	ngã	-0.18420292
-3.8734543	ưi	-0.30272028
-3.8734543	chủ	-0.18420292
-3.8734543	nhân	-0.18420292
-3.8734543	ngắt	-0.18420292
-3.8734543	thử	-0.18420292
-3.8734543	xài	-0.18420292
-3.8734543	đặt	-0.18420292
-3.7631705	lịch	-0.18420292
-3.3016987	cũng	-0.22023073
-3.8734543	rùi	-0.18420292
-3.8734543	len	-0.18420292
-3.8734543	sư	-0.18420292
-3.8734543	tài	-0.3490483
-3.7631705	nhe	-0.18420292
-3.4014595	58%	-0.18420292
-3.8734543	nhòe	-0.18420292
-3.8734543	béng	-0.18420292
-3.8734543	thèm	-0.18420292
-3.531191	thiệt	-0.18420292
-3.8734543	52	-0.30272028
-3.7631705	cạnh	-0.25951993
-3.4014595	quay	-0.39852214
-3.8734543	vài	-0.18420292
-3.8734543	karaoke	-0.18420292
-3.8734543	lùa	-0.18420292
-3.7631705	tìm	-0.18420292
-3.8734543	nhớp	-0.18420292
-3.8734543	nháp	-0.18420292
-3.7631705	ngột	-0.30272028
-3.8734543	ngạt	-0.18420292
-3.8734543	e	-0.18420292
-3.8734543	đống	-0.18420292
-3.8734543	ảnh	-0.18420292
-3.7631705	đường	-0.18420292
-3.8734543	lùi	-0.18420292
-3.8734543	online	-0.18420292
-3.8734543	uống	-0.18420292
-3.8734543	dến	-0.18420292
-3.7631705	ko	-0.30272028
-3.8734543	ớ	-0.18420292
-3.8734543	ề	-0.18420292
-3.8734543	rè	-0.18420292
-3.8734543	nôi	-0.18420292
-3.8734543	thắng	-0.18420292
-3.8734543	ây	-0.18420292
-3.531191	xảy	-0.3490483
-3.8734543	đắng	-0.18420292
-3.8734543	tâm	-0.18420292
-3.8734543	đẹp	-0.18420292
-3.7631705	36	-0.18420292
-3.8734543	que	-0.18420292
-3.8734543	kem	-0.18420292
-3.8734543	đũa	-0.18420292
-3.8734543	cáo	-0.18420292
-3.7631705	khói	-0.18420292
-3.8734543	nồng	-0.18420292
-3.8734543	nặc	-0.18420292
-3.8734543	khắp	-0.18420292
-3.8734543	nghơi	-0.18420292
-3.8734543	áp	-0.18420292
-3.8734543	lức	-0.18420292
-3.8734543	thi	-0.18420292
-3.3016987	đừng	-0.276288
-3.8734543	tráng	-0.18420292
-3.8734543	dõi	-0.18420292
-3.8734543	sổ	-0.18420292
-3.8734543	hom	-0.18420292
-3.8734543	11%	-0.18420292
-3.8734543	trưng	-0.18420292
-3.8734543	tĩnh	-0.18420292
-3.8734543	chẳng	-0.18420292
-3.8734543	khoàng	-0.18420292
-3.8734543	54	-0.30272028
-3.8734543	tin	-0.18420292
-3.8734543	nơi	-0.18420292
-3.7631705	ờm	-0.30272028
-3.8734543	ối	-0.18420292
-3.8734543	dồi	-0.18420292
-3.8734543	thui	-0.18420292
-3.8734543	su	-0.18420292
-3.2206275	cô	-0.24792719
-3.8734543	trực	-0.18420292
-3.8734543	thăng	-0.18420292
-3.8734543	dở	-0.18420292
-3.8734543	chứng	-0.18420292
-2.5937304	tiệc	-1.37165
-3.8734543	tùng	-0.51950884
-3.8734543	huỷ	-0.18420292
-3.4014595	cảnh	-0.18420292
-3.8734543	giãn	-0.54741406
-2.995023	hủy	-0.2476478
-2.914908	lãng	-1.0480183
-3.8734543	mạn	-0.31477833
-3.1523356	sự	-0.97830576
-3.8734543	khí	-0.32131106
-3.8734543	32	-0.6500783
-3.8734543	37	-0.8261696
-3.7631705	tỉnh	-0.30272028
-3.8734543	thúc	-0.22780938
-3.3016987	buổi	-0.47770342
-3.8734543	49	-0.5708971
-3.4014595	định	-0.30161214
-3.7631705	cuộc	-0.30272028
-3.8734543	chúng	-0.18420292
-3.8734543	ta	-0.18420292
-3.8734543	nữ	-0.18420292
-3.8734543	vô	-0.18420292
-3.531191	tổ	-0.47398704
-3.8734543	chức	-0.47398704
-3.8734543	trung	-0.18420292
-3.8734543	set	-0.18420292
-3.8734543	up	-0.18420292
-3.531191	vì	-0.25951993
-3.7631705	bữa	-0.3490483
-3.8734543	cơ	-0.18420292
-3.8734543	tên	-0.18420292
-3.8734543	đứa	-0.30272028
-3.4014595	rời	-0.5340401
-3.2206275	a	-0.7170251
-3.8734543	lô	-0.32131106
-3.7631705	mời	-0.3490483
-3.8734543	bè	-0.18420292
-3.8734543	sớm	-0.25951993
-3.8734543	hoà	-0.18420292
-3.8734543	bởi	-0.18420292
-3.8734543	quyết	-0.18420292
-3.8734543	báo	-0.18420292
-3.8734543	cẩn	-0.18420292
-3.8734543	phiền	-0.30272028
-3.8734543	oke	-0.18420292
-3.8734543	zai	-0.18420292
-3.8734543	tốc	-0.18420292
-3.8734543	kĩ	-0.18420292
-3.7631705	18%	-0.18420292
-3.8734543	giá	-0.18420292
-3.8734543	trị	-0.18420292
-3.8734543	24%	-0.18420292
-3.8734543	53%	-0.18420292
-3.7631705	nấc	-0.18420292
-3.8734543	thấp	-0.18420292
-3.8734543	hẵng	-0.18420292
-3.8734543	66%	-0.18420292
-3.8734543	10%	-0.18420292
-3.8734543	gúp	-0.18420292
-3.8734543	nửa	-0.18420292
-3.8734543	trogn	-0.18420292
-3.8734543	nổ	-0.18420292

\2-grams:
-0.44856763	<s> cái
-3.2730548	cái cái
-2.6083024	trong cái
-2.0058799	đồ cái
-0.9764817	có cái
-1.9838215	còn cái
-1.9065065	không cái
-2.200692	ấy cái
-2.1746576	đi cái
-1.0424842	tra cái
-0.5433762	ngay cái
-1.7533685	nhé cái
-1.1836355	bật cái
-2.1741388	nướng cái
-2.0882182	phút cái
-2.239921	bạn cái
-1.8242272	ơi cái
-2.8246088	quá cái
-1.2084751	mở cái
-2.5453165	giúp cái
-0.18152532	mình cái
-1.6822681	với cái
-1.9607642	tưới cái
-1.1161641	đóng cái
-0.32120743	tôi cái
-1.7431381	em cái
-1.0048103	giảm cái
-2.3914626	độ cái
-1.2053502	sáng cái
-3.1018128	cho cái
-0.14542791	anh cái
-1.7383205	nhá cái
-2.1535342	lên cái
-2.8119333	phòng cái
-2.2543025	này cái
-2.290898	mùi cái
-1.0250523	tăng cái
-1.1109688	xem cái
-2.176387	lạnh cái
-1.9136276	cuốn cái
-1.0139487	của cái
-1.739367	long cái
-1.1441929	lại cái
-1.4811366	nhớ cái
-1.8292083	tắm cái
-1.4754562	hộ cái
-2.279891	được cái
-1.1391807	tắt cái
-0.21595456	chị cái
-2.614629	ở cái
-1.9030201	công cái
-1.219225	sao cái
-2.6164258	tối cái
-2.4803808	hình cái
-0.6692623	như cái
-2.1263642	ngủ cái
-2.3140543	tròn cái
-2.2638707	việc cái
-0.75249624	minh cái
-2.0038378	bình cái
-1.9374969	game cái
-1.3783852	trạng cái
-2.6017642	rèm cái
-1.7871271	ê cái
-2.3618672	sưởi cái
-1.8414199	cổng cái
-1.9718125	là cái
-1.8153466	ẩm cái
-2.0591526	cafe cái
-2.2618039	hơi cái
-2.466089	trần cái
-1.9925069	led cái
-2.3612535	mát cái
-1.7319776	nhở cái
-1.8304609	xa cái
-2.177784	cửa cái
-2.2420146	ra cái
-1.2037817	thấy cái
-0.14231615	mấy cái
-1.9137794	in cái
-2.2041554	loa cái
-2.0043464	thượng cái
-2.1511981	vào cái
-2.5722444	lý cái
-2.009062	khách cái
-1.219306	giùm cái
-0.90122086	chú cái
-2.1715758	hầm cái
-1.9313191	rượu cái
-2.266019	thả cái
-1.4714253	mạnh cái
-0.03131599	tao cái
-2.0532079	tuýp cái
-2.3606248	sân cái
-2.1169417	nhỉ cái
-1.6604773	động cái
-2.1105657	ý cái
-2.2560847	bếp cái
-1.7967925	sen cái
-2.0705142	compact cái
-1.894531	cuối cái
-0.6007589	cháu cái
-2.1676822	chính cái
-0.44856763	suất cái
-2.1898763	sảnh cái
-1.9647716	hè cái
-1.9307883	hồ cái
-2.1016254	gió cái
-1.4366632	26% cái
-2.0309796	fax cái
-2.4075706	mành cái
-0.1632491	tớ cái
-2.0181334	mức cái
-1.9898809	ông cái
-2.0847607	bụi cái
-1.7297198	xong cái
-1.455799	84% cái
-2.1557357	nha cái
-1.306058	6% cái
-1.3028451	dùm cái
-2.0284493	trước cái
-1.7416523	bà cái
-1.526043	để cái
-1.7683055	quang cái
-1.4097801	nhạc cái
-2.126105	2 cái
-1.7614074	bát cái
-1.565099	chạy cái
-1.2814751	lượng cái
-1.0576452	dùng cái
-0.44856763	trặng cái
-1.1053276	dọn cái
-1.8092471	kìa cái
-1.0408227	ơ cái
-1.372828	vy cái
-1.3527135	20% cái
-1.6922963	8% cái
-0.44856763	tau cái
-1.6127222	35% cái
-1.6296204	36% cái
-1.0999069	gần cái
-1.4827965	19% cái
-1.01999	nhiên cái
-1.3841289	50% cái
-1.7674867	chế cái
-0.79570484	bớt cái
-0.7161404	bỏ cái
-0.44856763	mính cái
-0.44856763	xài cái
-0.7371913	tìm cái
-0.44856763	ảnh cái
-0.8172426	cô cái
-0.44856763	huỷ cái
-1.4736027	hủy cái
-0.6198857	cái đèn
-2.2196293	còn đèn
-2.7821355	đi đèn
-1.5533828	tra đèn
-2.2652194	nhé đèn
-1.4052328	bật đèn
-2.7804503	quá đèn
-3.259713	mở đèn
-2.1252663	mình đèn
-2.5099983	với đèn
-2.3581054	cây đèn
-1.8372061	tôi đèn
-1.2447506	giảm đèn
-2.5544553	độ đèn
-1.6069379	sáng đèn
-3.7299533	cho đèn
-2.5087152	anh đèn
-2.9582515	nhá đèn
-2.1606834	bóng đèn
-1.1612551	tăng đèn
-2.0304537	nào đèn
-1.3975651	của đèn
-2.2554803	nhớ đèn
-3.3404956	hộ đèn
-1.2805082	tắt đèn
-2.1543076	chị đèn
-2.4785929	sao đèn
-1.6386776	như đèn
-1.4337932	trạng đèn
-2.4560108	hòa đèn
-2.9461067	cửa đèn
-2.034961	thấy đèn
-2.1650949	chờ đèn
-2.0891612	cuối đèn
-0.8690034	chiếc đèn
-2.2993646	mức đèn
-2.1870012	phải đèn
-1.775567	6% đèn
-2.0449107	hết đèn
-1.2942995	ánh đèn
-1.5091826	dùng đèn
-1.9269896	kìa đèn
-1.2809021	các đèn
-1.507251	ơ đèn
-1.1406012	bố đèn
-0.7543781	cài đèn
-0.45732504	ơitắt đèn
-1.4639783	bớt đèn
-1.4509435	đèn tranh
-3.5742998	cái trong
-2.5929189	đèn trong
-1.7181787	tranh trong
-2.5056493	không trong
-1.9872935	ấy trong
-2.135974	đi trong
-2.0345807	nhé trong
-3.0203893	bật trong
-1.2024057	nướng trong
-2.1689	3 trong
-1.9215657	phút trong
-2.5100355	ơi trong
-1.8640577	gì trong
-2.3273122	mở trong
-1.9263575	radio trong
-2.8382566	mình trong
-2.273706	với trong
-1.074732	tính trong
-2.3601346	tưới trong
-1.7385238	cây trong
-2.6700206	tôi trong
-3.2760272	em trong
-2.785759	giảm trong
-1.4870068	tường trong
-2.6631804	anh trong
-2.3989015	nhá trong
-2.9005685	bóng trong
-2.5497718	lên trong
-2.3053293	phòng trong
-2.3023534	này trong
-1.3573585	mùi trong
-1.251519	lạnh trong
-0.9749418	cuốn trong
-2.7514005	van trong
-0.8640256	nước trong
-1.6768228	tắm trong
-2.200458	học trong
-2.3984106	tắt trong
-2.6843162	chị trong
-0.8314136	ở trong
-2.254148	sao trong
-1.2578605	điện trong
-1.230735	ngủ trong
-1.428614	tròn trong
-0.8628199	việc trong
-1.2310852	game trong
-1.2384439	18 trong
-1.5415729	đang trong
-1.1362574	rèm trong
-1.1024368	sưởi trong
-2.3431053	cổng trong
-1.7104391	là trong
-1.8357624	ẩm trong
-1.0406647	cafe trong
-1.2366643	trần trong
-1.7906543	đình trong
-1.127899	chùm trong
-1.3391793	hòa trong
-1.4374542	đón trong
-1.6721925	xa trong
-1.6586913	cửa trong
-1.4026234	hắt trong
-1.1856805	in trong
-1.4385967	vi trong
-1.0625855	sóng trong
-1.3011585	loa trong
-1.4294478	thượng trong
-2.0831122	nó trong
-2.1710598	vào trong
-1.8304071	giặt trong
-1.7492901	à trong
-1.8774072	hầm trong
-1.754004	đốt trong
-1.5422412	thả trong
-1.8921814	4 trong
-1.3398577	tuýp trong
-1.965494	sân trong
-1.8040837	11 trong
-1.6462651	bếp trong
-1.0456047	sen trong
-1.1389318	bàn trong
-1.7580119	compact trong
-2.085691	tí trong
-1.9724566	nữa trong
-1.9883146	chính trong
-1.4894943	sảnh trong
-0.6016396	xuân trong
-1.502044	cả trong
-0.73336875	hồ trong
-1.3397802	tay trong
-1.4661992	gió trong
-0.50679433	26% trong
-0.98501	fax trong
-1.7953784	mành trong
-1.0014396	bụi trong
-1.6819812	13% trong
-2.1519115	bên trong
-1.6119351	luôn trong
-1.3165954	6% trong
-2.0722854	trước trong
-0.96551764	95% trong
-1.3354478	61% trong
-1.7923963	quang trong
-1.7532061	nhạc trong
-0.9032041	27% trong
-0.7240598	laptop trong
-0.93537444	bát trong
-0.98064244	ai trong
-1.7401872	chảy trong
-0.73162234	ngơi trong
-1.2558361	71% trong
-0.8007495	12% trong
-2.0046284	dùng trong
-0.4306147	37% trong
-0.9068231	41% trong
-1.8832482	chút trong
-0.7209475	tư trong
-1.3353771	47% trong
-1.2403762	87% trong
-1.358516	64% trong
-1.6353302	35% trong
-1.7284658	51% trong
-0.450535	trì trong
-0.450535	/47% trong
-1.326844	58% trong
-0.74102354	sổ trong
-1.3974514	tùng trong
-1.1087924	cảnh trong
-0.8515714	giãn trong
-0.74102354	53% trong
-3.6141727	cái nhà
-0.9365484	trong nhà
-2.6698194	có nhà
-2.6554902	đi nhà
-2.3338158	nhé nhà
-2.420346	nướng nhà
-2.7274942	phút nhà
-3.2993093	bạn nhà
-2.8026073	ơi nhà
-2.5781283	với nhà
-2.920853	rồi nhà
-2.8059368	sáng nhà
-3.4918537	anh nhà
-2.5424478	nhá nhà
-2.3176954	xem nhà
-2.079522	nhớ nhà
-1.8562535	nước nhà
-1.2186747	ở nhà
-2.4244995	điện nhà
-2.4080656	như nhà
-0.9592681	chỗ nhà
-2.964978	cửa nhà
-2.236614	thượng nhà
-1.611943	về nhà
-1.7505977	vào nhà
-1.1751497	đến nhà
-1.8569701	tại nhà
-1.2755828	dưới nhà
-0.45774254	okay nhà
-2.2278671	nghỉ nhà
-0.29745746	ngôi nhà
-2.1307023	dùng nhà
-1.1442773	dọn nhà
-1.2216175	từ nhà
-1.1153225	khỏi nhà
-1.8988907	88% nhà
-1.1426182	gần nhà
-0.45774254	lau nhà
-1.3842393	58% nhà
-0.47231245	cạnh nhà
-0.45774254	khắp nhà
-0.45774254	dõi nhà
-0.45774254	vô nhà
-0.99135566	nhà giữ
-2.804492	nhớ giữ
-0.02920356	giữ đồ
-3.7706218	ơi đồ
-3.8736207	cho đồ
-0.995995	nhiều đồ
-2.5676112	giặt đồ
-0.057109263	thay đồ
-0.6961241	lấy đồ
-1.4103094	bỏ đồ
-0.4605921	cất đồ
-0.90805095	đồ trường
-0.54042315	lang trường
-0.026121443	thống trường
-0.013460435	trường sa
-3.0602467	đèn có
-2.1221223	tranh có
-2.4006162	nhà có
-2.1062288	đồ có
-1.3863475	sa có
-1.6717919	không có
-2.560303	đi có
-2.6874068	nhé có
-2.2534266	3 có
-1.3942363	bạn có
-2.6738935	ơi có
-2.389471	quá có
-1.937463	gì có
-2.7810953	mình có
-2.4782972	với có
-2.47871	tưới có
-2.776182	rồi có
-2.4774888	em có
-2.4168928	tường có
-2.713455	anh có
-2.6114926	nhá có
-2.138064	này có
-1.5037075	xem có
-2.276745	nước có
-2.3242226	học có
-2.818447	chị có
-2.00672	điện có
-1.1367611	như có
-2.0288985	bị có
-2.3674095	ngủ có
-1.203413	minh có
-2.0224729	game có
-1.4631855	đang có
-2.2983212	muốn có
-2.6781347	cổng có
-1.4243273	trời có
-1.576823	nay có
-2.190433	cafe có
-2.3405225	trần có
-1.8630682	đình có
-1.9885826	đón có
-2.2374775	xa có
-1.9781132	thấy có
-2.3060384	in có
-1.8064276	nó có
-2.2769475	hầm có
-2.1493225	đốt có
-2.1312904	thả có
-2.5017524	sân có
-1.7050796	my có
-1.7104597	ngoài có
-2.2040572	5 có
-2.2214344	ảo có
-2.0187442	cuối có
-1.3011163	sắp có
-2.1866858	nữa có
-2.3558865	sảnh có
-2.3339667	hồ có
-1.248746	kia có
-2.2376506	tớ có
-2.2256567	bụi có
-2.0172808	vườn có
-2.305114	nha có
-1.9252691	8 có
-1.7963893	sau có
-0.4545797	nực có
-2.2493322	camera có
-1.4782473	thang có
-1.3682209	nhi có
-2.3718204	thì có
-1.4468238	wc có
-1.8189167	xép có
-1.9052941	đây có
-1.0369716	tức có
-1.3188639	huy có
-0.4545797	trông có
-2.1108673	sẽ có
-1.2611939	vừa có
-0.8862521	linh có
-0.92160916	phóng có
-0.6879013	đừng có
-2.2145627	đồ còn
-1.7892395	có còn
-1.5802565	không còn
-2.4986248	nướng còn
-2.3912144	3 còn
-3.55804	với còn
-3.3093672	tôi còn
-2.9256415	tường còn
-1.0362328	xuống còn
-3.6862693	anh còn
-2.6406326	này còn
-1.7249502	xem còn
-2.5973833	sao còn
-1.6116626	nó còn
-2.5198138	sen còn
-2.3434458	tay còn
-0.8813044	vẫn còn
-1.9317889	bà còn
-1.8490013	người còn
-3.223249	cái không
-2.7400625	đèn không
-2.1221266	còn không
-1.8623661	ấy không
-2.5513973	đi không
-2.364327	nhé không
-2.3292859	bật không
-2.269639	giờ không
-2.7294207	bạn không
-2.5565867	quá không
-0.95083576	gì không
-1.8511438	nghe không
-3.1284227	mở không
-2.0420551	mình không
-3.1280227	với không
-1.6664788	rồi không
-1.4710677	tôi không
-3.1805737	em không
-2.3998272	sáng không
-2.227048	anh không
-3.1427808	phòng không
-2.1323013	này không
-1.0691278	thôi không
-1.7116199	lại không
-2.3181198	tắm không
-0.054725733	được không
-2.3126872	học không
-2.2475889	chị không
-1.7502056	sao không
-1.8038487	như không
-1.0357053	đúng không
-1.6597388	lắm không
-2.2112727	ngủ không
-2.4717739	tròn không
-2.0062847	việc không
-2.312222	game không
-2.0383782	đang không
-2.5006945	sưởi không
-2.2882247	muốn không
-2.0880363	là không
-1.8858386	nên không
-1.5317259	chắc không
-2.1856804	sóng không
-2.133644	thượng không
-0.94443357	nó không
-1.6100831	ăn không
-1.8324877	chết không
-1.5480571	quên không
-2.0303564	mất không
-1.8095617	à không
-2.2704616	hầm không
-2.032494	rượu không
-1.7436212	đó không
-2.1302538	tuýp không
-0.4013322	động không
-1.6020776	hay không
-2.1111133	chờ không
-2.0109355	cuối không
-1.7108954	chính không
-2.0664024	sảnh không
-2.176756	tay không
-1.5378867	và không
-1.9062027	chung không
-2.2954533	nha không
-1.794637	vẫn không
-1.790437	sau không
-2.1687272	trước không
-2.2419403	camera không
-1.7911566	hỏng không
-1.3167297	gian không
-1.8833768	ai không
-1.8860921	ngơi không
-1.4810699	cần không
-1.1047244	chút không
-1.5422866	đây không
-0.4542481	dược không
-1.2188213	sẽ không
-0.46927255	nếu không
-0.23309007	mãi không
-0.29561496	nghĩ không
-1.0357053	tốt không
-0.4542481	chứ không
-0.4542481	thắng không
-1.2713948	khí không
-1.0421076	định không
-1.9833794	sa ấy
-2.1832855	không ấy
-1.9021605	phút ấy
-1.3858027	gì ấy
-3.2126412	mở ấy
-3.246102	với ấy
-2.9129956	vòi ấy
-2.9010644	nhá ấy
-3.0064783	phòng ấy
-1.9781482	thôi ấy
-2.4519293	lạnh ấy
-2.1841996	tắm ấy
-3.2330115	tắt ấy
-1.1073918	chưa ấy
-2.0455096	công ấy
-0.5639917	sao ấy
-2.2961931	tối ấy
-2.6790671	ngủ ấy
-2.5467963	tròn ấy
-2.6476228	nóng ấy
-2.1917233	họp ấy
-1.8982255	đình ấy
-2.3948932	vi ấy
-1.6493747	thượng ấy
-1.8563671	khách ấy
-2.0758688	rượu ấy
-2.4847183	thả ấy
-2.496227	tuýp ấy
-2.5525856	sân ấy
-2.1686404	bếp ấy
-2.5153415	compact ấy
-2.2310364	5 ấy
-1.9117192	mắt ấy
-1.6943705	cuối ấy
-1.9086057	chính ấy
-2.103499	sảnh ấy
-2.135178	hè ấy
-1.5914059	thờ ấy
-1.6259135	yêu ấy
-1.9366194	chung ấy
-1.6675891	vườn ấy
-1.7940013	phải ấy
-1.9613584	8 ấy
-1.9676294	gym ấy
-1.676293	luôn ấy
-2.2332904	trước ấy
-1.4656963	bà ấy
-2.2042487	nghỉ ấy
-1.80421	hỏng ấy
-2.2915685	2 ấy
-1.7496307	đợi ấy
-1.5738591	đạt ấy
-1.2147294	hư ấy
-1.5803446	9% ấy
-1.8747517	88% ấy
-1.3302438	huy ấy
-1.2124968	hôn ấy
-0.45632473	ngại ấy
-0.9235883	thiệt ấy
-1.2769752	cô ấy
-2.6496408	không nhờ
-2.5740817	ấy nhờ
-3.2787995	quá nhờ
-3.4552436	mở nhờ
-2.987381	tối nhờ
-2.013674	thế nhờ
-2.4354668	ý nhờ
-1.1561707	bố nhờ
-0.7607088	ngày nhờ
-0.460508	tĩnh nhờ
-2.5645227	đèn đi
-1.5148273	tranh đi
-2.1517496	nhà đi
-1.9796836	đồ đi
-2.3881369	có đi
-1.9476088	còn đi
-1.566149	không đi
-1.4231474	nhờ đi
-2.546558	đi đi
-2.3341858	tra đi
-2.0350835	ngay đi
-1.5987991	nướng đi
-2.6368508	lúc đi
-2.2928147	giờ đi
-2.1021895	3 đi
-1.9526756	phút đi
-2.9589105	bạn đi
-3.0526984	ơi đi
-1.1499314	radio đi
-1.834317	mình đi
-1.1450942	tưới đi
-1.3364779	cây đi
-2.41777	đóng đi
-1.8839273	tôi đi
-3.0299962	em đi
-2.3371334	giảm đi
-1.7180563	độ đi
-2.150139	sáng đi
-1.0158489	tường đi
-1.2144344	xuống đi
-1.8149439	anh đi
-2.2971907	bóng đi
-1.5468755	đứng đi
-1.2266802	lên đi
-2.9000475	phòng đi
-1.8846933	này đi
-1.3478278	mùi đi
-1.3347806	lạnh đi
-1.3054641	cuốn đi
-1.7159122	long đi
-0.9119072	lại đi
-1.3803337	nước đi
-1.3149555	tắm đi
-1.271922	học đi
-1.7853962	tắt đi
-1.8615347	chị đi
-1.581258	công đi
-1.6000648	điện đi
-1.0669575	bị đi
-1.2882314	ngủ đi
-1.1562136	tròn đi
-1.3962109	việc đi
-1.1283158	game đi
-2.1596622	đang đi
-2.3027172	rèm đi
-1.3422993	sưởi đi
-0.5690217	muốn đi
-1.1425179	cổng đi
-1.1806123	ẩm đi
-1.327518	cafe đi
-1.1844497	trần đi
-1.3662068	họp đi
-1.732161	đình đi
-1.149832	led đi
-1.0343275	chùm đi
-1.7079159	nhở đi
-1.6284546	hòa đi
-1.5700715	đón đi
-0.8823224	xa đi
-1.5805395	cửa đi
-1.5438362	ra đi
-1.6988612	hắt đi
-1.3742452	in đi
-2.2632642	vi đi
-1.5973623	sóng đi
-1.5851548	loa đi
-1.291618	thượng đi
-1.5500441	nó đi
-1.3291705	vào đi
-1.3087151	khách đi
-1.6377714	giặt đi
-1.4397105	rượu đi
-1.0112739	đốt đi
-1.7913836	phim đi
-1.5113846	hân đi
-1.3342712	thả đi
-1.8518394	4 đi
-1.4504253	tuýp đi
-1.1941934	sân đi
-1.6254601	bếp đi
-1.502979	sen đi
-1.2761357	bàn đi
-1.2360725	compact đi
-2.0994074	5 đi
-1.1921092	chờ đi
-1.4352102	cuối đi
-1.7394968	sắp đi
-2.2455797	nữa đi
-1.4569906	chính đi
-1.3369063	sảnh đi
-1.6706353	hè đi
-1.4980152	xuân đi
-2.1760645	hồ đi
-1.4455462	tay đi
-2.072097	gió đi
-1.521197	yêu đi
-1.3033686	và đi
-2.0031395	đấy đi
-1.382916	kia đi
-0.97900325	fax đi
-1.7807447	9 đi
-1.8038337	39% đi
-1.2873468	bụi đi
-1.6370856	13% đi
-1.0093188	chung đi
-1.4411154	84% đi
-1.4167117	vườn đi
-1.3650246	phải đi
-1.2757653	đọc đi
-1.4971082	8 đi
-1.8266773	gym đi
-1.673273	sau đi
-2.0433388	hiên đi
-1.0637376	trước đi
-1.3445598	95% đi
-1.364966	camera đi
-1.0390315	bà đi
-1.1145304	để đi
-1.7793398	thang đi
-1.0340861	quang đi
-1.1586251	92% đi
-1.0919185	23% đi
-1.6482658	nhi đi
-1.6636543	2 đi
-1.8914948	đợi đi
-1.1058805	bát đi
-1.7672992	ai đi
-1.5203842	nãy đi
-1.4595574	ngơi đi
-1.5449792	chạy đi
-1.5104481	97% đi
-1.6117887	71% đi
-1.031454	wc đi
-1.5771128	78% đi
-1.670878	người đi
-1.1994641	xép đi
-1.7854154	thêm đi
-1.0980059	15% đi
-0.7337079	22% đi
-1.6455195	65% đi
-1.0878853	cần đi
-1.4467485	99% đi
-1.3769357	chút đi
-1.6595757	tư đi
-1.8492179	ơn đi
-1.1586251	hơn đi
-1.5408274	38% đi
-1.7659326	đây đi
-1.4107827	88% đi
-1.627461	4% đi
-0.9613012	vy đi
-1.6500798	viện đi
-1.4621835	c đi
-1.3391856	20% đi
-1.6713626	8% đi
-1.5929837	35% đi
-1.2103003	31% đi
-0.759266	sẽ đi
-1.007852	14% đi
-0.7337079	vội đi
-1.4975352	16% đi
-1.2993085	58% đi
-1.0919185	cảnh đi
-1.4574366	hủy đi
-0.37340286	định đi
-0.44677198	nửa đi
-3.0664194	cái kiểm
-2.0414798	tranh kiểm
-2.5767183	nhà kiểm
-2.0246923	đồ kiểm
-1.862214	sa kiểm
-1.6122823	không kiểm
-0.8298603	ấy kiểm
-1.0423203	nhờ kiểm
-1.6591814	đi kiểm
-1.4170334	nhé kiểm
-2.2003076	nướng kiểm
-1.8584074	3 kiểm
-1.4044261	phút kiểm
-1.3460227	bạn kiểm
-0.9752338	ơi kiểm
-1.6366322	quá kiểm
-3.5833929	giúp kiểm
-2.2470667	mình kiểm
-1.3542684	với kiểm
-2.341482	tưới kiểm
-1.165061	rồi kiểm
-1.7008638	tôi kiểm
-1.4001702	em kiểm
-2.5355077	sáng kiểm
-2.1938531	tường kiểm
-2.124061	anh kiểm
-1.2322756	nhá kiểm
-2.8893058	bóng kiểm
-2.3282409	lên kiểm
-1.4134485	này kiểm
-2.318735	mùi kiểm
-1.846001	thôi kiểm
-2.1557705	xem kiểm
-1.567535	nào kiểm
-1.9328868	lạnh kiểm
-2.3498945	cuốn kiểm
-1.2274792	nhớ kiểm
-0.86443394	thể kiểm
-2.3793304	nước kiểm
-2.638018	được kiểm
-2.1811152	học kiểm
-2.6636221	chị kiểm
-2.2353249	sao kiểm
-1.2482989	thế kiểm
-1.1103914	ờ kiểm
-2.2670276	ngủ kiểm
-2.1251714	tròn kiểm
-2.5266085	nóng kiểm
-2.1944408	game kiểm
-1.0875902	ê kiểm
-2.388499	sưởi kiểm
-1.6127702	muốn kiểm
-1.994566	là kiểm
-1.8239623	nên kiểm
-2.2919228	hơi kiểm
-1.6308575	ồn kiểm
-2.4949522	trần kiểm
-2.0857053	họp kiểm
-2.0154614	led kiểm
-0.85611296	hãy kiểm
-0.90436447	nhở kiểm
-2.2927017	hòa kiểm
-1.8820063	đón kiểm
-2.1400065	xa kiểm
-2.4832847	cửa kiểm
-1.8459568	ra kiểm
-1.7879069	lý kiểm
-2.034769	khách kiểm
-1.6224822	mất kiểm
-2.2683084	giặt kiểm
-1.7381781	à kiểm
-1.3336259	đó kiểm
-1.9092985	thả kiểm
-2.1569238	4 kiểm
-2.068833	tuýp kiểm
-2.010293	đến kiểm
-0.7549338	nhỉ kiểm
-1.6725408	động kiểm
-0.9648963	ý kiểm
-2.2853472	bếp kiểm
-2.2580247	ngoài kiểm
-2.234384	sen kiểm
-1.0189624	liệu kiểm
-2.0626655	lí kiểm
-1.3417522	ảo kiểm
-1.4316767	đê kiểm
-1.5328859	cháu kiểm
-1.5659188	tí kiểm
-1.6972246	nữa kiểm
-1.8498119	sảnh kiểm
-1.4940573	cả kiểm
-2.076113	tay kiểm
-1.1653606	đấy kiểm
-1.7275255	kia kiểm
-2.053478	fax kiểm
-1.8520943	39% kiểm
-2.4303849	mành kiểm
-1.7744443	cậu kiểm
-2.181455	tớ kiểm
-1.8848463	đề kiểm
-2.0993445	chung kiểm
-1.9305359	vườn kiểm
-1.378457	phải kiểm
-1.9314038	nha kiểm
-1.3303314	mày kiểm
-1.8668737	gym kiểm
-1.6485186	trước kiểm
-1.7591071	bà kiểm
-1.1744318	92% kiểm
-1.7411386	nhạc kiểm
-2.1151986	hỏng kiểm
-1.1826332	thì kiểm
-1.8551725	2 kiểm
-1.9492656	đợi kiểm
-1.3711706	vậy kiểm
-1.3036734	sai kiểm
-1.4185013	wc kiểm
-0.9047138	duy kiểm
-1.2273058	lát kiểm
-1.6800451	65% kiểm
-1.824092	kìa kiểm
-1.8558679	lang kiểm
-1.1560946	á kiểm
-1.8150373	đây kiểm
-1.3303314	47% kiểm
-1.6864909	viện kiểm
-1.1054391	bố kiểm
-1.7190909	51% kiểm
-1.5998651	31% kiểm
-1.2936203	bài kiểm
-0.4497962	ế kiểm
-0.2932575	giai kiểm
-1.9298407	đâu kiểm
-1.3943661	50% kiểm
-1.1792686	hôn kiểm
-1.1054391	í kiểm
-0.4497962	44% kiểm
-0.6123782	siri kiểm
-0.7395825	lịch kiểm
-0.0005127671	kiểm tra
-3.1806424	đi ngay
-2.4836237	tra ngay
-2.2066295	bật ngay
-2.1714706	mở ngay
-3.5520782	mình ngay
-2.0884147	tưới ngay
-2.2879953	đóng ngay
-2.9406638	giảm ngay
-3.180668	anh ngay
-3.170125	lên ngay
-3.4527197	phòng ngay
-3.3072507	tăng ngay
-2.428078	tắm ngay
-2.1377223	tắt ngay
-3.0190618	ở ngay
-2.3333554	cafe ngay
-1.7126801	đón ngay
-2.6636388	cửa ngay
-2.4688861	in ngay
-2.539886	chính ngay
-2.0158057	và ngay
-2.3914607	chung ngay
-2.3736415	camera ngay
-3.4321306	cái nhé
-2.8867214	đèn nhé
-1.5077155	tranh nhé
-1.6650432	đồ nhé
-1.1634594	sa nhé
-2.1538918	không nhé
-1.1669549	đi nhé
-2.8295274	tra nhé
-1.2231069	ngay nhé
-2.8951375	bật nhé
-1.5903299	nướng nhé
-2.1589663	giờ nhé
-1.1958973	3 nhé
-0.78777814	phút nhé
-2.3820515	bạn nhé
-1.7192382	radio nhé
-1.5876099	mình nhé
-1.6279314	với nhé
-1.402352	tưới nhé
-1.8453192	cây nhé
-2.3602104	rồi nhé
-1.8226181	tôi nhé
-1.4301486	em nhé
-2.1340375	sáng nhé
-1.5099581	tường nhé
-1.5261014	xuống nhé
-1.6441255	anh nhé
-3.0070014	bóng nhé
-1.3663567	đứng nhé
-1.1406713	lên nhé
-2.5492635	phòng nhé
-1.5351262	mùi nhé
-0.8036603	thôi nhé
-1.4427662	lạnh nhé
-1.3564085	cuốn nhé
-1.2047497	long nhé
-1.4798167	lại nhé
-1.6150331	nước nhé
-1.2565198	tắm nhé
-1.4519538	học nhé
-2.931012	tắt nhé
-1.6066006	chưa nhé
-1.756761	chị nhé
-1.8530277	công nhé
-1.6821485	sao nhé
-1.2629206	ngủ nhé
-1.5278983	tròn nhé
-1.4441831	việc nhé
-2.524162	chơi nhé
-1.4977404	game nhé
-2.129801	rèm nhé
-1.1844039	sưởi nhé
-1.4782895	cổng nhé
-1.6285317	ẩm nhé
-1.7573353	cafe nhé
-1.7467312	hơi nhé
-1.4513488	trần nhé
-1.5413028	họp nhé
-1.0772917	đình nhé
-1.6830325	led nhé
-1.617166	chùm nhé
-1.6223408	hòa nhé
-1.1187012	đón nhé
-1.6855488	cửa nhé
-1.8098917	ra nhé
-1.8765202	in nhé
-1.5889792	sóng nhé
-1.7429221	loa nhé
-1.40228	thượng nhé
-2.0087054	nó nhé
-0.44522715	nhảy nhé
-1.6421283	vào nhé
-1.5754423	khách nhé
-1.3437412	giặt nhé
-1.6675241	hầm nhé
-1.1345054	rượu nhé
-1.710862	đốt nhé
-0.85378754	phim nhé
-1.1508613	hân nhé
-1.2817141	thả nhé
-1.0236382	4 nhé
-1.8738453	tuýp nhé
-1.924316	sân nhé
-0.5571486	my nhé
-1.1116083	bếp nhé
-1.9189492	sen nhé
-2.0695815	bàn nhé
-1.729567	compact nhé
-2.0811956	5 nhé
-1.9815876	chờ nhé
-1.0022552	liệu nhé
-2.2222803	chói nhé
-1.4255538	cuối nhé
-1.2016473	nữa nhé
-1.0553305	bé nhé
-1.2149557	chính nhé
-1.1864984	sảnh nhé
-1.3337586	hè nhé
-0.5418614	89% nhé
-1.1158223	xuân nhé
-1.5768106	hồ nhé
-1.3203766	tay nhé
-1.123143	thờ nhé
-1.6161959	gió nhé
-2.2857873	sinh nhé
-1.5062176	yêu nhé
-1.4127223	26% nhé
-1.5966207	đấy nhé
-1.9748402	fax nhé
-1.4063683	9 nhé
-0.94103116	39% nhé
-1.5514997	thu nhé
-2.3507109	mành nhé
-1.2831261	tớ nhé
-0.34518936	83% nhé
-1.7952261	bụi nhé
-1.88287	7 nhé
-0.6911419	13% nhé
-0.8645164	chung nhé
-1.0560784	84% nhé
-1.4088922	vườn nhé
-1.0027016	phải nhé
-1.6184465	đọc nhé
-1.2557595	đông nhé
-1.1423595	8 nhé
-1.3154708	gym nhé
-1.040323	trái nhé
-0.76023877	29% nhé
-1.0151068	luôn nhé
-0.69109	6% nhé
-1.3077277	hiên nhé
-1.3429899	trước nhé
-0.94998777	95% nhé
-0.90931666	61% nhé
-1.1878147	camera nhé
-1.2142485	bà nhé
-1.7300105	quang nhé
-1.1507266	92% nhé
-0.599782	73% nhé
-0.94936347	nhi nhé
-1.0218654	2 nhé
-0.6602636	quân nhé
-1.102468	đợi nhé
-0.9419285	khôi nhé
-1.4494342	ngơi nhé
-0.90931666	34% nhé
-1.1037551	đạt nhé
-0.62190944	97% nhé
-0.46751696	71% nhé
-0.8994206	wc nhé
-0.67524993	78% nhé
-1.1936069	xép nhé
-0.74885213	77% nhé
-1.0917805	15% nhé
-1.1109115	9% nhé
-0.9651544	37% nhé
-0.7918826	65% nhé
-1.4739494	lang nhé
-1.9017255	1 nhé
-1.3394225	62% nhé
-1.0773753	chút nhé
-0.8007158	38% nhé
-1.039525	88% nhé
-0.4882652	4% nhé
-1.0851357	33% nhé
-1.300189	47% nhé
-1.6325052	viện nhé
-1.4553562	59% nhé
-0.6575312	c nhé
-0.9475791	20% nhé
-0.7258431	8% nhé
-0.8989141	kiệm nhé
-0.38255203	64% nhé
-0.734733	35% nhé
-0.84081197	51% nhé
-0.8684057	36% nhé
-0.694211	31% nhé
-1.2557595	85% nhé
-1.0022552	72% nhé
-0.580911	96% nhé
-0.70700246	đâu nhé
-0.890235	19% nhé
-1.3573194	50% nhé
-0.94998777	2% nhé
-0.44522715	nhà nhé
-1.0022552	14% nhé
-0.46686432	28% nhé
-0.66181576	linh nhé
-1.0022552	74% nhé
-0.7285342	16% nhé
-1.2884257	58% nhé
-1.8680239	tùng nhé
-1.4852295	mạn nhé
-1.0022552	24% nhé
-0.73072183	nấc nhé
-2.9194655	cái bật
-2.0440252	tranh bật
-2.3351958	nhà bật
-2.0272634	đồ bật
-1.4332758	còn bật
-1.6129438	không bật
-1.6569101	ấy bật
-1.4465752	nhờ bật
-1.699842	đi bật
-2.0788379	ngay bật
-1.4172646	nhé bật
-2.2039192	nướng bật
-2.4538188	giờ bật
-1.5896876	phút bật
-1.4316454	bạn bật
-0.97683287	ơi bật
-0.925117	quá bật
-2.6174004	mình bật
-1.4595058	với bật
-2.0541997	tính bật
-2.1644385	cây bật
-1.1300304	rồi bật
-1.9628497	tôi bật
-1.5154878	em bật
-2.4504707	xuống bật
-2.3444426	anh bật
-1.3118092	nhá bật
-3.1128676	bóng bật
-2.0556114	đứng bật
-2.0009923	lên bật
-1.5533664	này bật
-1.8488951	thôi bật
-1.5688562	nào bật
-2.0446432	lạnh bật
-2.5901496	cuốn bật
-2.0935502	lại bật
-1.2615685	nhớ bật
-1.4047474	thể bật
-2.0555468	nước bật
-2.18534	học bật
-2.4798915	chị bật
-3.2189744	ở bật
-1.925564	công bật
-2.6469195	tối bật
-1.1814816	thế bật
-1.607064	lắm bật
-2.2701292	ngủ bật
-2.091562	việc bật
-2.1982784	game bật
-1.1513015	đang bật
-1.4631975	ê bật
-1.4953195	muốn bật
-2.3332932	cổng bật
-2.268722	trần bật
-1.7812289	đình bật
-2.3709292	chùm bật
-0.85615027	hãy bật
-1.751529	nhở bật
-2.7013612	cửa bật
-1.1800792	nhanh bật
-1.7932605	sóng bật
-2.230823	loa bật
-2.0744586	nó bật
-1.5529393	về bật
-1.7883377	lý bật
-2.0383146	khách bật
-2.0898988	quên bật
-1.6235764	mất bật
-1.4044634	à bật
-1.8728737	hầm bật
-1.6786766	đó bật
-2.0616856	đốt bật
-2.298261	thả bật
-2.014019	đến bật
-2.389632	sân bật
-1.0007502	nhỉ bật
-1.1026473	ý bật
-1.916824	bếp bật
-1.9708377	sen bật
-2.151467	bàn bật
-2.139368	5 bật
-1.0195711	liệu bật
-1.1645439	ảo bật
-2.0764623	tí bật
-1.6982312	nữa bật
-2.2013965	chính bật
-2.2232556	sảnh bật
-1.4958194	cả bật
-2.234124	hồ bật
-1.4610074	tay bật
-1.4984529	và bật
-1.3391937	đấy bật
-2.0565677	fax bật
-1.9122493	thu bật
-2.4335194	mành bật
-1.7751243	cậu bật
-2.1137264	bụi bật
-1.8866222	đề bật
-1.379195	phải bật
-1.9334745	nha bật
-1.8415375	8 bật
-1.7372378	vẫn bật
-2.0775366	hiên bật
-2.0590365	trước bật
-2.1074274	để bật
-1.4244667	quang bật
-1.1061821	23% bật
-1.6895041	nhi bật
-2.1109154	nghỉ bật
-0.8802452	thì bật
-1.5353571	khôi bật
-1.1753027	garage bật
-1.4043734	12% bật
-1.6190876	lát bật
-1.8261102	kìa bật
-2.0974052	cần bật
-1.4721489	99% bật
-0.9199802	phát bật
-2.0268385	tư bật
-2.2345452	ơn bật
-1.5441223	á bật
-1.5741285	38% bật
-0.7399023	sợ bật
-1.8178566	đây bật
-0.4499603	hẳn bật
-1.0195711	sang bật
-1.2945623	bài bật
-1.1160157	21% bật
-0.7399023	hãng bật
-1.2899746	45% bật
-0.4499603	quả bật
-1.2945623	linh bật
-1.2324169	tới bật
-1.0195711	bánh bật
-0.4499603	hanh bật
-1.9297967	tùng bật
-1.0195711	24% bật
-1.3148414	cái lò
-2.3001146	tra lò
-3.4114492	nhé lò
-2.2799792	bật lò
-3.0786767	mình lò
-1.545427	đóng lò
-2.5996547	tôi lò
-3.4035244	anh lò
-2.2727122	tăng lò
-2.844072	của lò
-3.4199004	tắt lò
-1.0783973	chiếc lò
-1.2994219	các lò
-0.44935343	lò nướng
-3.8597896	anh nướng
-2.7677336	bị nướng
-2.55551	muốn nướng
-1.4126965	đã nướng
-2.1175628	tranh lúc
-1.9428713	sa lúc
-2.644603	không lúc
-2.3435757	ấy lúc
-2.8155067	đi lúc
-3.2507472	tra lúc
-2.1377935	nhé lúc
-3.1376243	bật lúc
-1.4169092	nướng lúc
-1.9027768	3 lúc
-2.837676	phút lúc
-2.12732	ơi lúc
-2.8835053	mở lúc
-1.6000084	radio lúc
-2.7769647	mình lúc
-2.6765573	với lúc
-1.4290627	tưới lúc
-2.2691529	cây lúc
-2.7665753	rồi lúc
-2.769375	tôi lúc
-3.407371	em lúc
-2.669543	sáng lúc
-1.6699626	tường lúc
-2.6420338	anh lúc
-2.6046696	nhá lúc
-1.7812772	đứng lúc
-2.8239646	lên lúc
-2.439476	mùi lúc
-2.663165	lạnh lúc
-2.032534	nhớ lúc
-1.7363256	nước lúc
-2.0482001	học lúc
-2.8089306	chị lúc
-3.3548105	ở lúc
-2.3207102	điện lúc
-1.410875	ngủ lúc
-1.8612345	tròn lúc
-2.0073833	việc lúc
-2.3147347	game lúc
-2.196097	sưởi lúc
-1.6740191	cổng lúc
-1.1924424	nay lúc
-2.2095726	ẩm lúc
-1.8683032	trần lúc
-1.3997717	led lúc
-2.3839111	hòa lúc
-1.1373506	sóng lúc
-1.3215142	thượng lúc
-0.24299216	vào lúc
-2.675299	lý lúc
-1.2394056	giặt lúc
-2.1441514	đốt lúc
-1.5964146	hân lúc
-1.646959	đến lúc
-2.2108002	nhỉ lúc
-2.2390246	ý lúc
-1.5720004	bếp lúc
-2.242772	bàn lúc
-2.151767	tí lúc
-1.7257932	nữa lúc
-1.6905589	bé lúc
-1.8208979	đầu lúc
-2.0849226	hè lúc
-2.062618	khoảng lúc
-1.2117649	83% lúc
-1.7320586	13% lúc
-2.2978485	nha lúc
-1.5515431	gym lúc
-1.6032009	29% lúc
-1.829877	bà lúc
-0.9480258	một lúc
-1.5416495	đợi lúc
-1.6224226	bát lúc
-1.0641587	71% lúc
-1.9166188	lang lúc
-1.6126223	1 lúc
-1.2193893	38% lúc
-1.5080795	c lúc
-1.6501269	31% lúc
-1.0392015	54% lúc
-0.27178037	40% lúc
-1.6196691	28% lúc
-0.45433098	nhávào lúc
-0.74846447	18% lúc
-2.975719	trong 16
-3.298513	đi 16
-1.3685993	lúc 16
-1.3304443	giờ 16
-1.4489614	tiếng 16
-1.7090465	đến 16
-2.728411	nữa 16
-2.3067386	khoảng 16
-2.134668	vòng 16
-2.1438239	tầm 16
-1.2994925	tới 16
-0.4603399	dến 16
-2.6072354	nhé giờ
-0.4152106	16 giờ
-0.84328085	3 giờ
-3.4671004	ơi giờ
-2.986622	với giờ
-3.1103592	tôi giờ
-2.6918397	nhá giờ
-2.4750237	sao giờ
-2.7253444	ngủ giờ
-0.43326086	18 giờ
-0.2407675	22 giờ
-2.6712008	trời giờ
-1.9178437	đình giờ
-0.23089601	23 giờ
-1.8461986	mấy giờ
-0.8347618	4 giờ
-0.94677305	đến giờ
-0.42476785	11 giờ
-0.14802395	15 giờ
-2.4651673	ngoài giờ
-0.23698716	5 giờ
-2.5640054	nữa giờ
-0.10372865	6 giờ
-0.23219885	21 giờ
-0.34167328	17 giờ
-0.3286679	9 giờ
-0.20872179	13 giờ
-0.014756181	bây giờ
-2.0737746	vườn giờ
-2.3912752	nha giờ
-2.1126928	đọc giờ
-0.07910522	19 giờ
-1.6371996	hết giờ
-0.04710575	0 giờ
-0.9498423	2 giờ
-0.36955392	12 giờ
-0.2805153	14 giờ
-0.61994797	10 giờ
-0.7735441	nãy giờ
-0.10941743	bao giờ
-0.8935752	sai giờ
-0.7660549	1 giờ
-1.4429032	20 giờ
-1.964502	đây giờ
-2.0691113	đâu giờ
-1.290067	hiện giờ
-0.10941743	hẹn giờ
-1.2785366	tới giờ
-0.45724162	nữ giờ
-2.5669796	trong 3
-3.2630677	đi 3
-1.5718113	lúc 3
-1.4277201	giờ 3
-3.369704	giảm 3
-2.6208599	độ 3
-2.0366104	xuống 3
-2.707763	lên 3
-0.942118	số 3
-1.3327193	khoảng 3
-1.8296229	mức 3
-1.0284139	vòng 3
-2.133871	tầm 3
-1.8862638	vẫn 3
-1.9086032	sau 3
-0.26984057	16 phút
-0.60586625	3 phút
-2.0835056	18 phút
-0.60351735	22 phút
-2.0515873	23 phút
-0.01152119	57 phút
-1.9650563	4 phút
-1.1786475	11 phút
-0.61164236	15 phút
-0.011296711	51 phút
-0.021219144	45 phút
-0.025972469	38 phút
-1.1975228	6 phút
-0.5823046	21 phút
-0.8911952	17 phút
-0.17599364	30 phút
-1.1944778	9 phút
-0.46460202	13 phút
-0.062239733	24 phút
-0.3605767	7 phút
-0.03164402	34 phút
-1.9667678	8 phút
-1.1915655	19 phút
-0.02202527	43 phút
-0.01596151	28 phút
-1.2192439	2 phút
-0.07930056	25 phút
-0.09191077	44 phút
-0.4121335	12 phút
-0.6927725	14 phút
-0.025972469	42 phút
-0.28294128	10 phút
-0.056198258	27 phút
-0.024858681	40 phút
-0.13491553	58 phút
-0.13491553	56 phút
-0.043528497	59 phút
-0.09191077	26 phút
-0.062239733	47 phút
-0.71265584	1 phút
-0.246076	20 phút
-0.25574997	48 phút
-0.062239733	29 phút
-0.0697397	55 phút
-0.047064755	33 phút
-0.25574997	53 phút
-0.25574997	39 phút
-0.0697397	46 phút
-0.17638959	41 phút
-0.047064755	31 phút
-0.29684243	50 phút
-0.29684243	52 phút
-0.75289214	36 phút
-0.29684243	54 phút
-0.10931493	32 phút
-0.0697397	37 phút
-0.13491553	49 phút
-2.7945569	cái bạn
-1.2538944	không bạn
-1.188261	ấy bạn
-1.2218082	đi bạn
-2.0415347	ngay bạn
-0.95042545	nhé bạn
-1.9130406	nướng bạn
-1.9473128	giờ bạn
-1.4156291	phút bạn
-2.172466	bạn bạn
-1.8114052	ơi bạn
-1.116409	quá bạn
-1.8121544	gì bạn
-2.9244823	mở bạn
-2.400679	mình bạn
-1.056309	với bạn
-3.2043197	máy bạn
-1.9474615	tưới bạn
-2.1100554	cây bạn
-1.2141278	rồi bạn
-2.1188247	tôi bạn
-2.2830915	em bạn
-2.0100808	sáng bạn
-2.1640139	tường bạn
-2.37716	xuống bạn
-2.6531625	cho bạn
-2.43291	anh bạn
-0.93464637	nhá bạn
-1.6769829	lên bạn
-2.6888914	phòng bạn
-1.4050541	này bạn
-2.2630494	mùi bạn
-1.5178322	thôi bạn
-0.97441113	nào bạn
-1.6456873	lạnh bạn
-2.0206068	cuốn bạn
-2.4838514	của bạn
-1.7221844	long bạn
-1.6519698	lại bạn
-1.0413406	nhớ bạn
-0.12870131	chào bạn
-2.315826	nước bạn
-1.662739	tắm bạn
-2.605622	được bạn
-2.076854	chị bạn
-2.5895586	tối bạn
-2.1526182	thế bạn
-1.6026429	điện bạn
-1.0358725	lắm bạn
-1.978478	ngủ bạn
-2.284421	tròn bạn
-2.0495956	việc bạn
-2.1389234	game bạn
-1.0807406	ê bạn
-1.956625	sưởi bạn
-1.8965775	muốn bạn
-2.0252159	cổng bạn
-1.6792066	là bạn
-0.9556516	nên bạn
-2.0610082	ẩm bạn
-2.0350049	cafe bạn
-1.9081386	hơi bạn
-2.4372795	trần bạn
-2.3181505	chùm bạn
-1.3921486	nhở bạn
-2.2486446	hòa bạn
-1.834222	đón bạn
-2.1678243	cửa bạn
-1.7473998	in bạn
-2.0592546	sóng bạn
-1.7562768	loa bạn
-1.9791603	thượng bạn
-2.2769408	vào bạn
-1.9832214	khách bạn
-2.219573	giặt bạn
-1.7019439	à bạn
-1.6776804	hầm bạn
-1.9108793	rượu bạn
-1.6419895	đó bạn
-2.01727	đốt bạn
-1.7971871	phim bạn
-1.5164504	hân bạn
-1.7315489	thả bạn
-1.5344738	4 bạn
-2.0371382	tuýp bạn
-2.3349876	sân bạn
-1.2037541	nhỉ bạn
-1.6324874	my bạn
-1.5105157	ý bạn
-2.0254087	bếp bạn
-2.2046928	ngoài bạn
-1.786726	sen bạn
-1.8313565	bàn bạn
-1.7698468	5 bạn
-1.0096345	liệu bạn
-2.24398	chói bạn
-1.8261852	mắt bạn
-1.8011179	ảo bạn
-1.602208	cuối bạn
-1.0157156	hôi bạn
-2.0354164	tí bạn
-1.5950055	nữa bạn
-1.6576415	chính bạn
-2.1606436	sảnh bạn
-1.7729186	tay bạn
-1.7587092	và bạn
-1.3285694	đấy bạn
-1.6883233	kia bạn
-1.7360991	fax bạn
-1.5171101	39% bạn
-1.8711576	thu bạn
-2.0591578	bụi bạn
-1.8582102	đề bạn
-1.8163049	chung bạn
-1.5368917	phải bạn
-1.0959498	nha bạn
-1.9381044	đọc bạn
-1.798831	8 bạn
-1.8329482	gym bạn
-1.6800971	sau bạn
-1.6422807	6% bạn
-2.0015051	trước bạn
-1.8301632	camera bạn
-1.4000249	nhạc bạn
-2.0763357	nghỉ bạn
-1.6041335	thì bạn
-1.9003564	đợi bạn
-1.0096345	lỗi bạn
-2.0353148	bát bạn
-0.91802716	đạt bạn
-1.5149184	97% bạn
-1.6161517	71% bạn
-1.7398098	wc bạn
-1.5812024	78% bạn
-1.7168925	xép bạn
-1.1727153	77% bạn
-1.3818393	37% bạn
-1.7939527	kìa bạn
-2.047714	cần bạn
-0.81241286	các bạn
-1.2275629	gấp bạn
-1.3532782	62% bạn
-1.3081063	phát bạn
-1.8256058	chút bạn
-2.2048225	ơn bạn
-0.7576934	á bạn
-1.1611496	hơn bạn
-1.4324594	ơ bạn
-1.5457873	38% bạn
-1.4828165	đây bạn
-1.0940826	33% bạn
-1.7961407	c bạn
-1.2219005	87% bạn
-1.6769724	8% bạn
-1.5982785	35% bạn
-1.3479724	51% bạn
-0.8975258	ổn bạn
-0.8701643	ghê bạn
-1.1058817	chậm bạn
-1.0940826	qua bạn
-1.0096345	72% bạn
-1.5888838	đâu bạn
-1.4716715	19% bạn
-0.9907349	50% bạn
-1.5563788	28% bạn
-1.0096345	74% bạn
-0.73465514	nhó bạn
-0.29190993	ờm bạn
-1.8209817	giãn bạn
-0.46318477	sớm bạn
-2.8456166	nhà ơi
-2.4885638	ấy ơi
-0.22731207	bạn ơi
-1.0631173	gì ơi
-2.4207702	radio ơi
-2.0926344	tính ơi
-0.17857578	em ơi
-2.0305724	anh ơi
-0.47303933	gái ơi
-1.6777679	chị ơi
-2.7186134	trời ơi
-0.776023	con ơi
-1.5962403	trợ ơi
-0.3074894	lý ơi
-0.93023187	chú ơi
-0.2517566	lí ơi
-0.8702625	ảo ơi
-0.7480733	cháu ơi
-0.7552681	bé ơi
-0.80100435	yêu ơi
-0.45857868	smarthome ơi
-0.104379825	cậu ơi
-0.96348333	ông ơi
-0.730291	mày ơi
-1.9077284	bà ơi
-1.0537537	vợ ơi
-1.0537537	thân ơi
-1.1466806	bố ơi
-0.29789728	eo ơi
-0.45857868	giời ơi
-0.45857868	chồng ơi
-0.83768916	cô ơi
-0.45857868	zai ơi
-3.0682306	không chán
-3.4726074	nhé chán
-3.7817452	ơi chán
-2.8049345	với chán
-3.1548316	chị chán
-1.7739314	bé chán
-2.6131759	chính chán
-1.9831569	giãn chán
-2.9051125	đi quá
-0.1938967	chán quá
-3.037081	tôi quá
-0.49567825	sáng quá
-1.0414033	mùi quá
-0.9097292	lạnh quá
-2.3074133	nước quá
-0.21817674	tối quá
-1.6509105	điện quá
-1.8564148	ngủ quá
-0.4764218	nóng quá
-1.7058204	ẩm quá
-2.2276816	cafe quá
-2.185015	hơi quá
-0.31616697	ồn quá
-0.35093093	mỏi quá
-2.270749	xa quá
-2.5073776	hắt quá
-1.4152163	nhiều quá
-1.6289139	ăn quá
-1.9883215	về quá
-0.17559019	nồm quá
-0.4422362	mạnh quá
-1.2798057	khô quá
-0.25477055	chói quá
-0.18904175	mắt quá
-0.18364401	to quá
-0.5938996	hôi quá
-0.88767105	bé quá
-1.8369735	đầu quá
-0.24730228	nắng quá
-1.8764895	gió quá
-1.6218492	yêu quá
-0.21347566	chịu quá
-0.68985736	ít quá
-1.7351732	bụi quá
-0.98272884	nháy quá
-0.27991602	lưng quá
-0.28697696	yếu quá
-0.92509747	lâu quá
-1.6653955	chờn quá
-0.32967234	bẩn quá
-0.17623265	ào quá
-0.8911997	muộn quá
-0.14765833	mệt quá
-0.47078982	kinh quá
-0.47512046	nhỏ quá
-0.4559918	rét quá
-1.0448503	ướt quá
-1.1056873	buồn quá
-0.75173986	oi quá
-0.27991602	bí quá
-0.4559918	bách quá
-0.47512046	chậm quá
-0.92261267	lặng quá
-0.75173986	vội quá
-0.29653525	mờ quá
-1.0423949	tốt quá
-0.4559918	toé quá
-0.4559918	nháp quá
-0.75173986	ngạt quá
-0.4559918	đắng quá
-0.75173986	khói quá
-0.4559918	nặc quá
-3.1764963	cái gì
-2.751574	có gì
-3.1666858	phút gì
-2.8058455	bạn gì
-3.3386643	em gì
-2.9166245	sáng gì
-2.0321126	mùi gì
-2.7943442	được gì
-2.563757	học gì
-2.705041	bị gì
-2.8908486	ngủ gì
-2.0907545	làm gì
-2.6860702	việc gì
-1.242369	thấy gì
-0.683146	đề gì
-1.9407196	nhạc gì
-1.4368087	tùng gì
-1.6210263	mạn gì
-3.4512475	bạn nghe
-3.759776	ơi nghe
-2.0722547	gì nghe
-3.6737814	mình nghe
-2.2179964	máy nghe
-3.3925886	tôi nghe
-3.7896004	anh nghe
-3.30077	lên nghe
-1.049261	muốn nghe
-2.451855	để nghe
-3.174233	cái mở
-2.0363839	đồ mở
-1.8744295	sa mở
-1.7660242	còn mở
-1.5474536	không mở
-1.8278582	ấy mở
-1.661731	đi mở
-1.3004562	nhé mở
-2.6226037	giờ mở
-1.7256117	phút mở
-1.4114805	bạn mở
-0.9009527	ơi mở
-0.9301795	quá mở
-2.2880638	mình mở
-1.3311763	với mở
-2.0566826	tính mở
-2.1301177	tưới mở
-2.176905	cây mở
-1.2317035	rồi mở
-2.1988645	tôi mở
-1.5516876	em mở
-2.3421202	tường mở
-2.4563365	anh mở
-1.3382763	nhá mở
-3.127583	bóng mở
-2.3396304	lên mở
-2.8539371	phòng mở
-1.6477189	này mở
-1.8964024	nào mở
-2.2006884	lạnh mở
-2.2058973	cuốn mở
-1.8413738	lại mở
-1.262859	nhớ mở
-1.1737366	thể mở
-2.3996515	nước mở
-2.2527838	tắm mở
-2.200458	học mở
-3.0509288	tắt mở
-2.4903114	chị mở
-2.4016378	tối mở
-1.2498406	thế mở
-1.956228	điện mở
-1.6137936	lắm mở
-2.3143427	việc mở
-2.211984	game mở
-1.0742157	đang mở
-2.6383927	rèm mở
-1.277476	ê mở
-2.405299	sưởi mở
-1.9390955	muốn mở
-1.8522723	cổng mở
-1.3586309	là mở
-1.4753138	nên mở
-1.8108493	cafe mở
-0.94877285	hãy mở
-1.7598426	nhở mở
-1.8969244	đón mở
-2.1931648	cửa mở
-2.2841067	ra mở
-1.9504272	loa mở
-2.312883	nó mở
-1.1783652	mới mở
-1.5722872	ăn mở
-1.6909426	lý mở
-2.0509567	khách mở
-2.283546	giặt mở
-1.4084388	à mở
-1.3383687	đó mở
-1.551822	hân mở
-2.0701292	thả mở
-1.8921814	4 mở
-1.4390444	nhỉ mở
-1.663622	my mở
-1.4030083	ý mở
-2.0039775	hay mở
-1.8123437	sen mở
-1.6790819	lí mở
-0.9881343	ảo mở
-1.931584	cuối mở
-1.4379615	đê mở
-1.5389495	cháu mở
-2.085691	tí mở
-1.6469132	bé mở
-1.8406509	chính mở
-1.857656	sảnh mở
-2.002338	hè mở
-1.1344987	xuân mở
-1.1228863	cả mở
-2.2454193	hồ mở
-2.0913491	tay mở
-1.3251877	và mở
-1.3414811	đấy mở
-1.7396027	kia mở
-2.0675585	fax mở
-2.1619315	9 mở
-1.8646914	39% mở
-1.7775129	cậu mở
-2.1262386	bụi mở
-2.1161642	chung mở
-0.450535	cu mở
-1.5586699	phải mở
-1.1020272	nha mở
-0.86559963	vẫn mở
-2.0722854	trước mở
-2.1664436	camera mở
-1.769927	bà mở
-1.057037	nhạc mở
-2.1186185	nghỉ mở
-1.309926	thì mở
-1.3384664	đợi mở
-1.5459583	97% mở
-1.6464152	71% mở
-2.004489	lát mở
-1.4680091	kìa mở
-2.1087184	cần mở
-1.8672453	ơn mở
-1.5495703	á mở
-0.74102354	mến mở
-1.8278708	đây mở
-1.7874593	88% mở
-1.5004194	59% mở
-1.8390484	c mở
-1.3679682	20% mở
-0.74102354	oi mở
-1.1087924	qua mở
-2.0401764	sẽ mở
-1.941922	đâu mở
-0.74102354	vãi mở
-1.1087924	í mở
-0.450535	kem mở
-1.8457235	cái radio
-2.2502737	ngay radio
-3.6906085	ơi radio
-1.9083066	nghe radio
-2.173504	mở radio
-3.257038	mình radio
-3.2720718	với radio
-3.3604598	giảm radio
-3.8400247	cho radio
-3.7072008	anh radio
-2.37461	tăng radio
-2.8300061	của radio
-2.9934728	tắt radio
-2.2988744	tiếng radio
-3.079015	cửa radio
-1.7419919	chiếc radio
-1.3545198	lượng radio
-2.5699344	đèn giúp
-1.2106142	tranh giúp
-1.5246466	sa giúp
-1.7338378	đi giúp
-0.51177615	tra giúp
-2.0447965	ngay giúp
-2.5331302	nhé giúp
-0.60078746	bật giúp
-1.4853806	nướng giúp
-1.8374487	3 giúp
-1.6318789	phút giúp
-1.8578886	bạn giúp
-2.128754	ơi giúp
-0.5795039	mở giúp
-1.8949541	radio giúp
-2.286187	với giúp
-1.6001358	tưới giúp
-1.8695588	cây giúp
-2.2782269	rồi giúp
-0.63787746	đóng giúp
-2.445035	em giúp
-0.7254501	giảm giúp
-2.1579797	sáng giúp
-1.446627	tường giúp
-1.8348545	xuống giúp
-2.9427068	anh giúp
-2.448952	nhá giúp
-2.8560257	bóng giúp
-1.5508465	đứng giúp
-1.2434285	lên giúp
-2.5755546	phòng giúp
-1.6345811	mùi giúp
-0.58316195	tăng giúp
-1.8472496	nào giúp
-2.1637707	lạnh giúp
-2.1769917	cuốn giúp
-1.7253548	long giúp
-0.9129823	lại giúp
-2.080168	nhớ giúp
-0.86282766	thể giúp
-1.5649652	nước giúp
-1.601881	tắm giúp
-1.6589818	học giúp
-0.694449	tắt giúp
-1.1440744	điện giúp
-1.670612	ngủ giúp
-1.4741763	tròn giúp
-1.9245224	việc giúp
-1.7795753	game giúp
-1.987994	18 giúp
-2.5831425	rèm giúp
-1.6818836	sưởi giúp
-1.6017739	cổng giúp
-1.804676	ẩm giúp
-2.0394313	cafe giúp
-2.043404	hơi giúp
-1.34619	trần giúp
-1.5509274	họp giúp
-1.5399892	led giúp
-1.7499379	hãy giúp
-2.2527182	hòa giúp
-1.5772816	đón giúp
-1.8209708	xa giúp
-1.5819744	cửa giúp
-1.6649129	ra giúp
-2.3583794	hắt giúp
-1.9016159	in giúp
-2.0631433	sóng giúp
-1.9201231	loa giúp
-1.7349999	thượng giúp
-1.1286663	nó giúp
-2.2801945	vào giúp
-1.2188683	khách giúp
-1.4266735	giặt giúp
-1.8539629	hầm giúp
-1.9146391	rượu giúp
-1.6451995	đó giúp
-1.3806232	đốt giúp
-1.4602873	phim giúp
-1.3916281	thả giúp
-1.3219663	4 giúp
-1.6193714	tuýp giúp
-2.0958042	sân giúp
-1.5407436	bếp giúp
-1.3360977	sen giúp
-1.7415925	compact giúp
-1.8283079	mắt giúp
-1.8031942	ảo giúp
-1.8757069	cuối giúp
-1.3870527	chính giúp
-1.4021974	sảnh giúp
-1.6775455	hè giúp
-1.1737157	89% giúp
-1.5041609	xuân giúp
-1.9206101	hồ giúp
-1.4490656	tay giúp
-1.4289284	26% giúp
-2.0168846	đấy giúp
-1.691966	kia giúp
-1.5726873	fax giúp
-0.94579786	39% giúp
-1.3908018	thu giúp
-1.65978	mành giúp
-1.9934587	mức giúp
-1.665216	bụi giúp
-0.9247247	13% giúp
-1.3014134	chung giúp
-1.0637172	84% giúp
-1.0192218	vườn giúp
-1.9694867	phải giúp
-1.2697977	đông giúp
-1.5026815	8 giúp
-1.8361179	gym giúp
-1.2419444	trái giúp
-1.1941569	29% giúp
-1.3004553	6% giúp
-0.44750565	ayo giúp
-1.469423	trước giúp
-1.3150855	61% giúp
-2.1129045	camera giúp
-1.7876369	thang giúp
-1.7557938	quang giúp
-1.1624174	92% giúp
-1.13454	73% giúp
-1.0951688	23% giúp
-1.6574408	nhi giúp
-1.3734539	nghỉ giúp
-1.4964261	2 giúp
-1.3235847	đợi giúp
-2.252614	rửa giúp
-2.0392675	bát giúp
-1.5113896	khôi giúp
-0.8759707	ngơi giúp
-1.517171	97% giúp
-1.7427919	wc giúp
-1.5832617	78% giúp
-0.67593247	15% giúp
-1.4524797	99% giúp
-0.89821625	41% giúp
-1.8296733	chút giúp
-2.2074423	ơn giúp
-1.5482887	38% giúp
-1.2232592	ạ giúp
-1.2301598	88% giúp
-1.2751418	huy giúp
-1.067221	4% giúp
-1.3661151	vy giúp
-1.3162882	viện giúp
-0.7019023	59% giúp
-1.7992158	c giúp
-1.3446689	20% giúp
-0.9593975	8% giúp
-0.89821625	3% giúp
-1.6009504	35% giúp
-1.3492898	51% giúp
-1.0629883	36% giúp
-1.0198033	31% giúp
-0.44750565	hồng giúp
-1.0936136	19% giúp
-1.3498316	2% giúp
-1.2752309	45% giúp
-1.1235768	16% giúp
-1.3045603	58% giúp
-1.08952	hủy giúp
-0.44750565	trị giúp
-1.0105284	24% giúp
-0.44750565	10% giúp
-3.3542435	đèn mình
-2.4199522	nhà mình
-1.9728926	sa mình
-2.7194111	đi mình
-3.2957757	tra mình
-1.9373337	nhé mình
-3.1937647	bật mình
-1.681855	giờ mình
-2.669207	phút mình
-2.7497625	bạn mình
-2.3262258	ơi mình
-3.043833	quá mình
-2.9160566	mở mình
-0.4777615	giúp mình
-3.0906136	mình mình
-2.0074677	với mình
-2.226807	rồi mình
-2.815416	tôi mình
-3.471958	em mình
-0.5652936	cho mình
-2.057923	nhá mình
-3.2166116	phòng mình
-2.4647546	này mình
-1.966573	thôi mình
-2.7212539	lạnh mình
-2.3473334	của mình
-2.0525398	nhớ mình
-0.4601038	hộ mình
-2.3704333	học mình
-2.1167743	sao mình
-1.1359148	ờ mình
-1.6806989	lắm mình
-2.3976443	ngủ mình
-2.3626444	game mình
-2.54825	sưởi mình
-1.9644195	nay mình
-1.9098911	nên mình
-2.181776	hơi mình
-1.5475711	chắc mình
-2.2666998	xa mình
-2.8947308	trợ mình
-0.2441602	giùm mình
-1.4854851	đê mình
-1.7958692	tí mình
-1.638423	nữa mình
-2.3995583	sảnh mình
-1.8316565	tại mình
-1.5532378	và mình
-2.211287	đấy mình
-2.2369175	9 mình
-1.8303189	nha mình
-1.0842037	để mình
-1.7764003	nhi mình
-0.9822497	vậy mình
-1.1807716	nãy mình
-1.4341729	khi mình
-1.1018329	lát mình
-1.3706967	phát mình
-1.9320464	đây mình
-1.9179608	c mình
-1.2148209	ui mình
-1.6679258	31% mình
-2.0391545	đâu mình
-0.76781404	bọn mình
-2.019765	tùng mình
-0.45582545	gúp mình
-2.2481003	đèn với
-0.8061749	tranh với
-2.2698724	nhà với
-1.1896832	đồ với
-0.68762356	sa với
-1.558411	đi với
-3.0344107	tra với
-1.3483965	ngay với
-2.5525825	nhé với
-0.8242036	nướng với
-2.4678073	giờ với
-1.6536627	3 với
-1.3963805	phút với
-0.97382367	radio với
-1.1201218	mình với
-0.5894973	tưới với
-1.0004427	cây với
-1.2478338	tôi với
-2.4324913	em với
-1.8019942	sáng với
-0.8105296	tường với
-1.4586375	xuống với
-1.3572875	anh với
-2.6926315	bóng với
-1.0019312	đứng với
-0.91250217	lên với
-2.1782591	phòng với
-2.1717038	này với
-0.95876825	mùi với
-1.8033717	xem với
-0.7443366	lạnh với
-0.6972573	cuốn với
-0.71723413	long với
-1.3628844	lại với
-1.0360783	nước với
-0.80914915	tắm với
-2.8341382	hộ với
-0.8679154	học với
-2.739909	tắt với
-1.600945	chưa với
-1.1399384	chị với
-1.1011877	công với
-2.122414	sao với
-2.540349	tối với
-1.5890665	điện với
-0.97268486	ngủ với
-0.90518045	tròn với
-0.8428132	việc với
-0.8771162	game với
-1.9615362	18 với
-1.2498312	rèm với
-0.8724065	sưởi với
-0.8535051	cổng với
-0.75879174	ẩm với
-0.73467255	cafe với
-1.7426032	hơi với
-0.86491823	trần với
-0.9895266	họp với
-1.4187124	đình với
-0.7379265	led với
-0.7345641	chùm với
-0.9641796	hòa với
-1.3972247	đón với
-0.6600877	xa với
-0.838731	cửa với
-1.6496918	ra với
-1.4717387	hắt với
-0.7073859	in với
-1.5561635	vi với
-0.72481334	sóng với
-0.92727876	loa với
-0.75943273	thượng với
-1.7744399	vào với
-1.0149766	khách với
-1.1269213	giặt với
-1.0172355	hầm với
-1.133046	rượu với
-1.6091489	đó với
-0.5548177	đốt với
-1.4448745	phim với
-1.1483071	hân với
-0.9254321	thả với
-1.0227684	4 với
-0.8454845	tuýp với
-1.0964621	sân với
-0.739258	my với
-2.1369398	11 với
-0.8664067	bếp với
-0.7241558	sen với
-0.9351451	bàn với
-0.7936811	compact với
-1.2643125	5 với
-0.78714895	chờ với
-0.6367221	cuối với
-0.6567793	chính với
-0.73857343	sảnh với
-0.9769283	hè với
-1.4807341	xuân với
-1.1632766	hồ với
-0.85712385	tay với
-1.9381069	nắng với
-0.92389274	thờ với
-0.88931715	gió với
-1.7858864	sinh với
-0.9637693	yêu với
-1.4087635	26% với
-1.9657129	đấy với
-1.1985834	kia với
-0.8394435	fax với
-1.2768384	9 với
-1.1586336	39% với
-0.6015662	thu với
-1.0350415	mành với
-1.1011223	tớ với
-1.933252	mức với
-0.8491787	bụi với
-1.8787278	7 với
-1.6136228	13% với
-0.86376977	chung với
-1.4243788	84% với
-0.6729739	vườn với
-1.0016165	phải với
-1.6144809	đọc với
-0.85945606	đông với
-0.7757133	8 với
-0.76041514	gym với
-0.5354645	trái với
-0.8760484	sau với
-1.3614168	29% với
-1.6131735	6% với
-2.0219502	hiên với
-0.67300063	trước với
-1.32968	95% với
-0.90784067	61% với
-0.69173837	camera với
-0.7295715	bà với
-1.0576429	thang với
-1.2133193	quang với
-1.1478523	92% với
-1.1291847	nhi với
-1.2120544	nhạc với
-1.5482894	nghỉ với
-1.1282339	2 với
-1.2585359	quân với
-1.4563766	27% với
-0.8542094	đợi với
-0.97855234	bát với
-0.67158383	76% với
-1.4850032	khôi với
-1.1478523	garage với
-0.90784067	34% với
-1.4523152	đạt với
-1.0966598	rủ với
-1.4915912	97% với
-0.6514509	wc với
-1.5598232	78% với
-0.7296269	bảo với
-0.57782495	xép với
-0.9869829	12% với
-0.7478921	77% với
-1.9223758	dùng với
-1.0895092	15% với
-1.1087947	9% với
-0.9203128	65% với
-0.79705054	lang với
-1.8957236	1 với
-1.0568333	99% với
-0.8902286	41% với
-1.7844356	chút với
-1.5199656	38% với
-0.7320123	88% với
-1.0600967	4% với
-0.5591655	vy với
-1.2965641	47% với
-1.3012333	viện với
-1.4507709	59% với
-1.450046	c với
-1.3237231	20% với
-0.95313185	8% với
-0.7296269	mẹ với
-0.44465935	họ với
-0.8902286	3% với
-1.5707573	35% với
-0.96837306	51% với
-1.2012459	31% với
-0.85945606	85% với
-1.0002114	72% với
-1.007291	54% với
-0.67422783	21% với
-1.3529031	50% với
-1.32968	2% với
-0.8620027	45% với
-1.3340523	chế với
-1.1112797	40% với
-0.97341794	28% với
-0.7296269	bồn với
-1.0002114	bánh với
-1.1136305	16% với
-1.284484	58% với
-0.44465935	online với
-0.44465935	đẹp với
-1.5516492	tùng với
-0.8230435	cái máy
-2.6975112	có máy
-2.8736413	không máy
-2.8380723	đi máy
-1.8063227	tra máy
-2.9624457	nhé máy
-1.3861752	bật máy
-3.1623185	quá máy
-1.5739008	mở máy
-3.7688143	giúp máy
-2.2541149	mình máy
-2.5241792	với máy
-2.9635456	rồi máy
-1.9660027	tôi máy
-2.2201293	giảm máy
-2.4732916	anh máy
-3.0361483	nhá máy
-2.576422	này máy
-2.8901768	tăng máy
-2.336494	xem máy
-2.7748408	của máy
-2.6353443	nhớ máy
-2.7555916	hộ máy
-1.3133091	tắt máy
-2.4798152	chị máy
-2.169726	sao máy
-2.6209974	tiếng máy
-2.8250403	vào máy
-0.8712219	chiếc máy
-2.0569563	29% máy
-1.3150007	dùng máy
-1.0521338	chà máy
-0.45849502	sẵn máy
-0.45849502	cáo máy
-0.943377	máy tính
-0.46119696	kịch tính
-3.0067072	không tưới
-2.7479053	giờ tưới
-3.7092726	ơi tưới
-2.8835971	mình tưới
-0.5333354	vòi tưới
-3.1708183	nhá tưới
-0.33655834	van tưới
-2.8109217	nước tưới
-2.7990348	được tưới
-3.108666	chị tưới
-2.5116332	muốn tưới
-2.670618	nó tưới
-2.1706553	lí tưới
-2.7125018	nữa tưới
-1.9217079	cần tưới
-4.157398	cái cây
-1.2809123	đèn cây
-3.3794754	đi cây
-3.4613578	bật cây
-3.3405862	với cây
-1.2311975	tưới cây
-3.3110015	đi đủ
-3.4348896	nhé đủ
-3.7491946	ơi đủ
-2.473661	cây đủ
-2.953442	sáng đủ
-2.6792023	này đủ
-2.4555964	thế đủ
-2.5540094	game đủ
-1.4037498	là đủ
-2.1090317	thấy đủ
-2.0472317	đây đủ
-3.241388	đèn rồi
-1.4378446	nhà rồi
-2.7796772	lúc rồi
-2.2516804	giờ rồi
-2.3178916	phút rồi
-1.499583	chán rồi
-1.7566756	quá rồi
-3.081999	mở rồi
-1.7580508	cây rồi
-0.32016373	đủ rồi
-0.81461585	sáng rồi
-2.0742054	lên rồi
-2.7856112	phòng rồi
-2.368546	này rồi
-0.335925	đầy rồi
-1.9568146	mùi rồi
-2.9128208	hút rồi
-2.2319908	lạnh rồi
-2.0949616	nước rồi
-1.7639372	tắm rồi
-1.5990193	được rồi
-1.3484914	học rồi
-2.4123464	tắt rồi
-2.3210294	sao rồi
-0.9659565	tối rồi
-1.9853972	điện rồi
-1.0306768	đúng rồi
-1.0539098	lắm rồi
-1.3248849	ngủ rồi
-2.8535366	làm rồi
-2.1425025	việc rồi
-2.231447	nóng rồi
-1.7785709	hôm rồi
-2.175897	ẩm rồi
-1.9572182	mát rồi
-2.5345435	cửa rồi
-1.5697106	ra rồi
-2.1588995	sóng rồi
-2.100054	thượng rồi
-1.192446	về rồi
-2.358743	vào rồi
-1.459912	khách rồi
-0.25027505	chết rồi
-0.67368835	mất rồi
-2.3366325	giặt rồi
-1.1597017	đến rồi
-0.61681765	khô rồi
-1.7046912	động rồi
-1.4790163	ngoài rồi
-1.470858	mắt rồi
-1.8322992	to rồi
-1.374289	nữa rồi
-2.303748	sảnh rồi
-1.3083541	mưa rồi
-1.5288258	cả rồi
-1.2482446	nắng rồi
-2.182296	bụi rồi
-0.3992247	đề rồi
-0.13194144	xong rồi
-1.8877975	chung rồi
-1.4845004	đọc rồi
-0.4462282	hết rồi
-2.2135696	camera rồi
-0.22829168	hỏng rồi
-1.2733016	lưng rồi
-1.0306768	lỗi rồi
-0.59019154	sạch rồi
-1.8605884	ai rồi
-0.2712158	ấm rồi
-0.47257793	sai rồi
-0.549962	hư rồi
-1.2348663	chờn rồi
-0.47257793	muộn rồi
-1.1612254	mệt rồi
-1.1912875	hơn rồi
-1.6171337	đỡ rồi
-0.7456997	đêm rồi
-1.0306768	sang rồi
-0.7456997	ngày rồi
-0.4726038	tràn rồi
-0.29491514	sàn rồi
-0.9136903	ổn rồi
-1.0344571	láng rồi
-0.46812007	khuya rồi
-0.41515565	trặc rồi
-0.7456997	hóng rồi
-0.46812007	pin rồi
-0.17540401	chín rồi
-0.4529243	gà rồi
-0.7456997	héo rồi
-0.21258056	dậy rồi
-0.4529243	nối rồi
-0.4725209	cháy rồi
-0.9136903	hát rồi
-1.0306768	tốt rồi
-0.4529243	ngắt rồi
-0.4529243	ề rồi
-0.4529243	thi rồi
-0.4529243	nơi rồi
-1.973087	tùng rồi
-1.1234902	thúc rồi
-3.3066516	cái đóng
-2.0543582	tranh đóng
-2.0377026	đồ đóng
-1.3911952	không đóng
-1.6609068	ấy đóng
-1.6251262	đi đóng
-1.4181906	nhé đóng
-2.6251943	giờ đóng
-2.1704705	3 đóng
-1.6669455	phút đóng
-1.4763044	bạn đóng
-0.9184163	ơi đóng
-1.1334085	quá đóng
-2.8114285	mở đóng
-2.3745651	mình đóng
-1.3469129	với đóng
-0.98770225	rồi đóng
-1.8990364	tôi đóng
-1.6047485	em đóng
-2.556999	sáng đóng
-2.5525634	tường đóng
-2.4702759	xuống đóng
-2.5002222	anh đóng
-1.394791	nhá đóng
-1.9613522	lên đóng
-3.0085897	phòng đóng
-1.924497	này đóng
-1.8606682	thôi đóng
-1.3919694	nào đóng
-2.201731	lạnh đóng
-2.2067058	cuốn đóng
-1.4167204	long đóng
-1.6797218	lại đóng
-1.4333128	nhớ đóng
-0.9638596	thể đóng
-2.0640018	nước đóng
-1.9561565	tắm đóng
-2.2919483	được đóng
-2.2026615	học đóng
-2.8231976	tắt đóng
-0.8970748	chưa đóng
-2.3586874	chị đóng
-3.2369478	ở đóng
-2.2562907	sao đóng
-1.4275393	thế đóng
-1.6147635	lắm đóng
-2.3730602	bị đóng
-2.012368	ngủ đóng
-2.364828	tròn đóng
-2.3165786	việc đóng
-1.1833367	minh đóng
-2.2139776	game đóng
-2.639988	rèm đóng
-1.2778208	ê đóng
-1.7835286	muốn đóng
-2.3445253	cổng đóng
-1.8347756	nên đóng
-2.1255603	ẩm đóng
-2.3847518	chùm đóng
-0.81232035	hãy đóng
-1.4137611	nhở đóng
-2.1553266	xa đóng
-2.1938179	cửa đóng
-2.2859523	ra đóng
-2.4075985	hắt đóng
-1.1833367	nhanh đóng
-2.2060888	in đóng
-2.1156733	sóng đóng
-2.2439625	loa đóng
-2.3236709	vào đóng
-1.9184268	lý đóng
-1.7822784	khách đóng
-1.7977642	chết đóng
-1.3442802	quên đóng
-1.4394014	mất đóng
-1.4090097	à đóng
-1.6880575	đó đóng
-2.1741686	4 đóng
-2.3346052	tuýp đóng
-1.6250988	nhỉ đóng
-1.7011534	ý đóng
-1.92379	bếp đóng
-2.015616	ngoài đóng
-2.2521772	sen đóng
-1.0982355	ảo đóng
-1.9331987	cuối đóng
-2.0870254	tí đóng
-1.973405	nữa đóng
-2.239898	sảnh đóng
-1.5858188	alo đóng
-2.0930755	tay đóng
-1.5042915	và đóng
-1.2459974	đấy đóng
-1.4119995	kia đóng
-2.0691516	fax đóng
-1.8661139	39% đóng
-2.16406	cậu đóng
-1.8495948	mức đóng
-2.1280558	bụi đóng
-1.688372	mà đóng
-2.0278804	phải đóng
-1.4926832	nha đóng
-1.3359413	mày đóng
-1.8525553	8 đóng
-1.5274432	gym đóng
-1.5750618	29% đóng
-1.6558233	trước đóng
-2.1679862	camera đóng
-1.771146	bà đóng
-1.343528	nhi đóng
-2.1261833	hỏng đóng
-1.1837723	thì đóng
-2.1643329	2 đóng
-1.966295	đợi đóng
-1.7169828	người đóng
-0.36094418	kìa đóng
-2.035942	tư đóng
-2.242068	ơn đóng
-1.1592714	á đóng
-1.5812868	38% đóng
-1.5104878	đây đóng
-1.2408484	ạ đóng
-1.663997	4% đóng
-1.8401773	c đóng
-1.6512065	36% đóng
-1.2364129	tý đóng
-0.9070581	ok đóng
-1.2497834	siri đóng
-0.4506172	nho đóng
-3.7242434	cái tôi
-1.9477329	sa tôi
-2.4485774	không tôi
-2.2481008	đi tôi
-1.655637	nhé tôi
-1.7477071	giờ tôi
-1.7728654	phút tôi
-2.898976	bạn tôi
-2.8671496	ơi tôi
-2.7257354	quá tôi
-2.888764	mở tôi
-0.77252316	giúp tôi
-2.2064273	với tôi
-1.7530687	rồi tôi
-3.2542002	đóng tôi
-2.7767177	tôi tôi
-3.4174905	em tôi
-3.1367185	giảm tôi
-2.6783917	tường tôi
-0.90023303	cho tôi
-3.1400518	anh tôi
-2.473858	nhá tôi
-2.8182058	phòng tôi
-1.9714494	nào tôi
-2.149348	của tôi
-1.7433258	nhớ tôi
-2.3244326	tắm tôi
-0.94920564	hộ tôi
-1.4497851	công tôi
-2.0940137	sao tôi
-2.313349	như tôi
-1.2629316	lắm tôi
-2.6024396	ngủ tôi
-2.4829402	tròn tôi
-2.440216	việc tôi
-1.8478816	game tôi
-1.4157739	trạng tôi
-2.1996384	sưởi tôi
-2.6781347	cổng tôi
-1.576823	nay tôi
-1.2982088	nên tôi
-2.158225	hơi tôi
-2.4784362	chùm tôi
-1.9885826	đón tôi
-2.1926417	sóng tôi
-2.884494	trợ tôi
-1.4106886	giùm tôi
-1.3651404	đó tôi
-2.5017524	sân tôi
-2.4217346	bếp tôi
-1.7343528	chờ tôi
-1.8940359	mắt tôi
-2.2214344	ảo tôi
-1.130581	nữa tôi
-2.335648	chính tôi
-2.3558865	sảnh tôi
-1.8232718	đầu tôi
-1.8159084	tại tôi
-2.2170885	gió tôi
-1.8956809	và tôi
-2.03652	ông tôi
-2.2212915	chung tôi
-1.7492707	mà tôi
-1.7963893	sau tôi
-1.655965	luôn tôi
-0.6765706	dùm tôi
-1.5634463	để tôi
-2.3718204	thì tôi
-1.4065824	vậy tôi
-1.5839765	khôi tôi
-1.5927036	nãy tôi
-1.0400441	vợ tôi
-1.8868018	kìa tôi
-1.6154267	chút tôi
-1.5452963	đây tôi
-0.7489542	mẹ tôi
-1.0258967	đâu tôi
-1.2611939	tý tôi
-0.7489542	vui tôi
-1.2917078	giãn tôi
-0.2957901	phiền tôi
-1.3822688	cái vòi
-2.9751058	không vòi
-2.8469799	nhé vòi
-2.9944935	bật vòi
-2.0733695	mở vòi
-3.586029	mình vòi
-3.55804	với vòi
-1.941974	đóng vòi
-2.7770712	tôi vòi
-1.9954937	giảm vòi
-2.6122487	độ vòi
-3.193618	anh vòi
-1.7772514	tăng vòi
-2.8231404	của vòi
-2.4009078	nước vòi
-3.084334	chị vòi
-3.614729	ở vòi
-2.5744367	sảnh vòi
-2.4238403	mức vòi
-2.4629574	cái em
-2.431745	nhà em
-1.7548561	sa em
-0.9345205	không em
-0.6436348	ấy em
-0.63245666	nhờ em
-0.7457256	đi em
-0.6748105	nhé em
-1.8606483	nướng em
-2.2320056	giờ em
-1.793692	3 em
-1.1192406	phút em
-2.59934	bạn em
-1.4057454	ơi em
-0.8813597	quá em
-2.8225553	mở em
-1.9719771	giúp em
-2.3229618	mình em
-0.68000674	với em
-1.661107	tưới em
-1.6772187	cây em
-0.99050754	rồi em
-1.7217579	tôi em
-2.1073215	em em
-1.791283	sáng em
-1.8060317	tường em
-1.7993977	xuống em
-2.0630891	cho em
-1.888583	anh em
-0.676563	nhá em
-2.9537141	bóng em
-1.9405102	đứng em
-1.344827	lên em
-2.7006953	phòng em
-0.8835411	này em
-1.5242239	mùi em
-1.4789777	thôi em
-0.76354945	nào em
-1.4364479	lạnh em
-1.4811797	cuốn em
-1.5076844	của em
-1.6632007	long em
-1.4646456	lại em
-0.7758981	nhớ em
-1.747413	nước em
-1.4848232	tắm em
-2.6596606	hộ em
-1.7523102	học em
-1.5790315	chưa em
-1.9657301	chị em
-1.915848	sao em
-1.9171644	tối em
-1.6831557	thế em
-1.4651433	điện em
-0.66813606	ờ em
-1.2029207	lắm em
-1.7025285	ngủ em
-1.907042	tròn em
-1.7413706	việc em
-1.3264247	game em
-2.5027316	rèm em
-1.2442921	ê em
-1.7698992	sưởi em
-1.8397135	muốn em
-1.7414272	cổng em
-2.3347461	trời em
-1.1496766	nay em
-1.8719186	là em
-1.0736952	nên em
-1.4522388	ẩm em
-1.4275702	cafe em
-1.7264729	hơi em
-1.582643	ồn em
-1.3373809	trần em
-1.7003419	họp em
-1.2388592	đình em
-1.2304845	led em
-2.2360616	chùm em
-0.7252744	ngồi em
-0.7924743	nhở em
-1.7751698	hòa em
-1.5291572	đón em
-1.0506086	xa em
-1.9486173	cửa em
-2.2873688	hắt em
-1.1439006	nhanh em
-1.4483373	in em
-2.2133813	vi em
-1.4496745	loa em
-1.3883258	thượng em
-2.1402795	nó em
-1.3338953	về em
-1.8495998	vào em
-2.4825706	lý em
-1.403167	khách em
-0.70718664	mất em
-0.7904409	à em
-1.4175153	rượu em
-1.1157783	đó em
-1.9465843	đốt em
-1.4329264	phim em
-1.4682704	hân em
-1.9669803	thả em
-1.4280419	mạnh em
-1.8088174	4 em
-1.8507744	tuýp em
-2.2504246	sân em
-0.8957981	nhỉ em
-1.261174	động em
-1.5896083	my em
-0.85259926	ý em
-1.3090163	hey em
-1.3877797	bếp em
-1.6393173	ngoài em
-1.3964994	sen em
-2.026732	bàn em
-2.2116098	compact em
-2.0495243	5 em
-1.9473393	chờ em
-1.6881729	chói em
-1.785777	mắt em
-1.2471825	cuối em
-0.9881705	to em
-0.8191148	đê em
-1.6961299	tí em
-1.2286911	nữa em
-1.5648985	bé em
-1.4373806	chính em
-1.4533638	sảnh em
-1.631335	hè em
-0.26057073	alo em
-1.5647087	hồ em
-1.1446388	tay em
-2.007137	gió em
-1.4799078	yêu em
-1.3932799	26% em
-1.2456937	thật em
-0.85736835	đấy em
-1.5417595	fax em
-1.3998058	9 em
-1.029752	39% em
-1.1950774	thu em
-1.9216552	mành em
-2.0871358	cậu em
-1.3626553	bụi em
-1.2932959	đề em
-2.035162	xong em
-1.6289337	chung em
-1.2885971	mà em
-0.8921777	coi em
-0.9921305	trộm em
-1.3948463	vườn em
-0.9973029	phải em
-0.5696857	nha em
-1.7739763	gym em
-1.3511724	29% em
-1.5339278	luôn em
-1.5892127	6% em
-1.5871493	trước em
-1.314206	95% em
-1.6348135	camera em
-1.136542	92% em
-0.597456	73% em
-1.6349182	nhạc em
-2.0197525	nghỉ em
-2.026253	hỏng em
-1.7440174	xe em
-1.0769411	thì em
-1.4753141	2 em
-1.2456937	quân em
-1.4390283	27% em
-1.4554263	đợi em
-0.93465847	khôi em
-1.7156618	ngơi em
-1.4318979	đạt em
-1.4721595	97% em
-1.5743771	71% em
-1.6841005	wc em
-0.44239566	ròi em
-0.57149184	78% em
-1.6233228	người em
-1.6595516	xép em
-1.7222893	thêm em
-1.3483448	12% em
-1.6106001	dùng em
-1.002181	chờn em
-1.5995975	65% em
-1.7709392	lang em
-0.6648326	99% em
-0.8048756	gấp em
-0.7473516	62% em
-1.2757164	phát em
-1.3517445	chút em
-1.4621012	ơn em
-1.1282068	á em
-0.9031887	đây em
-0.9921305	tức em
-0.8019712	ạ em
-1.6870463	88% em
-1.5889589	4% em
-1.0729119	33% em
-1.3349767	vy em
-0.7035525	47% em
-1.6018823	viện em
-1.0761256	59% em
-1.4373434	c em
-1.1955819	87% em
-1.3090038	8% em
-0.9168963	64% em
-1.0421207	35% em
-0.54073006	ui em
-0.9632805	51% em
-1.2345929	36% em
-1.2527875	ghê em
-0.8921777	nếu em
-0.85964537	bài em
-0.7496263	đâu em
-1.21821	trặc em
-0.8921777	pin em
-1.1884754	tý em
-1.2527875	linh em
-1.0729119	í em
-1.1884754	tới em
-1.1058344	16% em
-0.7252744	áo em
-0.44239566	you em
-0.44239566	rùi em
-0.7252744	nhe em
-0.44239566	karaoke em
-0.44239566	thăng em
-3.1921062	cái giảm
-1.6209605	không giảm
-1.1980042	ấy giảm
-1.7073509	đi giảm
-1.4286139	nhé giảm
-1.8382492	phút giảm
-1.5398848	bạn giảm
-1.0081251	ơi giảm
-0.9355542	quá giảm
-2.4348273	mình giảm
-1.3899648	với giảm
-2.454456	tính giảm
-2.2087593	cây giảm
-1.4065936	rồi giảm
-2.1509113	tôi giảm
-1.5281754	em giảm
-1.7619052	sáng giảm
-2.6799712	anh giảm
-1.4801555	nhá giảm
-2.2670655	lên giảm
-1.6557647	này giảm
-2.3716633	mùi giảm
-1.8852172	thôi giảm
-2.5833676	lạnh giảm
-1.8589664	lại giảm
-1.4377084	nhớ giảm
-0.7499881	thể giảm
-2.2395263	học giảm
-2.2241125	chị giảm
-3.2752936	ở giảm
-1.2527676	thế giảm
-2.1747942	ngủ giảm
-2.1586914	tròn giảm
-2.5628386	nóng giảm
-1.4760795	ê giảm
-2.2234447	muốn giảm
-2.3679008	cổng giảm
-2.0370705	là giảm
-1.9601034	hơi giảm
-1.814434	đình giảm
-2.0583715	led giảm
-0.8853166	hãy giảm
-1.7807212	nhở giảm
-1.9265827	đón giảm
-2.1810215	xa giảm
-2.5176935	cửa giảm
-2.3166008	ra giảm
-2.2369182	in giảm
-1.7848213	thượng giảm
-1.9231052	lý giảm
-1.992885	mất giảm
-1.3474711	đó giảm
-1.5677733	hân giảm
-2.0973244	tuýp giảm
-0.9508729	nhỉ giảm
-1.2316456	ý giảm
-2.2058196	11 giảm
-2.3412676	bếp giảm
-2.282256	sen giảm
-2.0743039	chờ giảm
-2.2979283	chói giảm
-1.8684028	mắt giảm
-2.0831904	lí giảm
-1.348031	ảo giảm
-1.4688576	cuối giảm
-1.4500865	đê giảm
-1.5506392	cháu giảm
-2.1089556	tí giảm
-2.2539442	chính giảm
-1.5175427	cả giảm
-2.2741396	hồ giảm
-1.5543739	thờ giảm
-2.1626654	gió giảm
-1.1500626	và giảm
-1.347087	đấy giảm
-1.8895314	39% giảm
-2.4730122	mành giảm
-2.177601	cậu giảm
-2.1582162	bụi giảm
-2.14983	chung giảm
-1.9672972	vườn giảm
-1.6215678	nha giảm
-1.9317768	29% giảm
-1.6995159	6% giảm
-1.776958	nhạc giảm
-1.8133518	xe giảm
-1.2444434	thì giảm
-1.0311391	sạch giảm
-1.3451335	34% giảm
-1.7338653	người giảm
-1.7794187	xép giảm
-1.4200875	12% giảm
-1.7060606	65% giảm
-1.8510901	kìa giảm
-1.252465	gấp giảm
-1.9102699	chút giảm
-2.2575157	ơn giảm
-1.164403	á giảm
-1.8531982	đây giảm
-1.2484729	ạ giảm
-1.6771708	4% giảm
-1.7140355	viện giảm
-1.2484729	87% giảm
-1.7342248	8% giảm
-1.7467458	51% giảm
-0.7437586	ngon giảm
-1.2982241	85% giảm
-2.0634208	sẽ giảm
-1.5972806	28% giảm
-1.2564282	siri giảm
-1.5426408	16% giảm
-1.252465	cô giảm
-0.45193404	hẵng giảm
-3.2958763	cái độ
-2.8630702	mình độ
-3.4770358	với độ
-1.5938636	đủ độ
-2.4501355	tôi độ
-1.5900465	giảm độ
-2.436498	anh độ
-1.588265	tăng độ
-3.573003	ở độ
-0.7384594	23 độ
-2.215412	hè độ
-0.5741234	30 độ
-2.2433453	khoảng độ
-2.2974396	tớ độ
-1.8146987	mức độ
-0.10969939	nhiệt độ
-1.8032861	6% độ
-1.4413341	95% độ
-1.6108768	9% độ
-1.9229048	88% độ
-0.9317221	3% độ
-0.2568282	cường độ
-0.10969939	64 độ
-0.069973655	82 độ
-0.09069399	chế độ
-0.75786525	36 độ
-0.45908117	tốc độ
-3.7828467	cái sáng
-2.7574134	đèn sáng
-2.7428684	nhà sáng
-2.2715816	có sáng
-2.1694615	còn sáng
-1.4774519	không sáng
-2.3894188	ấy sáng
-2.1938553	đi sáng
-2.1056678	nhé sáng
-2.669207	phút sáng
-3.2180521	bạn sáng
-2.7762346	ơi sáng
-1.9724071	với sáng
-2.5225914	tưới sáng
-0.7173503	đủ sáng
-2.827688	rồi sáng
-3.0281823	tôi sáng
-3.471958	em sáng
-2.3876345	giảm sáng
-0.27519825	độ sáng
-2.4300013	sáng sáng
-2.7265787	tường sáng
-2.456858	cho sáng
-3.0614738	anh sáng
-1.937618	nhá sáng
-3.2919557	bóng sáng
-2.9007742	lên sáng
-3.2166116	phòng sáng
-1.4338814	này sáng
-2.481054	tăng sáng
-1.8483686	long sáng
-1.7266772	chưa sáng
-2.3483112	như sáng
-2.5275738	tròn sáng
-1.6958196	đang sáng
-0.61227864	trời sáng
-1.9644195	nay sáng
-2.1263747	là sáng
-1.0047064	hơi sáng
-2.1486704	led sáng
-2.0210025	đón sáng
-1.0948282	thấy sáng
-1.335473	nó sáng
-2.1876693	khách sáng
-1.6151912	hân sáng
-1.9553825	4 sáng
-2.4795263	tuýp sáng
-2.1974177	sân sáng
-2.500093	compact sáng
-1.891804	sắp sáng
-2.1806319	tí sáng
-2.3799732	chính sáng
-2.1220586	hè sáng
-1.5635155	cả sáng
-1.454315	kia sáng
-2.2369175	9 sáng
-1.6319226	thu sáng
-1.7701966	mà sáng
-1.8176582	vẫn sáng
-0.9261614	vẻ sáng
-1.7764003	nhi sáng
-0.17573561	ánh sáng
-1.8387452	xép sáng
-1.7687465	viện sáng
-0.45582545	náy sáng
-0.47064513	phóng sáng
-1.2671398	đèn tường
-0.0041547054	treo tường
-0.31186613	hắt tường
-0.40145648	ốp tường
-2.0999541	đèn xuống
-2.756958	nhà xuống
-2.920303	đi xuống
-1.0683608	radio xuống
-2.6064222	mình xuống
-2.8154216	với xuống
-2.2260027	tưới xuống
-1.9759653	cây xuống
-2.0772433	tôi xuống
-1.7070076	giảm xuống
-1.061314	tường xuống
-2.5480294	anh xuống
-2.2676115	bóng xuống
-2.853447	phòng xuống
-1.3202764	mùi xuống
-1.7364522	lạnh xuống
-2.2655523	cuốn xuống
-1.2514404	học xuống
-2.8878527	chị xuống
-1.6585948	công xuống
-2.5452878	bị xuống
-1.7802756	ngủ xuống
-1.0464883	tròn xuống
-1.184864	việc xuống
-2.7650697	rèm xuống
-2.2240162	sưởi xuống
-1.4081444	cổng xuống
-1.8344134	hơi xuống
-1.0426494	trần xuống
-1.7940261	led xuống
-1.2082263	chùm xuống
-2.1255472	hắt xuống
-1.9867765	vi xuống
-1.6486596	thượng xuống
-2.0005827	nó xuống
-1.8050371	đốt xuống
-1.9188892	phim xuống
-0.99526876	hân xuống
-1.1818274	thả xuống
-1.9607302	4 xuống
-0.9519415	tuýp xuống
-1.2876139	sân xuống
-2.1671004	bếp xuống
-1.86043	sen xuống
-1.4019719	bàn xuống
-1.0188669	compact xuống
-1.9001765	sắp xuống
-2.132964	hè xuống
-0.5043356	thờ xuống
-0.9905344	gió xuống
-1.8313541	sinh xuống
-1.8453931	kia xuống
-0.9204757	thu xuống
-0.95460486	vườn xuống
-1.4594615	quang xuống
-1.1745148	nhi xuống
-1.0009048	xe xuống
-1.5653425	rủ xuống
-1.8455611	xép xuống
-0.67628634	huy xuống
-0.4562415	/giảm xuống
-2.9486566	đèn cho
-1.9675312	ấy cho
-1.6757958	đi cho
-0.5081493	tra cho
-0.5435482	ngay cho
-2.373512	nhé cho
-0.47977167	bật cho
-1.2557752	nướng cho
-1.6108927	phút cho
-1.3468225	gì cho
-1.8034512	nghe cho
-0.4761157	mở cho
-1.7451255	radio cho
-3.0943985	giúp cho
-3.0246131	mình cho
-2.1070495	tưới cho
-2.1438665	cây cho
-2.4214926	rồi cho
-0.5109963	đóng cho
-2.7629645	tôi cho
-0.44838297	giảm cho
-1.9117619	sáng cho
-1.5591072	tường cho
-1.666141	xuống cho
-2.977238	anh cho
-2.372995	nhá cho
-3.0887463	bóng cho
-2.03893	đứng cho
-1.2618122	lên cho
-2.5933375	phòng cho
-2.2999802	mùi cho
-0.5267751	tăng cho
-1.706072	lạnh cho
-1.6282218	cuốn cho
-1.08842	lại cho
-2.1253471	thể cho
-2.1720114	nước cho
-1.7434357	tắm cho
-1.9577081	học cho
-0.5101028	tắt cho
-2.4625907	chị cho
-1.5982174	công cho
-2.6251745	tối cho
-1.1467814	điện cho
-2.3331358	bị cho
-1.7380617	ngủ cho
-1.6168015	tròn cho
-2.273913	việc cho
-2.1757452	game cho
-2.1257038	sưởi cho
-1.7711556	cổng cho
-2.0669827	cafe cho
-2.0650525	hơi cho
-1.953579	trần cho
-1.4504844	đình cho
-1.7180283	led cho
-2.085238	chùm cho
-1.9856668	hòa cho
-1.8660103	đón cho
-1.8341668	xa cho
-1.6185542	cửa cho
-1.5529745	ra cho
-2.066682	hắt cho
-1.9185499	in cho
-2.290533	vi cho
-1.7849474	sóng cho
-0.7379869	vắng cho
-1.7678212	loa cho
-1.5899378	thượng cho
-2.2743738	nó cho
-1.5572665	ăn cho
-1.9985381	vào cho
-1.3177662	khách cho
-1.8190249	giặt cho
-2.178032	hầm cho
-2.0450041	đốt cho
-1.8181326	phim cho
-1.5346609	hân cho
-2.0485528	thả cho
-1.712629	4 cho
-1.90616	tuýp cho
-2.368957	sân cho
-1.6485544	my cho
-1.6375506	bếp cho
-1.7999867	sen cho
-1.5025874	bàn cho
-2.330632	compact cho
-2.031145	chờ cho
-1.2739518	chính cho
-1.9837645	sảnh cho
-2.059788	tay cho
-1.5309081	thờ cho
-1.6376079	gió cho
-2.3327641	sinh cho
-1.581944	fax cho
-1.8385131	39% cho
-1.8968533	thu cho
-1.9627428	mành cho
-1.8360096	bụi cho
-1.3083966	13% cho
-1.8368452	chung cho
-1.0686998	84% cho
-1.4280715	vườn cho
-1.9961712	phải cho
-1.5631179	29% cho
-1.221889	luôn cho
-2.0667245	hiên cho
-1.6413348	trước cho
-1.3248723	61% cho
-1.8444464	để cho
-1.8047222	thang cho
-1.7732155	quang cho
-1.728112	nhạc cho
-2.0980203	nghỉ cho
-1.4912419	27% cho
-1.6646564	đợi cho
-2.0637717	bát cho
-1.4743618	ngơi cho
-1.151276	97% cho
-1.6317768	71% cho
-1.5958271	78% cho
-1.3959484	xép cho
-0.9727571	37% cho
-1.3117262	65% cho
-1.9433753	1 cho
-0.81806874	gấp cho
-0.96278584	62% cho
-1.5622582	chút cho
-2.0135314	tư cho
-1.0159314	tức cho
-1.4237885	88% cho
-1.6480726	4% cho
-0.8161276	87% cho
-1.6971979	8% cho
-1.3507624	64% cho
-1.2558676	35% cho
-1.2629759	36% cho
-1.5913202	31% cho
-0.58542776	54% cho
-1.0988189	19% cho
-1.3875146	50% cho
-0.9609204	2% cho
-1.2840168	45% cho
-1.0159314	14% cho
-1.3920574	bớt cho
-1.1070089	lấy cho
-0.7379869	lịch cho
-1.4773622	hủy cho
-0.44897678	up cho
-3.4829736	cái anh
-2.2843785	không anh
-2.0239115	ấy anh
-1.9705187	đi anh
-2.9282277	tra anh
-2.1288218	ngay anh
-1.6824231	nhé anh
-2.3238614	bật anh
-2.7887917	lúc anh
-1.6727728	giờ anh
-1.8874106	phút anh
-1.9763821	ơi anh
-2.1645463	quá anh
-2.0123742	mở anh
-0.42185986	giúp anh
-1.8118804	với anh
-2.7272394	rồi anh
-2.2693985	đóng anh
-2.9094653	tôi anh
-3.157466	em anh
-2.8279243	giảm anh
-2.6322782	tường anh
-0.3092118	cho anh
-3.0958962	anh anh
-1.8747921	nhá anh
-2.1163542	đứng anh
-2.38415	lên anh
-2.3785224	này anh
-1.9112376	thôi anh
-2.4634242	tăng anh
-2.6255717	lạnh anh
-1.4328763	của anh
-2.1745741	nhớ anh
-2.5484564	tắm anh
-0.44015345	hộ anh
-2.279813	học anh
-2.319649	tắt anh
-1.9104699	sao anh
-1.9723912	như anh
-1.6470037	lắm anh
-2.4399004	tròn anh
-2.2831504	game anh
-2.6944027	rèm anh
-1.5650496	nay anh
-2.0654578	là anh
-1.8713064	nên anh
-2.3894174	hơi anh
-2.5877619	trần anh
-2.444912	chùm anh
-2.045434	chỗ anh
-1.5220084	chắc anh
-1.8013331	nhở anh
-0.97614217	con anh
-2.1160793	khách anh
-1.822739	chết anh
-2.0138998	mất anh
-0.68685496	giùm anh
-1.792654	à anh
-2.4021897	tuýp anh
-2.4666595	sân anh
-1.9000063	ý anh
-2.4288523	compact anh
-1.7252301	chờ anh
-1.5619364	cháu anh
-1.7751764	tí anh
-1.2893552	nữa anh
-1.5896947	yêu anh
-1.8676553	và anh
-2.1418808	đấy anh
-2.1234844	fax anh
-1.9142839	39% anh
-1.9679091	thu anh
-2.5014882	mành anh
-2.1840925	chung anh
-1.977111	nha anh
-2.0348558	đọc anh
-2.1408446	trước anh
-1.1877534	để anh
-2.3445556	thì anh
-1.5284058	27% anh
-1.8044839	laptop anh
-2.0257635	đợi anh
-1.1248924	76% anh
-0.76755613	nãy anh
-1.8691541	ngơi anh
-0.59059095	vợ anh
-1.6334705	lát anh
-0.7463486	sợ anh
-1.3447354	đây anh
-1.6805011	36% anh
-0.91464615	dưng anh
-0.45325485	hộ anh
-1.2745686	hiện anh
-1.2527754	tý anh
-1.2036791	bọn anh
-1.8866974	giãn anh
-0.61716926	lô anh
-3.4752371	cái nhá
-1.6930044	tranh nhá
-1.8189389	sa nhá
-2.2782583	không nhá
-1.9437888	ấy nhá
-1.6496825	đi nhá
-2.0382972	ngay nhá
-1.7604964	nướng nhá
-2.641747	lúc nhá
-1.667769	3 nhá
-1.1391137	phút nhá
-2.6459408	bạn nhá
-2.7889476	quá nhá
-1.7314267	radio nhá
-1.8212675	mình nhá
-1.6626344	với nhá
-1.5979333	tưới nhá
-1.7110959	cây nhá
-1.7343351	tôi nhá
-1.9328742	em nhá
-2.4694965	sáng nhá
-1.3591131	tường nhá
-2.1280828	xuống nhá
-1.9859086	anh nhá
-3.0441852	bóng nhá
-2.0073745	đứng nhá
-1.4194825	lên nhá
-2.9062216	phòng nhá
-2.2197063	này nhá
-1.9006398	mùi nhá
-1.3467243	thôi nhá
-2.1103587	xem nhá
-1.8296636	lạnh nhá
-1.623125	cuốn nhá
-1.0284632	long nhá
-2.3101459	nước nhá
-1.4981349	tắm nhá
-3.1347091	hộ nhá
-1.655208	học nhá
-1.270514	chưa nhá
-1.7205331	chị nhá
-2.15593	điện nhá
-1.6163687	ngủ nhá
-1.4725167	tròn nhá
-2.2276974	việc nhá
-1.2222381	game nhá
-2.304928	rèm nhá
-1.7957717	sưởi nhá
-1.4495022	cổng nhá
-1.4732683	ẩm nhá
-1.4487404	cafe nhá
-1.9400636	trần nhá
-2.046997	họp nhá
-1.7357448	đình nhá
-1.6994183	led nhá
-1.9083294	chùm nhá
-1.8018687	hòa nhá
-1.5724616	đón nhá
-1.3556522	xa nhá
-1.9703256	cửa nhá
-2.051922	hắt nhá
-1.7454635	in nhá
-1.768784	sóng nhá
-0.7341813	vắng nhá
-2.1761687	loa nhá
-1.4112862	thượng nhá
-2.136094	vào nhá
-2.5480313	lý nhá
-1.4273314	khách nhá
-2.2151346	giặt nhá
-2.1478822	hầm nhá
-1.9071517	rượu nhá
-1.7249894	đốt nhá
-1.7942756	phim nhá
-1.7299501	thả nhá
-1.5332656	4 nhá
-2.2560909	tuýp nhá
-2.090455	sân nhá
-2.1582067	11 nhá
-0.4470164	okei nhá
-1.4025922	bếp nhá
-1.7848643	sen nhá
-1.6650627	bàn nhá
-1.7389874	compact nhá
-1.5831367	5 nhá
-2.004585	chờ nhá
-1.4367547	cuối nhá
-1.552441	tí nhá
-1.1760545	chính nhá
-1.5617306	sảnh nhá
-1.6729265	hè nhá
-1.500054	xuân nhá
-1.9159917	hồ nhá
-1.2330081	tay nhá
-1.6263049	gió nhá
-1.4254043	26% nhá
-1.6847107	kia nhá
-1.569645	fax nhá
-2.1179626	9 nhá
-1.807553	39% nhá
-1.5642043	thu nhá
-2.113246	mành nhá
-1.6060011	tớ nhá
-1.9825267	mức nhá
-1.4988755	bụi nhá
-1.8961515	7 nhá
-1.6398762	13% nhá
-1.8134483	chung nhá
-1.062069	84% nhá
-1.8867277	vườn nhá
-1.795149	8 nhá
-1.5051053	gym nhá
-1.0448021	trái nhá
-1.3665903	sau nhá
-0.8206509	29% nhá
-1.5766627	luôn nhá
-1.1102729	6% nhá
-1.6915193	hiên nhá
-1.7712351	trước nhá
-1.3118716	61% nhá
-1.6614205	camera nhá
-1.4022862	bà nhá
-1.7820879	thang nhá
-1.4088256	quang nhá
-1.3220637	nhi nhá
-1.7416955	nghỉ nhá
-1.665171	2 nhá
-0.7020556	27% nhá
-1.3212187	đợi nhá
-1.0989971	76% nhá
-0.9465614	khôi nhá
-1.3118716	34% nhá
-1.474525	đạt nhá
-1.5126776	97% nhá
-1.2423401	71% nhá
-1.7368479	wc nhá
-1.5791528	78% nhá
-1.7138383	xép nhá
-1.3818197	12% nhá
-0.7293658	9% nhá
-0.7341813	22% nhá
-1.1128421	65% nhá
-1.8221635	lang nhá
-1.0643735	99% nhá
-1.2058537	chút nhá
-1.988081	tư nhá
-1.5433003	38% nhá
-0.9150046	88% nhá
-1.2612047	4% nhá
-1.0929992	33% nhá
-1.31367	viện nhá
-1.0920908	59% nhá
-0.6591674	c nhá
-1.3410057	20% nhá
-1.6741585	8% nhá
-1.5956231	35% nhá
-1.346659	51% nhá
-1.0616195	36% nhá
-1.5714731	31% nhá
-1.266751	85% nhá
-1.8870125	đâu nhá
-0.6774659	21% nhá
-1.0918922	19% nhá
-1.371499	50% nhá
-0.4470164	/hè nhá
-1.34631	2% nhá
-1.5543292	28% nhá
-1.2779114	linh nhá
-1.1218555	16% nhá
-1.3010521	58% nhá
-0.4470164	e nhá
-1.4999715	mạn nhá
-0.7341813	nấc nhá
-0.7629294	cái bóng
-3.1680026	đèn bóng
-1.6989428	tra bóng
-3.251098	nhé bóng
-1.4269843	bật bóng
-1.992481	mình bóng
-3.450172	với bóng
-1.7675912	tôi bóng
-1.1659222	giảm bóng
-2.8599713	sáng bóng
-2.6289747	anh bóng
-3.0612361	nhá bóng
-1.3682834	tăng bóng
-1.5419469	của bóng
-3.3801608	hộ bóng
-2.3432825	được bóng
-1.5119421	tắt bóng
-2.1670012	chị bóng
-2.176823	sao bóng
-2.654244	bị bóng
-1.4439465	trạng bóng
-1.9535688	ê bóng
-2.8720095	cổng bóng
-1.9001652	nhở bóng
-1.7269189	chiếc bóng
-1.5164782	dùng bóng
-1.2903279	các bóng
-1.4402819	62% bóng
-0.75736535	cá bóng
-1.4781468	bớt bóng
-1.2662377	bóng đứng
-2.516234	radio mau
-2.3083065	đứng mau
-3.6065183	cái lên
-2.3216581	đèn lên
-2.06898	tranh lên
-0.9553432	sa lên
-1.4918076	không lên
-2.2683117	ấy lên
-2.4841578	đi lên
-2.1752129	bật lên
-1.9641979	nướng lên
-3.1958551	ơi lên
-2.6881354	mở lên
-0.85705316	radio lên
-2.4897077	mình lên
-3.009348	với lên
-0.9881249	tưới lên
-0.79718566	cây lên
-2.5830789	tôi lên
-2.4402585	độ lên
-1.9275026	sáng lên
-0.95329285	tường lên
-2.674965	anh lên
-2.697944	nhá lên
-1.8733757	bóng lên
-1.7563853	đứng lên
-0.29417276	mau lên
-2.5235665	phòng lên
-2.087469	này lên
-0.79063714	mùi lên
-1.8621105	tăng lên
-1.0591344	lạnh lên
-1.7574201	cuốn lên
-1.8092785	nước lên
-2.495854	tắm lên
-1.1930333	học lên
-0.9922387	điện lên
-2.3966908	bị lên
-1.8251499	ngủ lên
-0.9115064	tròn lên
-1.1186235	việc lên
-2.5556326	nóng lên
-1.649193	game lên
-2.0279715	18 lên
-1.7639598	rèm lên
-1.0526375	sưởi lên
-1.0615276	cổng lên
-2.5110288	trời lên
-0.8552787	ẩm lên
-1.3445462	cafe lên
-0.80839556	trần lên
-1.7590504	họp lên
-0.8685608	đình lên
-1.0151378	led lên
-0.69895965	chùm lên
-1.3411816	hòa lên
-1.6187859	đón lên
-0.96686924	xa lên
-1.9923538	cửa lên
-1.4853022	hắt lên
-0.75798714	nhanh lên
-1.4863435	in lên
-1.9582157	vi lên
-1.177903	loa lên
-1.1346425	thượng lên
-1.6645576	nó lên
-1.3592556	giặt lên
-1.8852909	hầm lên
-1.4648851	rượu lên
-0.90807545	đốt lên
-1.049676	thả lên
-0.7306666	tuýp lên
-1.4340794	sân lên
-1.27938	my lên
-1.1881256	bếp lên
-0.9801519	sen lên
-0.728385	bàn lên
-0.9659788	compact lên
-2.160254	5 lên
-1.46609	cuối lên
-1.5716509	chính lên
-1.0891488	sảnh lên
-1.3616377	hè lên
-1.5392386	xuân lên
-1.3434592	tay lên
-1.2453543	nắng lên
-0.6577253	gió lên
-1.4190971	kia lên
-1.4179288	fax lên
-1.5976933	thu lên
-1.9795569	mành lên
-2.2009723	tớ lên
-1.0486946	bụi lên
-1.9312491	7 lên
-2.1396546	chung lên
-1.626661	vườn lên
-1.6518216	trái lên
-1.2094855	sau lên
-1.7126548	hiên lên
-1.2763236	trước lên
-0.7196731	camera lên
-0.62681216	thang lên
-0.50026524	quang lên
-1.3490641	nhi lên
-1.0603337	nhạc lên
-1.5135869	2 lên
-1.2995114	quân lên
-1.9858323	đợi lên
-1.4226394	bát lên
-1.5512505	khôi lên
-1.1310132	ấm lên
-1.1836658	garage lên
-0.90929216	rủ lên
-1.7946451	wc lên
-1.7735592	xép lên
-1.3126242	lang lên
-1.9738805	1 lên
-0.634484	viện lên
-0.75798714	hôn lên
-0.7429524	thoáng lên
-2.5742903	cái phòng
-3.3433352	đèn phòng
-0.21825927	trong phòng
-2.7015812	không phòng
-2.3814344	ấy phòng
-2.5881712	đi phòng
-2.1675832	ngay phòng
-2.0648334	nhé phòng
-2.593	giờ phòng
-3.2084918	bạn phòng
-2.3614583	ơi phòng
-2.3316522	radio phòng
-2.1840897	với phòng
-3.4605043	em phòng
-2.7146285	sáng phòng
-2.2682588	xuống phòng
-3.350195	cho phòng
-3.1763892	anh phòng
-2.2220786	nhá phòng
-2.8121207	bóng phòng
-2.6998513	lên phòng
-2.267556	xem phòng
-2.435528	lạnh phòng
-2.7490404	cuốn phòng
-2.6794658	của phòng
-1.9081137	lại phòng
-2.5701382	nước phòng
-0.43819737	ở phòng
-1.9384794	sao phòng
-1.5188915	điện phòng
-1.6370462	bị phòng
-2.6445594	ngủ phòng
-1.7745054	rèm phòng
