\data\
ngram 1=898
ngram 2=9760
ngram 3=25657
ngram 4=42157

\1-grams:
-4.053693	<unk>	0
0	<s>	-0.15272805
0	</s>	-0.15272805
-1.8022888	cái	-0.76260734
-2.3093638	đèn	-0.58556414
-3.8734543	tranh	-0.15272805
-1.8759327	trong	-0.6773956
-2.3572712	nhà	-0.3833409
-3.7631705	giữ	-0.15272805
-3.0414042	đồ	-0.19748501
-3.531191	trường	-0.30934444
-3.8734543	sa	-0.15272805
-2.081649	có	-0.57303417
-2.7136207	còn	-0.22233123
-2.0606828	không	-0.41130215
-2.2122226	ấy	-0.39827615
-2.995023	nhờ	-0.26774806
-1.7442518	đi	-0.666338
-1.8468336	kiểm	-1.975238
-3.8734543	tra	-0.15272805
-2.6301365	ngay	-0.3906392
-1.6996993	nhé	-0.7846302
-1.8531337	bật	-0.7955718
-2.8797872	lò	-0.77007526
-3.3016987	nướng	-0.16322787
-2.0658302	lúc	-0.63386685
-2.914908	16	-0.51524544
-2.3003855	giờ	-0.2761281
-2.8170662	3	-0.2502318
-2.2345476	phút	-0.7032534
-1.7593267	bạn	-0.8749675
-2.4726171	ơi	-0.38684526
-3.0933375	chán	-0.34895298
-2.184136	quá	-0.6438056
-2.7372649	gì	-0.2196645
-2.995023	nghe	-0.22167224
-1.8759327	mở	-0.7711849
-2.7622707	radio	-0.26413888
-1.767065	giúp	-1.2260953
-2.1707458	mình	-0.37621897
-1.6843727	với	-0.9045434
-2.4596026	máy	-0.734998
-3.7631705	tính	-0.15272805
-2.8170662	tưới	-0.2559689
-3.2206275	cây	-0.18330538
-2.9531207	đủ	-0.44067824
-1.9856771	rồi	-0.6771816
-1.8792896	đóng	-0.98362774
-2.081649	tôi	-0.4176405
-2.7136207	vòi	-0.6905557
-1.6279628	em	-0.8734175
-1.9368618	giảm	-0.8099052
-2.560142	độ	-0.38697264
-2.1707458	sáng	-0.45998642
-3.4014595	tường	-0.2747343
-2.2050288	xuống	-0.48393774
-1.8166354	cho	-0.9034512
-2.0032494	anh	-0.40324757
-1.7517239	nhá	-0.7369244
-2.5141783	bóng	-0.56099653
-3.8734543	đứng	-0.15272805
-3.7631705	mau	-0.2611644
-1.9180373	lên	-0.6559567
-2.1514041	phòng	-0.52123195
-2.1451435	này	-0.4521594
-3.2206275	đầy	-0.29096103
-2.611552	mùi	-0.2683656
-2.5141783	thôi	-0.27026874
-1.9687883	tăng	-0.84253204
-2.7622707	quạt	-0.70728445
-3.2206275	hút	-0.17740573
-2.3998075	xem	-0.38869676
-2.6698756	nào	-0.26085547
-2.995023	tủ	-0.8322232
-2.5141783	lạnh	-0.33230922
-3.1523356	màn	-0.61037445
-3.531191	cuốn	-0.24689098
-2.446967	của	-0.27408633
-3.4014595	long	-0.15272805
-2.446967	lại	-0.34929368
-2.0032494	nhớ	-0.5634828
-3.0933375	chào	-0.56561697
-3.531191	thể	-0.15272805
-2.8170662	van	-0.70391965
-2.411126	nước	-0.28086948
-2.8472953	tắm	-0.265491
-1.9687883	hộ	-0.93531334
-2.0505676	được	-0.8595097
-2.7136207	học	-0.25848547
-1.8726014	tắt	-0.8614129
-2.9531207	chưa	-0.22785184
-3.7631705	gái	-0.22193284
-2.3998075	chị	-0.33071274
-1.8792896	ở	-0.8653801
-3.1523356	ban	-0.50762504
-3.7631705	công	-0.15272805
-2.7888048	số	-0.3148852
-2.411126	sao	-0.292943
-2.0555959	tối	-0.61853033
-2.3780186	thế	-0.46621764
-2.6698756	điện	-0.31648275
-3.3016987	ờ	-0.19291477
-2.2915888	hình	-1.3614969
-3.0414042	như	-0.1812288
-3.4014595	đúng	-0.15272805
-2.7622707	lắm	-0.2384952
-2.7372649	chuẩn	-1.0874957
-2.2829669	bị	-0.43107814
-2.8472953	ngủ	-0.274106
-3.7631705	tròn	-0.20278957
-2.3374696	làm	-0.6691607
-3.3016987	việc	-0.17081498
-3.531191	thông	-0.15272805
-3.531191	minh	-0.15272805
-2.9531207	bình	-0.6318492
-2.4346883	nóng	-0.44878158
-3.0414042	chơi	-0.3222302
-3.7631705	game	-0.15721428
-2.995023	18	-0.33460104
-2.5141783	tiếng	-0.2028827
-2.995023	22	-0.4350918
-3.3016987	tình	-0.23979147
-3.7631705	trạng	-0.15272805
-2.2829669	đang	-0.3872748
-2.995023	rèm	-0.27671745
-2.8472953	ê	-0.28966424
-3.4014595	sưởi	-0.23879312
-2.9531207	muốn	-0.27607277
-3.7631705	trụ	-0.2611644
-2.9531207	cổng	-0.31446362
-2.2269776	trời	-0.5577347
-2.7622707	hôm	-0.8929759
-2.8170662	nay	-0.24044093
-3.7631705	rất	-0.15272805
-2.7622707	là	-0.19849026
-2.6698756	nên	-0.3194778
-3.2206275	ẩm	-0.1593968
-3.8734543	pha	-0.15272805
-3.3016987	cafe	-0.15272805
-3.3016987	kêu	-0.30934444
-2.2345476	hơi	-0.43899778
-2.995023	ồn	-0.35373482
-3.3016987	trần	-0.26628074
-3.531191	họp	-0.16416664
-3.8734543	gia	-0.15272805
-3.8734543	đình	-0.15272805
-3.8734543	led	-0.15272805
-3.7631705	chùm	-0.1959327
-2.8472953	chỗ	-0.3057772
-3.7631705	ngồi	-0.15272805
-3.8734543	ván	-0.15272805
-2.1151276	hãy	-0.89783925
-2.8170662	23	-0.49500436
-3.2206275	mát	-0.18595342
-3.531191	treo	-0.30934444
-2.914908	chắc	-0.23253687
-2.914908	nhở	-0.23932908
-3.2206275	điều	-0.3859195
-3.8734543	hòa	-0.15272808
-3.7631705	tiếp	-0.15272805
-3.531191	đón	-0.15272805
-3.2206275	mỏi	-0.3189727
-3.7631705	xa	-0.15272805
-2.8170662	cửa	-0.34615183
-2.3472576	ra	-0.4147175
-3.4014595	hắt	-0.18104845
-3.7631705	57	-0.2611644
-2.8797872	thấy	-0.26479396
-2.914908	mấy	-0.38302016
-3.2206275	nhanh	-0.18595342
-3.1523356	in	-0.19488575
-3.7631705	vi	-0.15272805
-3.8734543	sóng	-0.15272805
-3.4014595	chiều	-0.264587
-3.8734543	vắng	-0.15272805
-3.3016987	loa	-0.21204062
-2.8472953	trên	-0.40163457
-2.995023	tầng	-0.4795016
-3.7631705	thượng	-0.20225705
-3.2206275	con	-0.20506608
-2.2195375	nó	-0.42691302
-3.4014595	tập	-0.20357063
-3.8734543	nhảy	-0.15272805
-3.3016987	mới	-0.15272805
-3.8734543	mua	-0.15272805
-2.995023	nhiều	-0.19291477
-3.2206275	ăn	-0.19677174
-2.611552	về	-0.28331724
-1.9943743	vào	-0.5941887
-2.157756	trợ	-1.1891816
-3.531191	lý	-0.18158878
-3.0414042	khách	-0.20642993
-3.0414042	ôi	-0.21221463
-2.7888048	chết	-0.42542255
-2.7372649	quên	-0.4572754
-2.8170662	mất	-0.29854256
-2.6911974	giùm	-0.6159113
-3.2206275	giặt	-0.20705199
-2.8170662	à	-0.24516305
-3.531191	chú	-0.15272805
-2.9531207	hầm	-0.27577394
-3.8734543	rượu	-0.15272805
-2.914908	đó	-0.21316311
-3.1523356	âm	-0.33038992
-3.8734543	sợi	-0.15272805
-3.8734543	đốt	-0.15272805
-3.7631705	phim	-0.15272805
-3.8734543	hân	-0.15272805
-3.4014595	nồm	-0.23979147
-3.7631705	thả	-0.2257003
-3.0933375	mạnh	-0.27326295
-2.7136207	4	-0.3017375
-3.3016987	tao	-0.53119314
-3.7631705	tuýp	-0.20773964
-2.367521	đến	-0.27267566
-2.8797872	sân	-0.24470061
-3.531191	khô	-0.23979147
-2.560142	nhỉ	-0.48853695
-3.2206275	hoạt	-0.22401428
-3.531191	động	-0.15272805
-3.8734543	my	-0.15272805
-2.2422519	ý	-0.45341226
-3.2206275	hey	-0.44067824
-2.914908	11	-0.37528193
-3.1523356	15	-0.43555456
-3.8734543	okei	-0.15272805
-2.9531207	bếp	-0.30131695
-2.6911974	hay	-0.57010686
-3.7631705	ốp	-0.22193284
-2.544274	ngoài	-0.32562035
-3.7631705	51	-0.2611644
-3.7631705	quản	-0.2611644
-3.8734543	hoa	-0.15272805
-3.8734543	sen	-0.15272805
-3.531191	bàn	-0.19998953
-3.7631705	compact	-0.2035706
-2.914908	5	-0.34159687
-3.7631705	45	-0.2611644
-3.7631705	chờ	-0.16352317
-3.7631705	liệu	-0.15272805
-2.411126	chói	-0.675617
-3.1523356	mắt	-0.17053522
-3.8734543	38	-0.15272805
-3.8734543	lí	-0.15272805
-3.7631705	ảo	-0.21134524
-3.8734543	cuối	-0.15272805
-3.2206275	ti	-0.61037445
-2.7622707	to	-0.6467413
-3.531191	hôi	-0.15272805
-2.9531207	đê	-0.20456699
-3.0414042	cháu	-0.24739003
-2.6911974	sắp	-0.24702859
-2.5937304	tí	-0.37598774
-2.2915888	nữa	-0.43848097
-3.8734543	haizz	-0.15272805
-2.9531207	bé	-0.26996493
-3.7631705	chính	-0.19357315
-3.0933375	6	-0.4795016
-3.8734543	suất	-0.15272805
-3.4014595	tiền	-0.4342832
-3.0933375	sảnh	-0.2661245
-3.3016987	đầu	-0.18691015
-3.2206275	hè	-0.23304279
-3.531191	89%	-0.19291477
-3.7631705	mùa	-0.15272805
-3.8734543	xuân	-0.15272805
-2.995023	21	-0.48529187
-3.8734543	uây	-0.15272805
-3.1523356	mưa	-0.20357063
-3.7631705	chả	-0.15272805
-3.2206275	nhìn	-0.21308574
-3.4014595	cả	-0.1657148
-3.0933375	alo	-0.2860795
-2.8170662	đồng	-1.0083145
-3.8734543	hồ	-0.15272805
-3.8734543	xách	-0.15272805
-3.7631705	tay	-0.15272805
-2.6911974	tại	-0.38212502
-2.6301365	nắng	-0.44451907
-3.8734543	thờ	-0.15272805
-3.3016987	gió	-0.1683594
-3.7631705	vệ	-0.2611644
-3.531191	sinh	-0.15272805
-3.3016987	yêu	-0.16774766
-3.8734543	rõ	-0.15272805
-2.6495516	và	-0.22297226
-3.7631705	theo	-0.15272805
-3.8734543	smarthome	-0.15272805
-3.3016987	26%	-0.19408168
-3.0414042	17	-0.43810892
-3.4014595	30	-0.2611644
-3.0414042	chiếc	-0.253419
-3.1523356	thật	-0.20506608
-2.4227474	đấy	-0.32670936
-3.4014595	khó	-0.4342832
-3.7631705	chịu	-0.15272805
-2.6495516	kia	-0.21804003
-3.8734543	fax	-0.15272805
-2.9531207	9	-0.3231654
-2.914908	13	-0.6696378
-2.486034	khoảng	-0.22114684
-3.0414042	39%	-0.2337817
-3.7631705	thu	-0.15272805
-3.4014595	ít	-0.20357063
-2.995023	mành	-0.2670972
-2.5289655	cậu	-0.5332401
-3.0933375	tớ	-0.22673497
-3.7631705	xông	-0.2611644
-2.914908	mức	-0.19741486
-3.8734543	vòng	-0.15272805
-2.8797872	dưới	-0.30032182
-2.9531207	ông	-0.35373482
-3.531191	83%	-0.20357063
-2.6301365	bây	-1.193951
-3.2206275	bụi	-0.16323459
-3.8734543	24	-0.15272805
-2.4998782	tầm	-0.21966308
-3.0933375	7	-0.29490218
-3.7631705	34	-0.2611644
-3.3016987	vấn	-0.44067824
-3.8734543	đề	-0.15272805
-3.4014595	13%	-0.16489163
-3.531191	sử	-0.30934444
-3.8734543	dụng	-0.15272805
-2.544274	xong	-0.5656047
-3.3016987	nhiệt	-0.53119314
-3.7631705	chung	-0.18229553
-2.8472953	mà	-0.18910384
-3.531191	coi	-0.22193284
-3.2206275	84%	-0.22193284
-3.7631705	nhỡ	-0.15272805
-3.531191	trộm	-0.15272805
-3.2206275	vườn	-0.22761379
-3.8734543	cu	-0.15272805
-2.995023	bên	-0.28910738
-2.8472953	phải	-0.24057332
-2.1979523	nha	-0.47483116
-3.7631705	đọc	-0.15272805
-3.7631705	phía	-0.15272805
-3.8734543	đông	-0.15272805
-3.531191	mày	-0.17740573
-3.7631705	sách	-0.15272805
-3.1523356	8	-0.2022239
-2.7136207	vẫn	-0.3200558
-3.2206275	19	-0.44067824
-3.8734543	43	-0.15272805
-3.8734543	gym	-0.15272805
-3.8734543	trái	-0.15272805
-2.8797872	sau	-0.16974558
-2.8472953	29%	-0.33579624
-2.995023	luôn	-0.18330538
-2.995023	6%	-0.22312096
-3.2206275	dùm	-0.28320697
-3.1523356	đại	-0.67732126
-2.5141783	hết	-0.34446776
-3.8734543	ayo	-0.15272805
-3.8734543	okay	-0.15272805
-3.2206275	hiên	-0.2761565
-2.995023	trước	-0.22273435
-3.8734543	vẻ	-0.15272805
-3.8734543	dần	-0.15272805
-3.4014595	95%	-0.17459348
-3.0933375	đã	-0.20506608
-3.8734543	nực	-0.15272805
-3.7631705	61%	-0.17740573
-3.0933375	camera	-0.18521014
-3.7631705	28	-0.2611644
-3.7631705	bà	-0.15272805
-2.2829669	để	-0.33183247
-3.0414042	cầu	-0.6167695
-3.8734543	thang	-0.15272805
-3.7631705	huỳnh	-0.2611644
-3.8734543	quang	-0.15272805
-3.4014595	92%	-0.15272805
-2.486034	một	-0.50628453
-3.3016987	73%	-0.2384952
-3.4014595	23%	-0.15272805
-3.8734543	ủi	-0.15272805
-3.8734543	nhi	-0.15272805
-3.0414042	nhạc	-0.17545685
-3.7631705	nghỉ	-0.16489163
-2.7888048	hỏng	-0.3543598
-3.531191	xe	-0.18104842
-3.1523356	nhấp	-0.67732126
-3.8734543	nháy	-0.15272805
-2.4726171	thì	-0.4182411
-3.531191	0	-0.30934444
-2.7372649	2	-0.29297674
-3.8734543	quân	-0.15272805
-3.7631705	27%	-0.17459348
-3.8734543	25	-0.15272805
-3.8734543	44	-0.15272805
-3.3016987	ánh	-0.36149698
-3.4014595	laptop	-0.24391517
-3.8734543	thời	-0.15272805
-3.7631705	gian	-0.15272805
-3.0933375	12	-0.33915418
-3.3016987	đợi	-0.1587673
-3.1523356	đau	-0.29096103
-3.531191	lưng	-0.20357063
-3.531191	xin	-0.22193284
-3.7631705	lỗi	-0.15272805
-3.2206275	rửa	-0.21134524
-3.1523356	bát	-0.17639123
-3.531191	76%	-0.19291477
-3.8734543	kịch	-0.15272805
-3.0933375	vậy	-0.21449451
-3.0933375	14	-0.34794164
-3.7631705	42	-0.2611644
-3.4014595	sạch	-0.20357063
-2.914908	ai	-0.2237825
-3.1523356	bắt	-0.67732126
-3.531191	khôi	-0.15272805
-3.531191	ấm	-0.264587
-3.0933375	10	-0.34119892
-2.995023	nãy	-0.24933125
-2.995023	chảy	-0.22695881
-3.2206275	yếu	-0.29096103
-3.4014595	bao	-0.4342832
-3.8734543	ngơi	-0.15272805
-3.8734543	27	-0.15272805
-3.531191	garage	-0.15272805
-3.7631705	40	-0.2611644
-3.3016987	34%	-0.19761845
-3.8734543	trầm	-0.15272805
-3.531191	cánh	-0.30934444
-3.8734543	đạt	-0.15272805
-3.8734543	thiết	-0.15272805
-2.995023	chạy	-0.19827342
-3.4014595	sai	-0.24579144
-3.8734543	rủ	-0.15272805
-3.4014595	97%	-0.18330538
-3.2206275	71%	-0.28712273
-3.8734543	58	-0.15272805
-3.4014595	wc	-0.19575341
-3.8734543	ròi	-0.15272805
-3.4014595	lượng	-0.20506608
-3.4014595	thành	-0.15272805
-3.3016987	78%	-0.20456699
-3.7631705	bảo	-0.15272805
-3.4014595	vợ	-0.20357063
-3.8734543	56	-0.15272805
-3.2206275	khi	-0.29096103
-3.4014595	hỗ	-0.4342832
-2.7888048	mọi	-0.7449415
-3.3016987	người	-0.16665743
-3.4014595	gác	-0.4342832
-3.8734543	xép	-0.15272805
-3.1523356	cảm	-0.37629125
-2.611552	thêm	-0.21991922
-3.4014595	12%	-0.2096015
-3.7631705	ngôi	-0.2611644
-3.7631705	77%	-0.19291477
-2.8797872	dùng	-0.32294714
-3.8734543	khả	-0.15272805
-3.8734543	nghi	-0.15272805
-3.531191	lâu	-0.22193284
-3.8734543	59	-0.15272805
-3.8734543	bận	-0.15272805
-3.8734543	hư	-0.15272805
-3.7631705	suốt	-0.15272805
-3.3016987	cứ	-0.2634431
-3.3016987	chập	-0.36149698
-3.8734543	chờn	-0.15272805
-3.8734543	trặng	-0.15272805
-3.531191	26	-0.30934444
-3.531191	15%	-0.19291477
-3.7631705	duy	-0.15272805
-3.3016987	dọn	-0.19291477
-3.8734543	dẹp	-0.15272805
-2.7372649	lát	-0.47306117
-3.7631705	thay	-0.15272805
-3.3016987	9%	-0.20035218
-3.7631705	47	-0.2611644
-3.4014595	37%	-0.22193284
-3.7631705	22%	-0.15272805
-3.1523356	65%	-0.2384952
-2.7372649	kìa	-0.31493983
-3.7631705	chỉ	-0.15272805
-2.914908	cần	-0.25420657
-3.2206275	hành	-0.61037445
-3.8734543	lang	-0.15272805
-2.914908	1	-0.3111644
-3.4014595	20	-0.20357063
-3.3016987	99%	-0.19291477
-3.1523356	các	-0.18104842
-3.8734543	41%	-0.15272805
-3.3016987	bẩn	-0.22401428
-3.2206275	gấp	-0.21134524
-3.8734543	ừm	-0.15272805
-3.8734543	đơn	-0.15272805
-3.8734543	giản	-0.15272805
-3.531191	62%	-0.17740573
-3.1523356	phát	-0.17459348
-2.8170662	chút	-0.2159872
-3.8734543	chuyện	-0.15272805
-2.8170662	riêng	-1.0083145
-3.8734543	tư	-0.15272805
-3.8734543	ào	-0.15272805
-3.7631705	ơn	-0.15272805
-2.8797872	á	-0.26609278
-3.8734543	toang	-0.15272805
-3.8734543	hoang	-0.15272805
-3.0933375	muộn	-0.3037834
-2.9531207	mệt	-0.5266845
-3.8734543	phỏng	-0.15272805
-3.3016987	hơn	-0.15272805
-3.8734543	48	-0.15272805
-3.8734543	dướ	-0.15272805
-3.7631705	thân	-0.15272805
-3.8734543	mến	-0.15272805
-3.2206275	ơ	-0.19761845
-3.8734543	đất	-0.15272805
-3.1523356	38%	-0.20431772
-3.2206275	đỡ	-0.17053522
-3.1523356	tốn	-0.67732126
-3.7631705	sợ	-0.15272805
-3.2206275	từ	-0.22401428
-3.4014595	khỏi	-0.21134524
-3.8734543	biết	-0.15272805
-3.8734543	do	-0.15272805
-2.7136207	đây	-0.23064667
-3.8734543	đêm	-0.15272805
-3.8734543	trọ	-0.15272805
-3.8734543	lập	-0.15272805
-3.7631705	tức	-0.15272805
-3.531191	ạ	-0.18104842
-3.2206275	88%	-0.19513647
-3.531191	kinh	-0.22193284
-3.8734543	42%	-0.15272805
-3.7631705	huy	-0.15272805
-3.4014595	4%	-0.2171466
-3.531191	33%	-0.15272805
-3.8734543	vy	-0.15272805
-3.4014595	tẹo	-0.264587
-3.3016987	47%	-0.17740573
-3.8734543	choạng	-0.15272805
-3.7631705	tất	-0.2611644
-3.8734543	nhập	-0.15272805
-3.8734543	nhằng	-0.15272805
-2.8170662	thư	-0.70728445
-3.8734543	viện	-0.15272805
-3.8734543	truyền	-0.15272805
-3.8734543	thống	-0.15272805
-3.531191	59%	-0.18910384
-3.531191	ngập	-0.15272805
-3.8734543	c	-0.15272805
-3.531191	87%	-0.15272805
-3.531191	20%	-0.15272805
-3.8734543	29	-0.15272805
-3.0933375	8%	-0.22996248
-3.7631705	tiết	-0.15272805
-3.7631705	kiệm	-0.15272805
-3.531191	64%	-0.22401428
-3.8734543	xịt	-0.15272805
-3.3016987	bố	-0.15272805
-3.531191	nhỏ	-0.15272805
-3.1523356	nhưng	-0.50762504
-3.4014595	xíu	-0.19291477
-3.8734543	hẳn	-0.15272805
-3.4014595	sang	-0.15272805
-3.7631705	mẹ	-0.15272805
-3.8734543	họ	-0.15272805
-3.8734543	dược	-0.15272805
-3.8734543	trông	-0.15272805
-3.7631705	ngày	-0.15272805
-3.8734543	tau	-0.15272805
-3.7631705	55	-0.2611644
-3.531191	3%	-0.15272805
-3.8734543	chiếu	-0.15272805
-3.8734543	nhể	-0.15272805
-3.7631705	33	-0.2611644
-3.2206275	tràn	-0.24916095
-2.8797872	35%	-0.2627693
-3.8734543	rét	-0.15272805
-3.4014595	ui	-0.2634431
-3.4014595	ướt	-0.20357063
-3.7631705	sàn	-0.2611644
-3.7631705	eo	-0.2611644
-3.8734543	toàn	-0.15272805
-3.7631705	cá	-0.15272805
-3.8734543	muỗi	-0.15272805
-3.8734543	cơm	-0.15272805
-3.0933375	51%	-0.20110732
-2.995023	buồn	-0.5904566
-3.2206275	36%	-0.2555594
-3.8734543	miếng	-0.15272805
-3.7631705	thịt	-0.15272805
-3.7631705	ngon	-0.15272805
-3.7631705	oi	-0.15272805
-3.8734543	điên	-0.15272805
-3.3016987	bí	-0.23979147
-3.8734543	bách	-0.15272805
-3.2206275	tự	-0.30934444
-3.8734543	dưng	-0.15272805
-3.8734543	ổn	-0.15272805
-3.4014595	31%	-0.20798507
-3.7631705	cường	-0.2611644
-3.8734543	hiểu	-0.15272805
-3.8734543	màu	-0.15272805
-3.8734543	hồng	-0.15272805
-3.1523356	ghê	-0.23300812
-3.7631705	om	-0.15272805
-3.8734543	với	-0.15272805
-3.7631705	chậm	-0.15272805
-3.8734543	ơigiảm	-0.15272805
-3.8734543	53	-0.15272805
-3.8734543	39	-0.15272805
-3.8734543	kịp	-0.15272805
-3.531191	qua	-0.15272805
-3.531191	85%	-0.17740573
-3.7631705	lạ	-0.15272805
-2.8797872	sẽ	-0.24905574
-3.8734543	tuyệt	-0.15272805
-3.8734543	vời	-0.15272805
-3.531191	nếu	-0.22193284
-3.3016987	bài	-0.23300812
-3.8734543	ế	-0.15272805
-3.7631705	72%	-0.15272805
-3.7631705	54%	-0.15272805
-3.8734543	ới	-0.15272805
-3.7631705	cài	-0.15272805
-3.8734543	tròng	-0.15272805
-3.7631705	46	-0.2611644
-3.4014595	chà	-0.15272805
-3.531191	lênh	-0.22193284
-3.8734543	láng	-0.15272805
-3.7631705	cỡ	-0.15272805
-3.4014595	gần	-0.15272805
-3.8734543	khét	-0.15272805
-3.8734543	hình	-0.15272805
-3.8734543	hộ	-0.15272805
-3.4014595	yên	-0.264587
-3.8734543	lặng	-0.15272805
-3.8734543	ơitắt	-0.15272805
-3.8734543	sẵn	-0.15272805
-3.7631705	96%	-0.20357063
-3.8734543	giai	-0.15272805
-3.7631705	64	-0.2611644
-2.7888048	đâu	-0.2497801
-3.8734543	41	-0.15272805
-3.4014595	hiện	-0.23979147
-3.8734543	21%	-0.15272805
-3.531191	khuya	-0.22193284
-3.8734543	trì	-0.15272805
-3.3016987	82	-0.53119314
-3.531191	khá	-0.22193284
-3.4014595	19%	-0.19291477
-3.8734543	nhiên	-0.15272805
-3.531191	hẹn	-0.30934444
-3.2206275	50%	-0.17053522
-3.7631705	31	-0.2611644
-3.8734543	ca	-0.15272805
-3.8734543	/giảm	-0.15272805
-3.8734543	/47%	-0.15272805
-3.8734543	/21	-0.15272805
-3.8734543	/hè	-0.15272805
-3.8734543	hoàng	-0.15272805
-3.7631705	hôn	-0.15272805
-3.8734543	giời	-0.15272805
-3.7631705	hãng	-0.15272805
-3.3016987	2%	-0.19291477
-3.8734543	chồng	-0.15272805
-3.8734543	hú	-0.15272805
-3.2206275	45%	-0.20357063
-3.8734543	trục	-0.15272805
-3.8734543	trặc	-0.15272805
-3.7631705	vãi	-0.15272805
-3.8734543	nhà	-0.15272805
-3.7631705	hóng	-0.15272805
-3.8734543	quả	-0.15272805
-3.8734543	pin	-0.15272805
-3.4014595	dạo	-0.4342832
-2.995023	chế	-0.58221424
-3.8734543	chậu	-0.15272805
-3.4014595	chín	-0.4342832
-3.7631705	mãi	-0.22193284
-3.4014595	14%	-0.15272805
-3.7631705	40%	-0.22193284
-3.2206275	bớt	-0.17235675
-3.1523356	tý	-0.15272805
-3.1523356	vừa	-0.15272805
-3.7631705	ok	-0.15272805
-3.8734543	nổi	-0.15272805
-3.8734543	da	-0.15272805
-3.8734543	gà	-0.15272805
-3.8734543	náy	-0.15272805
-3.2206275	28%	-0.2802434
-3.8734543	linh	-0.15272805
-3.4014595	74%	-0.15272805
-3.8734543	50	-0.15272805
-3.8734543	nhávào	-0.15272805
-3.8734543	héo	-0.15272805
-3.531191	dậy	-0.264587
-3.531191	í	-0.15272805
-3.2206275	tới	-0.15272805
-3.8734543	góc	-0.15272805
-3.8734543	xả	-0.15272805
-3.7631705	bồn	-0.15272805
-3.7631705	thoáng	-0.15272805
-3.531191	bánh	-0.15272805
-3.7631705	hà	-0.2611644
-3.8734543	nội	-0.15272805
-3.8734543	thiếu	-0.15272805
-3.8734543	cúng	-0.15272805
-3.8734543	vui	-0.15272805
-3.8734543	tai	-0.15272805
-3.8734543	44%	-0.15272805
-3.8734543	siri	-0.15272805
-3.531191	thức	-0.30934444
-3.8734543	bể	-0.15272805
-3.531191	mặt	-0.22193284
-3.531191	phóng	-0.22193284
-3.7631705	nghĩ	-0.2611644
-3.8734543	ô	-0.15272805
-3.8734543	gặp	-0.15272805
-3.3016987	lấy	-0.19291477
-3.7631705	vội	-0.15272805
-3.8734543	kẹt	-0.15272805
-3.3016987	kết	-0.36149698
-3.8734543	nối	-0.15272805
-3.4014595	nấu	-0.4342832
-3.4014595	thằng	-0.15272805
-3.8734543	sôi	-0.15272805
-3.3016987	16%	-0.22297226
-3.8734543	nho	-0.15272805
-3.3016987	cháy	-0.23979147
-3.7631705	quần	-0.2611644
-3.8734543	áo	-0.15272805
-3.7631705	hát	-0.15272805
-3.0414042	bỏ	-0.24916095
-3.8734543	cất	-0.15272805
-3.531191	bọn	-0.20357063
-3.7631705	trẻ	-0.22193284
-3.7631705	nhó	-0.15272805
-3.7631705	mờ	-0.2611644
-3.4014595	tốt	-0.15272805
-3.7631705	trưa	-0.2611644
-3.8734543	mính	-0.15272805
-3.8734543	lau	-0.15272805
-3.8734543	hanh	-0.15272805
-3.8734543	thank	-0.15272805
-3.8734543	you	-0.15272805
-3.8734543	kéo	-0.15272805
-3.8734543	ngại	-0.15272805
-3.8734543	bắn	-0.15272805
-3.8734543	tung	-0.15272805
-3.8734543	toé	-0.15272805
-3.8734543	chứ	-0.15272805
-3.8734543	dễ	-0.15272805
-3.8734543	ngã	-0.15272805
-3.8734543	ưi	-0.15272805
-3.8734543	chủ	-0.15272805
-3.8734543	nhân	-0.15272805
-3.8734543	ngắt	-0.15272805
-3.8734543	thử	-0.15272805
-3.8734543	xài	-0.15272805
-3.8734543	đặt	-0.15272805
-3.7631705	lịch	-0.15272805
-3.3016987	cũng	-0.15272805
-3.8734543	rùi	-0.15272805
-3.8734543	len	-0.15272805
-3.8734543	sư	-0.15272805
-3.8734543	tài	-0.15272805
-3.7631705	nhe	-0.15272805
-3.4014595	58%	-0.15272805
-3.8734543	nhòe	-0.15272805
-3.8734543	béng	-0.15272805
-3.8734543	thèm	-0.15272805
-3.531191	thiệt	-0.15272805
-3.8734543	52	-0.15272805
-3.7631705	cạnh	-0.22193284
-3.4014595	quay	-0.36149698
-3.8734543	vài	-0.15272805
-3.8734543	karaoke	-0.15272805
-3.8734543	lùa	-0.15272805
-3.7631705	tìm	-0.15272805
-3.8734543	nhớp	-0.15272805
-3.8734543	nháp	-0.15272805
-3.7631705	ngột	-0.2611644
-3.8734543	ngạt	-0.15272805
-3.8734543	e	-0.15272805
-3.8734543	đống	-0.15272805
-3.8734543	ảnh	-0.15272805
-3.7631705	đường	-0.15272805
-3.8734543	lùi	-0.15272805
-3.8734543	online	-0.15272805
-3.8734543	uống	-0.15272805
-3.8734543	dến	-0.15272805
-3.7631705	ko	-0.2611644
-3.8734543	ớ	-0.15272805
-3.8734543	ề	-0.15272805
-3.8734543	rè	-0.15272805
-3.8734543	nôi	-0.15272805
-3.8734543	thắng	-0.15272805
-3.8734543	ây	-0.15272805
-3.531191	xảy	-0.30934444
-3.8734543	đắng	-0.15272805
-3.8734543	tâm	-0.15272805
-3.8734543	đẹp	-0.15272805
-3.7631705	36	-0.15272805
-3.8734543	que	-0.15272805
-3.8734543	kem	-0.15272805
-3.8734543	đũa	-0.15272805
-3.8734543	cáo	-0.15272805
-3.7631705	khói	-0.15272805
-3.8734543	nồng	-0.15272805
-3.8734543	nặc	-0.15272805
-3.8734543	khắp	-0.15272805
-3.8734543	nghơi	-0.15272805
-3.8734543	áp	-0.15272805
-3.8734543	lức	-0.15272805
-3.8734543	thi	-0.15272805
-3.3016987	đừng	-0.23720284
-3.8734543	tráng	-0.15272805
-3.8734543	dõi	-0.15272805
-3.8734543	sổ	-0.15272805
-3.8734543	hom	-0.15272805
-3.8734543	11%	-0.15272805
-3.8734543	trưng	-0.15272805
-3.8734543	tĩnh	-0.15272805
-3.8734543	chẳng	-0.15272805
-3.8734543	khoàng	-0.15272805
-3.8734543	54	-0.15272805
-3.8734543	tin	-0.15272805
-3.8734543	nơi	-0.15272805
-3.7631705	ờm	-0.2611644
-3.8734543	ối	-0.15272805
-3.8734543	dồi	-0.15272805
-3.8734543	thui	-0.15272805
-3.8734543	su	-0.15272805
-3.2206275	cô	-0.18595342
-3.8734543	trực	-0.15272805
-3.8734543	thăng	-0.15272805
-3.8734543	dở	-0.15272805
-3.8734543	chứng	-0.15272805
-2.5937304	tiệc	-1.0775003
-3.8734543	tùng	-0.15272805
-3.8734543	huỷ	-0.15272805
-3.4014595	cảnh	-0.15272805
-3.8734543	giãn	-0.15272805
-2.995023	hủy	-0.19944121
-2.914908	lãng	-0.91140443
-3.8734543	mạn	-0.15272805
-3.1523356	sự	-0.56561697
-3.8734543	khí	-0.15272805
-3.8734543	32	-0.15272805
-3.8734543	37	-0.15272805
-3.7631705	tỉnh	-0.2611644
-3.8734543	thúc	-0.15272805
-3.3016987	buổi	-0.36149698
-3.8734543	49	-0.15272805
-3.4014595	định	-0.264587
-3.7631705	cuộc	-0.2611644
-3.8734543	chúng	-0.15272805
-3.8734543	ta	-0.15272805
-3.8734543	nữ	-0.15272805
-3.8734543	vô	-0.15272805
-3.531191	tổ	-0.30934444
-3.8734543	chức	-0.15272805
-3.8734543	trung	-0.15272805
-3.8734543	set	-0.15272805
-3.8734543	up	-0.15272805
-3.531191	vì	-0.22193284
-3.7631705	bữa	-0.2611644
-3.8734543	cơ	-0.15272805
-3.8734543	tên	-0.15272805
-3.8734543	đứa	-0.15272805
-3.4014595	rời	-0.28942657
-3.2206275	a	-0.61037445
-3.8734543	lô	-0.15272805
-3.7631705	mời	-0.2611644
-3.8734543	bè	-0.15272805
-3.8734543	sớm	-0.15272805
-3.8734543	hoà	-0.15272805
-3.8734543	bởi	-0.15272805
-3.8734543	quyết	-0.15272805
-3.8734543	báo	-0.15272805
-3.8734543	cẩn	-0.15272805
-3.8734543	phiền	-0.15272805
-3.8734543	oke	-0.15272805
-3.8734543	zai	-0.15272805
-3.8734543	tốc	-0.15272805
-3.8734543	kĩ	-0.15272805
-3.7631705	18%	-0.15272805
-3.8734543	giá	-0.15272805
-3.8734543	trị	-0.15272805
-3.8734543	24%	-0.15272805
-3.8734543	53%	-0.15272805
-3.7631705	nấc	-0.15272805
-3.8734543	thấp	-0.15272805
-3.8734543	hẵng	-0.15272805
-3.8734543	66%	-0.15272805
-3.8734543	10%	-0.15272805
-3.8734543	gúp	-0.15272805
-3.8734543	nửa	-0.15272805
-3.8734543	trogn	-0.15272805
-3.8734543	nổ	-0.15272805

\2-grams:
-0.5120439	<s> cái	-0.101960324
-2.2622178	cái cái	-0.19308788
-2.0479958	trong cái	-0.32676664
-1.6505506	đồ cái	-0.101960324
-0.8398893	có cái	-0.34220418
-1.8195716	còn cái	-0.101960324
-2.129856	không cái	-0.101960324
-2.0273445	ấy cái	-0.101960324
-2.0016477	đi cái	-0.14513831
-1.6713144	tra cái	-0.101960324
-0.7599274	ngay cái	-0.2084979
-1.6502856	nhé cái	-0.371552
-1.0595909	bật cái	-0.5869223
-1.7249295	nướng cái	-0.101960324
-1.8857358	phút cái	-0.14513831
-2.5429184	bạn cái	-0.10196036
-1.7036791	ơi cái	-0.22883666
-2.3145068	quá cái	-0.101960324
-1.1364552	mở cái	-0.5141826
-1.9894197	giúp cái	-0.1845461
-1.5620388	mình cái	-0.3769519
-1.6016507	với cái	-0.5081173
-1.6751765	tưới cái	-0.10196036
-1.0493498	đóng cái	-0.7394992
-1.523744	tôi cái	-0.3608088
-2.080337	em cái	-0.24401897
-0.96702427	giảm cái	-0.8481911
-1.8517131	độ cái	-0.101960324
-1.7896712	sáng cái	-0.25876126
-2.170026	cho cái	-0.19308788
-1.3645905	anh cái	-0.4232011
-1.6840415	nhá cái	-0.33648854
-1.9966848	lên cái	-0.14513831
-2.1117814	phòng cái	-0.101960324
-2.110009	này cái	-0.101960324
-1.8689022	mùi cái	-0.101960324
-0.9413218	tăng cái	-0.7211593
-1.1365801	xem cái	-0.1845461
-1.8259256	lạnh cái	-0.10196036
-1.6493678	cuốn cái	-0.101960324
-1.2142199	của cái	-0.17883943
-1.528389	long cái	-0.101960324
-1.286362	lại cái	-0.10196036
-1.4955325	nhớ cái	-0.21126325
-1.5829716	tắm cái	-0.15431406
-1.2993177	hộ cái	-0.28964373
-1.935769	được cái	-0.24699612
-0.9797333	tắt cái	-0.78917706
-1.4699067	chị cái	-0.31990024
-1.9942888	ở cái	-0.15431406
-1.60963	công cái	-0.101960324
-1.1066306	sao cái	-0.18709101
-2.228229	tối cái	-0.101960324
-2.1794326	hình cái	-0.101960324
-1.7351825	như cái	-0.101960324
-1.6837542	ngủ cái	-0.19308788
-1.8483034	tròn cái	-0.101960324
-1.8181498	việc cái	-0.101960324
-1.1524966	minh cái	-0.101960324
-1.0662632	bình cái	-0.24699612
-1.7478174	game cái	-0.101960324
-1.2182026	trạng cái	-0.101960324
-1.8027506	rèm cái	-0.101960324
-1.7371805	ê cái	-0.101960324
-1.8264964	sưởi cái	-0.101960324
-1.5226136	cổng cái	-0.10196036
-1.7448422	là cái	-0.101960324
-1.6747717	ẩm cái	-0.101960324
-1.691296	cafe cái	-0.101960324
-2.086839	hơi cái	-0.101960324
-1.910361	trần cái	-0.101960324
-1.6561519	led cái	-0.101960324
-1.2241058	mát cái	-0.101960324
-1.6884675	nhở cái	-0.101960324
-1.639202	xa cái	-0.101960324
-2.006556	cửa cái	-0.101960324
-2.0234127	ra cái	-0.101960324
-1.0451237	thấy cái	-0.16845168
-0.3647259	mấy cái	-0.26692387
-1.7575219	in cái	-0.101960324
-1.7412071	loa cái	-0.101960324
-1.7663119	thượng cái	-0.101960324
-1.8894172	vào cái	-0.10196036
-1.6108934	lý cái	-0.101960324
-1.7814752	khách cái	-0.101960324
-0.9921242	giùm cái	-0.1387009
-0.9589217	chú cái	-0.101960324
-1.7225362	hầm cái	-0.101960324
-1.5864373	rượu cái	-0.101960324
-1.8441386	thả cái	-0.101960324
-1.4800338	mạnh cái	-0.101960324
-0.1485406	tao cái	-0.22876225
-1.5661714	tuýp cái	-0.24699612
-1.8231778	sân cái	-0.101960324
-1.978416	nhỉ cái	-0.101960324
-1.4197057	động cái	-0.101960324
-2.0419292	ý cái	-0.101960324
-1.9532821	bếp cái	-0.101960324
-1.6849658	sen cái	-0.10196036
-1.5170081	compact cái	-0.101960324
-1.6639378	cuối cái	-0.101960324
-1.0744772	cháu cái	-0.16845168
-1.8318459	chính cái	-0.101960324
-0.5120439	suất cái	-0.101960324
-1.9119127	sảnh cái	-0.101960324
-1.7928041	hè cái	-0.101960324
-1.6639378	hồ cái	-0.101960324
-1.6466858	gió cái	-0.101960324
-1.4008524	26% cái	-0.101960324
-1.6479203	fax cái	-0.101960324
-1.8025866	mành cái	-0.101960324
-0.7497839	tớ cái	-0.21961977
-1.8534561	mức cái	-0.101960324
-1.5259491	ông cái	-0.101960324
-1.7298219	bụi cái	-0.101960324
-1.9101053	xong cái	-0.101960324
-1.4664209	84% cái	-0.101960324
-2.1020007	nha cái	-0.101960324
-1.2800665	6% cái	-0.24699612
-1.296121	dùm cái	-0.101960324
-1.8370787	trước cái	-0.101960324
-1.5596762	bà cái	-0.101960324
-1.4005642	để cái	-0.101960324
-1.4698255	quang cái	-0.101960324
-1.3440008	nhạc cái	-0.101960324
-1.826074	2 cái	-0.101960324
-1.6504767	bát cái	-0.101960324
-1.5774336	chạy cái	-0.101960324
-1.3288921	lượng cái	-0.101960324
-0.9290069	dùng cái	-0.19997706
-0.5120439	trặng cái	-0.101960324
-1.1585873	dọn cái	-0.101960324
-1.7101029	kìa cái	-0.101960324
-0.95690846	ơ cái	-0.101960324
-1.2182026	vy cái	-0.101960324
-1.3562084	20% cái	-0.101960324
-1.617827	8% cái	-0.101960324
-0.5120439	tau cái	-0.101960324
-1.6434536	35% cái	-0.101960324
-1.5818094	36% cái	-0.101960324
-1.1524966	gần cái	-0.101960324
-1.400556	19% cái	-0.101960324
-0.9589217	nhiên cái	-0.101960324
-1.4248222	50% cái	-0.101960324
-1.5075318	chế cái	-0.101960324
-0.99573326	bớt cái	-0.19308788
-0.7478514	bỏ cái	-0.10196036
-0.5120439	mính cái	-0.101960324
-0.5120439	xài cái	-0.101960324
-0.79768896	tìm cái	-0.101960324
-0.5120439	ảnh cái	-0.101960324
-1.2241058	cô cái	-0.101960324
-0.5120439	huỷ cái	-0.101960324
-1.4845638	hủy cái	-0.101960324
-0.9750004	cái đèn	-0.7827012
-2.0634162	còn đèn	-0.101960324
-2.6257124	đi đèn	-0.101960324
-1.8640915	tra đèn	-0.101960324
-2.087574	nhé đèn	-0.101960324
-1.3024988	bật đèn	-0.3263385
-2.3030748	quá đèn	-0.101960324
-2.7912493	mở đèn	-0.101960324
-2.1074245	mình đèn	-0.15085036
-2.2923396	với đèn	-0.20595068
-1.965839	cây đèn	-0.101960324
-2.2851825	tôi đèn	-0.15830664
-1.2263348	giảm đèn	-0.36399975
-2.0170777	độ đèn	-0.101960324
-2.421507	sáng đèn	-0.101960324
-2.8119047	cho đèn	-0.101960324
-2.3557858	anh đèn	-0.13393477
-2.8377097	nhá đèn	-0.101960324
-1.9899484	bóng đèn	-0.101960324
-1.1117164	tăng đèn	-0.3490425
-1.9615414	nào đèn	-0.101960324
-1.6687773	của đèn	-0.101960324
-2.5493526	nhớ đèn	-0.101960324
-2.683131	hộ đèn	-0.101960324
-1.1238227	tắt đèn	-0.36158478
-2.0416076	chị đèn	-0.101960324
-2.2451463	sao đèn	-0.101960324
-1.9490523	như đèn	-0.10196036
-1.2768297	trạng đèn	-0.101960324
-1.7867093	hòa đèn	-0.101960324
-2.3048933	cửa đèn	-0.101960324
-1.9125737	thấy đèn	-0.101960324
-1.702513	chờ đèn	-0.101960324
-1.8526472	cuối đèn	-0.101960324
-1.0572472	chiếc đèn	-0.101960324
-2.147527	mức đèn	-0.101960324
-1.9738309	phải đèn	-0.101960324
-1.768204	6% đèn	-0.101960324
-1.9710174	hết đèn	-0.101960324
-1.2116112	ánh đèn	-0.101960324
-1.5145988	dùng đèn	-0.101960324
-1.8466526	kìa đèn	-0.101960324
-1.3411477	các đèn	-0.101960324
-1.4430361	ơ đèn	-0.101960324
-1.202399	bố đèn	-0.101960324
-0.81903064	cài đèn	-0.101960324
-0.52296853	ơitắt đèn	-0.101960324
-1.4821849	bớt đèn	-0.101960324
-1.7497422	đèn tranh	-0.16063073
-2.5480793	cái trong	-0.101960324
-2.3355334	đèn trong	-0.101960324
-1.5878271	tranh trong	-0.101960324
-2.1896496	không trong	-0.101960324
-1.8316869	ấy trong	-0.101960324
-2.0253983	đi trong	-0.22939186
-1.8517661	nhé trong	-0.19997706
-2.5213826	bật trong	-0.101960324
-1.7657125	nướng trong	-0.101960324
-1.8215669	3 trong	-0.101960324
-1.8325043	phút trong	-0.17332232
-2.0520194	ơi trong	-0.16845168
-1.7387867	gì trong	-0.101960324
-1.9350594	mở trong	-0.15431406
-1.5771763	radio trong	-0.24699612
-2.0460668	mình trong	-0.10196036
-2.0856023	với trong	-0.27763182
-1.3736145	tính trong	-0.101960324
-1.941491	tưới trong	-0.101960324
-1.7870891	cây trong	-0.10196036
-2.075853	tôi trong	-0.24699612
-2.637893	em trong	-0.101960324
-2.2937648	giảm trong	-0.101960324
-1.6594001	tường trong	-0.1387009
-2.1119578	anh trong	-0.15431406
-2.2760916	nhá trong	-0.10196036
-2.0500467	bóng trong	-0.101960324
-2.33462	lên trong	-0.101960324
-2.3022778	phòng trong	-0.10196036
-2.1615195	này trong	-0.101960324
-1.9137034	mùi trong	-0.101960324
-1.7204465	lạnh trong	-0.16845168
-1.5178525	cuốn trong	-0.32676664
-1.7929623	van trong	-0.101960324
-1.6752712	nước trong	-0.22254519
-1.7542441	tắm trong	-0.10196036
-1.9671558	học trong	-0.101960324
-2.0489917	tắt trong	-0.101960324
-2.0735037	chị trong	-0.101960324
-0.75707245	ở trong	-0.8915171
-2.001462	sao trong	-0.101960324
-1.3260388	điện trong	-0.22254519
-1.5611491	ngủ trong	-0.101960324
-1.8982852	tròn trong	-0.101960324
-1.8683542	việc trong	-0.10196036
-1.7915528	game trong	-0.101960324
-1.62711	18 trong	-0.101960324
-1.6666765	đang trong	-0.25876126
-1.5282257	rèm trong	-0.24699612
-1.2421806	sưởi trong	-0.19997706
-2.0421805	cổng trong	-0.101960324
-1.4834142	là trong	-0.101960324
-1.7112497	ẩm trong	-0.101960324
-1.7298665	cafe trong	-0.101960324
-1.4065683	trần trong	-0.101960324
-1.6413407	đình trong	-0.101960324
-1.5229453	chùm trong	-0.101960324
-1.6526287	hòa trong	-0.101960324
-1.7298665	đón trong	-0.101960324
-1.6732371	xa trong	-0.101960324
-1.6957464	cửa trong	-0.19308788
-1.6403763	hắt trong	-0.101960324
-1.7983971	in trong	-0.101960324
-1.5151447	vi trong	-0.101960324
-1.6413407	sóng trong	-0.101960324
-1.2853673	loa trong	-0.25876126
-1.8073273	thượng trong	-0.101960324
-1.9070045	nó trong	-0.101960324
-1.9110211	vào trong	-0.10196036
-1.7941742	giặt trong	-0.101960324
-1.7498152	à trong	-0.101960324
-1.7534885	hầm trong	-0.101960324
-1.6413407	đốt trong	-0.101960324
-1.6386912	thả trong	-0.19308788
-1.9160326	4 trong	-0.101960324
-1.5912591	tuýp trong	-0.101960324
-1.5846783	sân trong	-0.19308788
-1.6373641	11 trong	-0.101960324
-1.4630125	bếp trong	-0.15431406
-1.7229532	sen trong	-0.101960324
-1.4142596	bàn trong	-0.101960324
-1.5395614	compact trong	-0.101960324
-1.8793985	tí trong	-0.101960324
-1.8044243	nữa trong	-0.19308788
-1.8809526	chính trong	-0.101960324
-1.5797855	sảnh trong	-0.101960324
-1.3736145	xuân trong	-0.10196036
-1.5398332	cả trong	-0.101960324
-1.7000527	hồ trong	-0.101960324
-1.7000527	tay trong	-0.101960324
-1.6800634	gió trong	-0.101960324
-0.79221624	26% trong	-0.25876126
-1.6826738	fax trong	-0.101960324
-1.8408724	mành trong	-0.101960324
-1.771089	bụi trong	-0.101960324
-1.5585678	13% trong	-0.101960324
-1.501059	bên trong	-0.101960324
-1.5012534	luôn trong	-0.101960324
-1.2924161	6% trong	-0.101960324
-1.8834072	trước trong	-0.101960324
-1.3783591	95% trong	-0.101960324
-1.3381383	61% trong	-0.101960324
-1.4925748	quang trong	-0.101960324
-1.6927737	nhạc trong	-0.101960324
-1.3783591	27% trong	-0.101960324
-0.86419517	laptop trong	-0.24699612
-1.3466004	bát trong	-0.19308788
-1.1900531	ai trong	-0.22254519
-1.6436884	chảy trong	-0.101960324
-1.5878271	ngơi trong	-0.101960324
-1.5951618	71% trong	-0.101960324
-0.83220506	12% trong	-0.10196036
-1.8071233	dùng trong	-0.101960324
-0.7996258	37% trong	-0.10196036
-0.965811	41% trong	-0.101960324
-1.7743635	chút trong	-0.101960324
-1.5545231	tư trong	-0.101960324
-1.3381383	47% trong	-0.101960324
-1.2308006	87% trong	-0.101960324
-1.2414	64% trong	-0.101960324
-1.6699011	35% trong	-0.101960324
-1.5881287	51% trong	-0.101960324
-0.51449347	trì trong	-0.101960324
-0.51449347	/47% trong	-0.101960324
-1.3736145	58% trong	-0.101960324
-0.80243	sổ trong	-0.101960324
-1.5545231	tùng trong	-0.101960324
-1.1633036	cảnh trong	-0.101960324
-1.408823	giãn trong	-0.101960324
-0.80243	53% trong	-0.101960324
-2.6231456	cái nhà	-0.101960324
-1.0949383	trong nhà	-0.50091416
-2.46595	có nhà	-0.101960324
-2.5000072	đi nhà	-0.10196036
-2.327559	nhé nhà	-0.1387009
-1.9574381	nướng nhà	-0.101960324
-2.5461607	phút nhà	-0.101960324
-2.870312	bạn nhà	-0.101960324
-2.2828846	ơi nhà	-0.15431406
-2.5266643	với nhà	-0.1387009
-2.7341206	rồi nhà	-0.101960324
-2.4423618	sáng nhà	-0.101960324
-2.5941756	anh nhà	-0.101960324
-2.436291	nhá nhà	-0.10196036
-2.1314163	xem nhà	-0.101960324
-2.0534298	nhớ nhà	-0.10196036
-1.9718446	nước nhà	-0.101960324
-1.1569681	ở nhà	-0.5235543
-2.1610494	điện nhà	-0.101960324
-1.9622875	như nhà	-0.101960324
-1.1985261	chỗ nhà	-0.16845168
-2.3256118	cửa nhà	-0.101960324
-2.0004945	thượng nhà	-0.101960324
-1.926213	về nhà	-0.101960324
-1.4780729	vào nhà	-0.1845461
-1.8165361	đến nhà	-0.101960324
-1.8638592	tại nhà	-0.101960324
-1.3444686	dưới nhà	-0.101960324
-0.5234907	okay nhà	-0.101960324
-1.666847	nghỉ nhà	-0.101960324
-0.34262094	ngôi nhà	-0.101960324
-1.9448712	dùng nhà	-0.101960324
-1.2068061	dọn nhà	-0.101960324
-1.2836874	từ nhà	-0.101960324
-0.8800084	khỏi nhà	-0.15431406
-1.7350076	88% nhà	-0.101960324
-1.2049006	gần nhà	-0.101960324
-0.5234907	lau nhà	-0.101960324
-1.4432956	58% nhà	-0.101960324
-0.51723766	cạnh nhà	-0.24699612
-0.5234907	khắp nhà	-0.101960324
-0.5234907	dõi nhà	-0.101960324
-0.5234907	vô nhà	-0.101960324
-1.7960794	nhà giữ	-0.32676664
-2.8154302	nhớ giữ	-0.101960324
-0.8271544	giữ đồ	-0.101960324
-2.8262732	ơi đồ	-0.101960324
-2.98173	cho đồ	-0.101960324
-1.041106	nhiều đồ	-0.101960324
-2.0774488	giặt đồ	-0.101960324
-0.8271544	thay đồ	-0.101960324
-0.7414699	lấy đồ	-0.101960324
-1.4755361	bỏ đồ	-0.101960324
-0.5270582	cất đồ	-0.101960324
-1.9016881	đồ trường	-0.101960324
-1.6380123	lang trường	-0.101960324
-0.52769077	thống trường	-0.101960324
-0.2928158	trường sa	-0.15966064
-2.2444088	đèn có	-0.101960324
-1.6516776	tranh có	-0.101960324
-1.8913343	nhà có	-0.101960324
-1.7541867	đồ có	-0.101960324
-1.7143059	sa có	-0.101960324
-1.496924	không có	-0.21054648
-2.397758	đi có	-0.10196036
-2.5106497	nhé có	-0.10196036
-1.9115316	3 có	-0.101960324
-1.2290096	bạn có	-1.0546412
-2.037729	ơi có	-0.24699612
-2.075024	quá có	-0.10196036
-1.817573	gì có	-0.101960324
-1.8863956	mình có	-0.16845168
-2.2578804	với có	-0.17332232
-2.062608	tưới có	-0.101960324
-2.5745873	rồi có	-0.101960324
-2.0425074	em có	-0.5017993
-1.8801831	tường có	-0.24699612
-1.8055694	anh có	-0.30172646
-2.4937656	nhá có	-0.101960324
-2.016793	này có	-0.101960324
-1.2916452	xem có	-0.101960324
-1.8958886	nước có	-0.101960324
-2.0959885	học có	-0.101960324
-2.2147713	chị có	-0.101960324
-1.7310328	điện có	-0.101960324
-1.8705587	như có	-0.10196036
-2.2409363	bị có	-0.10196036
-2.167551	ngủ có	-0.101960324
-1.18624	minh có	-0.101960324
-1.8974109	game có	-0.101960324
-1.3921338	đang có	-0.22254519
-2.0702748	muốn có	-0.101960324
-2.1777897	cổng có	-0.101960324
-1.4110135	trời có	-0.62779665
-1.8782961	nay có	-0.101960324
-1.821178	cafe có	-0.101960324
-1.797799	trần có	-0.24699612
-1.7143059	đình có	-0.101960324
-1.821178	đón có	-0.101960324
-1.7522997	xa có	-0.101960324
-1.8517777	thấy có	-0.101960324
-1.8961177	in có	-0.101960324
-1.9784286	nó có	-0.19308788
-1.8244891	hầm có	-0.101960324
-1.7143059	đốt có	-0.101960324
-1.699141	thả có	-0.101960324
-1.9678814	sân có	-0.101960324
-1.4500395	my có	-0.101960324
-1.7787051	ngoài có	-0.10196036
-1.8059555	5 có	-0.101960324
-1.8045928	ảo có	-0.101960324
-1.7846739	cuối có	-0.101960324
-1.2676363	sắp có	-0.32676664
-2.0255156	nữa có	-0.24699612
-2.086404	sảnh có	-0.101960324
-1.7846739	hồ có	-0.101960324
-1.277536	kia có	-0.32676664
-1.607622	tớ có	-0.101960324
-1.8699124	bụi có	-0.101960324
-1.8395251	vườn có	-0.101960324
-2.2675722	nha có	-0.101960324
-1.7909546	8 có	-0.101960324
-1.732919	sau có	-0.101960324
-0.5195379	nực có	-0.101960324
-1.8246795	camera có	-0.101960324
-1.543086	thang có	-0.101960324
-1.5918413	nhi có	-0.101960324
-2.0576358	thì có	-0.101960324
-1.6801832	wc có	-0.101960324
-1.6133255	xép có	-0.101960324
-1.8667109	đây có	-0.101960324
-1.097175	tức có	-0.101960324
-1.2577155	huy có	-0.101960324
-0.5195379	trông có	-0.101960324
-1.846677	sẽ có	-0.101960324
-1.3170907	vừa có	-0.101960324
-1.18624	linh có	-0.101960324
-0.9838035	phóng có	-0.101960324
-0.7314894	đừng có	-0.101960324
-1.8670754	đồ còn	-0.101960324
-1.564674	có còn	-0.35567126
-1.3285733	không còn	-0.7358825
-2.0296054	nướng còn	-0.101960324
-2.0610285	3 còn	-0.101960324
-3.3518245	với còn	-0.101960324
-2.7386909	tôi còn	-0.101960324
-2.4083018	tường còn	-0.101960324
-1.0310271	xuống còn	-0.15556604
-2.802956	anh còn	-0.101960324
-2.5407755	này còn	-0.101960324
-1.5282879	xem còn	-0.10196036
-2.3795478	sao còn	-0.101960324
-1.6686032	nó còn	-0.22254519
-1.9616001	sen còn	-0.101960324
-1.9226618	tay còn	-0.101960324
-1.02424	vẫn còn	-0.101960324
-1.7488033	bà còn	-0.101960324
-1.6479125	người còn	-0.101960324
-2.2188528	cái không	-0.16845168
-2.0834382	đèn không	-0.19308788
-1.9620377	còn không	-0.101960324
-1.7122658	ấy không	-0.10196036
-2.3882725	đi không	-0.10196036
-2.266778	nhé không	-0.14513831
-2.2271078	bật không	-0.14513831
-1.6446465	giờ không	-0.16845168
-2.458014	bạn không	-0.24699612
-2.4892156	quá không	-0.101960324
-1.4387614	gì không	-0.10196036
-1.5524325	nghe không	-0.101960324
-2.6460454	mở không	-0.101960324
-1.3279318	mình không	-0.3012528
-2.8903291	với không	-0.101960324
-1.5479908	rồi không	-0.2897277
-1.1257683	tôi không	-0.47565705
-2.560294	em không	-0.101960324
-2.0277731	sáng không	-0.101960324
-1.530618	anh không	-0.19859044
-2.444035	phòng không	-0.101960324
-2.0103097	này không	-0.24699612
-1.1879685	thôi không	-0.16845168
-1.6338003	lại không	-0.10196036
-2.0900888	tắm không	-0.101960324
-0.10927745	được không	-0.5727718
-2.0839145	học không	-0.101960324
-1.6369225	chị không	-0.16845168
-1.5000757	sao không	-0.101960324
-1.5206003	như không	-0.10196036
-1.0956116	đúng không	-0.101960324
-1.702333	lắm không	-0.101960324
-1.7707734	ngủ không	-0.10196036
-2.0110595	tròn không	-0.101960324
-1.7039117	việc không	-0.10196036
-1.8877337	game không	-0.101960324
-1.8834193	đang không	-0.101960324
-1.9653155	sưởi không	-0.101960324
-2.0593324	muốn không	-0.101960324
-1.8690538	là không	-0.101960324
-1.81964	nên không	-0.101960324
-1.5805664	chắc không	-0.101960324
-1.7078679	sóng không	-0.101960324
-1.8965476	thượng không	-0.101960324
-1.0479217	nó không	-0.36667797
-1.5734013	ăn không	-0.101960324
-1.7598622	chết không	-0.101960324
-1.9201444	quên không	-0.101960324
-1.8137796	mất không	-0.101960324
-1.8190557	à không	-0.101960324
-1.8182377	hầm không	-0.101960324
-1.6789802	rượu không	-0.101960324
-1.7526011	đó không	-0.101960324
-1.9550083	tuýp không	-0.101960324
-1.4805514	động không	-0.10196036
-1.3230046	hay không	-0.101960324
-1.6489958	chờ không	-0.101960324
-1.7771134	cuối không	-0.101960324
-1.9913492	chính không	-0.10196036
-1.7956053	sảnh không	-0.101960324
-1.7771134	tay không	-0.101960324
-1.5183948	và không	-0.101960324
-1.919976	chung không	-0.101960324
-2.2566662	nha không	-0.101960324
-1.819799	vẫn không	-0.101960324
-1.7264575	sau không	-0.101960324
-1.9863712	trước không	-0.101960324
-1.816988	camera không	-0.101960324
-1.4688503	hỏng không	-0.101960324
-1.2554547	gian không	-0.101960324
-1.791145	ai không	-0.101960324
-1.6460986	ngơi không	-0.101960324
-1.5954186	cần không	-0.19308788
-1.2989271	chút không	-0.19308788
-1.4989806	đây không	-0.101960324
-0.5191239	dược không	-0.101960324
-1.4677867	sẽ không	-0.16845168
-0.51356447	nếu không	-0.24699612
-0.51356447	mãi không	-0.19308788
-0.3403723	nghĩ không	-0.24699612
-1.0956116	tốt không	-0.101960324
-0.5191239	chứ không	-0.101960324
-0.5191239	thắng không	-0.101960324
-0.9790308	khí không	-0.101960324
-1.1031961	định không	-0.101960324
-1.7497661	sa ấy	-0.101960324
-2.0417638	không ấy	-0.10196036
-1.810535	phút ấy	-0.15808098
-1.856269	gì ấy	-0.101960324
-2.7386458	mở ấy	-0.101960324
-3.0140533	với ấy	-0.101960324
-1.9781443	vòi ấy	-0.101960324
-2.7751029	nhá ấy	-0.101960324
-2.3160193	phòng ấy	-0.101960324
-1.9849929	thôi ấy	-0.101960324
-1.9809017	lạnh ấy	-0.24699612
-1.8627093	tắm ấy	-0.10196036
-2.7755	tắt ấy	-0.101960324
-1.6763234	chưa ấy	-0.101960324
-1.7497661	công ấy	-0.101960324
-1.2855208	sao ấy	-0.2742528
-2.1005793	tối ấy	-0.10196036
-2.2476108	ngủ ấy	-0.101960324
-2.08923	tròn ấy	-0.101960324
-2.103232	nóng ấy	-0.101960324
-1.664664	họp ấy	-0.101960324
-1.7497661	đình ấy	-0.101960324
-1.5935732	vi ấy	-0.101960324
-1.5867686	thượng ấy	-0.101960324
-1.9766629	khách ấy	-0.101960324
-1.718057	rượu ấy	-0.101960324
-2.066025	thả ấy	-0.101960324
-2.022098	tuýp ấy	-0.101960324
-2.020325	sân ấy	-0.101960324
-2.1990552	bếp ấy	-0.101960324
-1.9756273	compact ấy	-0.101960324
-1.8340676	5 ấy	-0.101960324
-1.5072998	mắt ấy	-0.101960324
-1.8266822	cuối ấy	-0.101960324
-2.06748	chính ấy	-0.10196036
-2.1530428	sảnh ấy	-0.101960324
-1.9795525	hè ấy	-0.101960324
-1.3309529	thờ ấy	-0.101960324
-1.5690274	yêu ấy	-0.101960324
-1.6333394	chung ấy	-0.24699612
-1.4842724	vườn ấy	-0.101960324
-1.9458597	phải ấy	-0.101960324
-1.8288052	8 ấy	-0.101960324
-1.6411872	gym ấy	-0.101960324
-1.5713956	luôn ấy	-0.101960324
-2.0562563	trước ấy	-0.101960324
-1.6822041	bà ấy	-0.101960324
-1.643459	nghỉ ấy	-0.101960324
-1.8997774	hỏng ấy	-0.101960324
-1.9991454	2 ấy	-0.101960324
-1.8689811	đợi ấy	-0.101960324
-1.5372584	đạt ấy	-0.101960324
-1.1054763	hư ấy	-0.101960324
-1.5739092	9% ấy	-0.101960324
-1.7095475	88% ấy	-0.101960324
-1.2697814	huy ấy	-0.101960324
-1.1964532	hôn ấy	-0.101960324
-0.5217179	ngại ấy	-0.101960324
-0.9865528	thiệt ấy	-0.101960324
-1.2723582	cô ấy	-0.101960324
-2.360847	không nhờ	-0.101960324
-2.456838	ấy nhờ	-0.101960324
-2.8248522	quá nhờ	-0.101960324
-3.0187469	mở nhờ	-0.101960324
-2.6268604	tối nhờ	-0.101960324
-1.8714333	thế nhờ	-0.101960324
-2.4105303	ý nhờ	-0.101960324
-1.221783	bố nhờ	-0.101960324
-0.8269442	ngày nhờ	-0.101960324
-0.5269528	tĩnh nhờ	-0.101960324
-1.8358018	đèn đi	-0.15431406
-1.535382	tranh đi	-0.10196036
-1.6312373	nhà đi	-0.10196036
-1.6236175	đồ đi	-0.101960324
-2.1510465	có đi	-0.101960324
-1.7824764	còn đi	-0.101960324
-1.4482692	không đi	-0.5028579
-1.4630032	nhờ đi	-0.101960324
-2.3650331	đi đi	-0.101960324
-1.6401494	tra đi	-0.101960324
-1.8258727	ngay đi	-0.101960324
-1.6906369	nướng đi	-0.101960324
-2.2253666	lúc đi	-0.101960324
-1.933326	giờ đi	-0.101960324
-1.7512896	3 đi	-0.101960324
-1.7490236	phút đi	-0.1387009
-2.4995816	bạn đi	-0.101960324
-2.0699062	ơi đi	-0.101960324
-1.3733648	radio đi	-0.101960324
-1.4451479	mình đi	-0.1353798
-1.6502063	tưới đi	-0.14513831
-1.4560416	cây đi	-0.101960324
-2.1933696	đóng đi	-0.16845168
-1.4626224	tôi đi	-0.16101885
-2.397913	em đi	-0.101960324
-1.8358748	giảm đi	-0.101960324
-1.8240689	độ đi	-0.101960324
-1.8991638	sáng đi	-0.10196036
-1.4669878	tường đi	-0.18614075
-1.0712459	xuống đi	-0.256454
-1.4132011	anh đi	-0.21596903
-1.9911157	bóng đi	-0.1387009
-1.5824652	đứng đi	-0.10196036
-1.22788	lên đi	-0.3178927
-2.1934836	phòng đi	-0.101960324
-1.752426	này đi	-0.10196036
-1.8315362	mùi đi	-0.101960324
-1.6730944	lạnh đi	-0.121356815
-1.4812409	cuốn đi	-0.16101885
-1.5057402	long đi	-0.101960324
-0.89050436	lại đi	-0.121356815
-1.7494079	nước đi	-0.14513831
-1.6953508	tắm đi	-0.1387009
-1.6893666	học đi	-0.101960324
-1.494123	tắt đi	-0.3556713
-1.3011874	chị đi	-0.16845168
-1.5824652	công đi	-0.101960324
-1.6331416	điện đi	-0.101960324
-2.0292153	bị đi	-0.101960324
-1.523215	ngủ đi	-0.18485042
-1.6126758	tròn đi	-0.121356815
-1.5839332	việc đi	-0.101960324
-1.7112619	game đi	-0.101960324
-1.9784796	đang đi	-0.101960324
-1.7710657	rèm đi	-0.101960324
-1.5509709	sưởi đi	-0.101960324
-1.2324809	muốn đi	-0.3937134
-1.3114898	cổng đi	-0.13198729
-1.6438283	ẩm đi	-0.101960324
-1.6587172	cafe đi	-0.101960324
-1.2642076	trần đi	-0.13855715
-1.5259588	họp đi	-0.101960324
-1.5824652	đình đi	-0.101960324
-1.6260198	led đi	-0.101960324
-1.4815235	chùm đi	-0.121356815
-1.6617695	nhở đi	-0.101960324
-1.5923057	hòa đi	-0.101960324
-1.6587172	đón đi	-0.101960324
-1.6101857	xa đi	-0.101960324
-1.38943	cửa đi	-0.17862433
-1.3233835	ra đi	-0.2930809
-1.585106	hắt đi	-0.10196036
-1.7231582	in đi	-0.101960324
-1.4703802	vi đi	-0.101960324
-1.5824652	sóng đi	-0.10196036
-1.4331692	loa đi	-0.101960324
-1.4768243	thượng đi	-0.101960324
-1.715097	nó đi	-0.10196036
-1.2219555	vào đi	-0.1708802
-1.4983263	khách đi	-0.101960324
-1.456275	giặt đi	-0.16845168
-1.5606441	rượu đi	-0.10196036
-1.5824652	đốt đi	-0.101960324
-1.48888	phim đi	-0.101960324
-1.4499696	hân đi	-0.101960324
-1.588705	thả đi	-0.10196036
-1.8390605	4 đi	-0.101960324
-1.5443819	tuýp đi	-0.10196036
-1.5420609	sân đi	-0.101960324
-1.5883803	bếp đi	-0.15431406
-1.6528416	sen đi	-0.101960324
-1.381966	bàn đi	-0.101960324
-1.4973152	compact đi	-0.101960324
-1.6975422	5 đi	-0.101960324
-1.5400441	chờ đi	-0.101960324
-1.6332794	cuối đi	-0.101960324
-1.7040613	sắp đi	-0.101960324
-2.0620692	nữa đi	-0.101960324
-1.5907093	chính đi	-0.15431406
-1.5395614	sảnh đi	-0.101960324
-1.5009079	hè đi	-0.101960324
-1.3408434	xuân đi	-0.101960324
-1.6332794	hồ đi	-0.101960324
-1.6332794	tay đi	-0.101960324
-1.6181916	gió đi	-0.101960324
-1.4552763	yêu đi	-0.101960324
-1.2737564	và đi	-0.32676664
-1.8818948	đấy đi	-0.101960324
-1.407238	kia đi	-0.101960324
-1.6183352	fax đi	-0.101960324
-1.6443456	9 đi	-0.101960324
-1.721478	39% đi	-0.101960324
-1.6951565	bụi đi	-0.101960324
-1.5106403	13% đi	-0.101960324
-1.5076051	chung đi	-0.13393477
-1.4495635	84% đi	-0.101960324
-1.3998326	vườn đi	-0.10196036
-1.4667186	phải đi	-0.10196036
-1.5484946	đọc đi	-0.10196036
-1.651839	8 đi	-0.101960324
-1.5057402	gym đi	-0.101960324
-1.6006601	sau đi	-0.101960324
-1.599539	hiên đi	-0.101960324
-1.4301313	trước đi	-0.13393477
-1.3468099	95% đi	-0.101960324
-1.6710571	camera đi	-0.101960324
-1.535382	bà đi	-0.101960324
-1.3892449	để đi	-0.25876126
-1.4499696	thang đi	-0.101960324
-1.4499696	quang đi	-0.10196036
-1.2069668	92% đi	-0.101960324
-1.142821	23% đi	-0.101960324
-1.48888	nhi đi	-0.101960324
-1.7938883	2 đi	-0.10196036
-1.6621962	đợi đi	-0.101960324
-1.6222506	bát đi	-0.101960324
-1.6626444	ai đi	-0.101960324
-1.5040879	nãy đi	-0.101960324
-1.535382	ngơi đi	-0.101960324
-1.5546063	chạy đi	-0.101960324
-1.4606484	97% đi	-0.101960324
-1.5554321	71% đi	-0.101960324
-1.2287579	wc đi	-0.16845168
-1.4442043	78% đi	-0.101960324
-1.475544	người đi	-0.101960324
-1.5057402	xép đi	-0.10196036
-1.6898575	thêm đi	-0.101960324
-1.1496347	15% đi	-0.101960324
-0.793388	22% đi	-0.101960324
-1.5980892	65% đi	-0.101960324
-1.3489846	cần đi	-0.25480404
-1.3850458	99% đi	-0.101960324
-1.7059978	chút đi	-0.10196036
-1.5057402	tư đi	-0.101960324
-1.4273099	ơn đi	-0.101960324
-1.2069668	hơn đi	-0.101960324
-1.5259637	38% đi	-0.101960324
-1.7141002	đây đi	-0.101960324
-1.5669937	88% đi	-0.101960324
-1.4719033	4% đi	-0.101960324
-1.2069668	vy đi	-0.101960324
-1.48888	viện đi	-0.101960324
-1.5057402	c đi	-0.101960324
-1.3408434	20% đi	-0.101960324
-1.5945498	8% đi	-0.101960324
-1.6205481	35% đi	-0.101960324
-1.1461805	31% đi	-0.101960324
-0.90666217	sẽ đi	-0.3446054
-1.0614856	14% đi	-0.101960324
-0.793388	vội đi	-0.101960324
-1.4498796	16% đi	-0.101960324
-1.3408434	58% đi	-0.101960324
-1.142821	cảnh đi	-0.101960324
-1.4660878	hủy đi	-0.101960324
-0.4068142	định đi	-0.19308788
-0.50981057	nửa đi	-0.101960324
-2.283835	cái kiểm	-0.32676664
-1.5770556	tranh kiểm	-0.101960324
-2.0469906	nhà kiểm	-0.101960324
-1.6699212	đồ kiểm	-0.101960324
-1.6291763	sa kiểm	-0.101960324
-2.0230381	không kiểm	-0.24699612
-1.2768861	ấy kiểm	-0.62779665
-1.0809075	nhờ kiểm	-0.24699612
-1.545592	đi kiểm	-1.128399
-1.4211146	nhé kiểm	-1.3681593
-1.7499666	nướng kiểm	-0.101960324
-1.8068928	3 kiểm	-0.101960324
-1.4900465	phút kiểm	-1.0257366
-1.138676	bạn kiểm	-1.3120434
-1.3788741	ơi kiểm	-0.89103806
-1.357031	quá kiểm	-0.89103806
-2.7884243	giúp kiểm	-0.101960324
-1.9307234	mình kiểm	-0.32676664
-1.3293798	với kiểm	-1.6757202
-1.9224992	tưới kiểm	-0.101960324
-1.4112266	rồi kiểm	-0.9635887
-1.9571182	tôi kiểm	-0.32676664
-1.0773957	em kiểm	-1.5308867
-2.1535563	sáng kiểm	-0.101960324
-1.9814261	tường kiểm	-0.101960324
-1.8163624	anh kiểm	-0.5486154
-1.2823837	nhá kiểm	-1.2968035
-2.249206	bóng kiểm	-0.101960324
-2.1041307	lên kiểm	-0.45170537
-1.2726023	này kiểm	-0.7527354
-1.8963568	mùi kiểm	-0.101960324
-1.8328074	thôi kiểm	-0.101960324
-1.9427894	xem kiểm	-0.101960324
-1.4826572	nào kiểm	-0.24699612
-1.5549033	lạnh kiểm	-0.45170537
-1.6665657	cuốn kiểm	-0.24699612
-1.2477223	nhớ kiểm	-0.92882663
-1.4322271	thể kiểm	-0.101960324
-1.9914992	nước kiểm	-0.101960324
-2.2963011	được kiểm	-0.101960324
-1.9471477	học kiểm	-0.101960324
-2.0519004	chị kiểm	-0.101960324
-1.9814608	sao kiểm	-0.101960324
-1.1518532	thế kiểm	-0.62779665
-1.1647989	ờ kiểm	-0.101960324
-1.8280226	ngủ kiểm	-0.24699612
-1.657189	tròn kiểm	-0.24699612
-1.9680098	nóng kiểm	-0.101960324
-1.7746319	game kiểm	-0.101960324
-1.4148706	ê kiểm	-0.24699612
-1.8531266	sưởi kiểm	-0.101960324
-1.6970458	muốn kiểm	-0.24699612
-1.7689854	là kiểm	-0.101960324
-1.7495921	nên kiểm	-0.101960324
-2.1175673	hơi kiểm	-0.101960324
-1.5359871	ồn kiểm	-0.101960324
-1.9408151	trần kiểm	-0.101960324
-1.5655857	họp kiểm	-0.101960324
-1.6779646	led kiểm	-0.101960324
-0.8456092	hãy kiểm	-1.2475854
-0.8419096	nhở kiểm	-0.5486154
-1.6401484	hòa kiểm	-0.101960324
-1.7149982	đón kiểm	-0.101960324
-1.6601593	xa kiểm	-0.101960324
-1.8302846	cửa kiểm	-0.24699612
-1.7995592	ra kiểm	-0.24699612
-1.6292104	lý kiểm	-0.101960324
-1.8073173	khách kiểm	-0.101960324
-1.7414527	mất kiểm	-0.101960324
-1.7789662	giặt kiểm	-0.101960324
-1.7371998	à kiểm	-0.101960324
-1.3337575	đó kiểm	-0.24699612
-1.6284479	thả kiểm	-0.24699612
-1.8998606	4 kiểm	-0.101960324
-1.8380085	tuýp kiểm	-0.101960324
-1.9270195	đến kiểm	-0.101960324
-0.7967427	nhỉ kiểm	-0.8496454
-1.4322271	động kiểm	-0.101960324
-1.2297441	ý kiểm	-0.62779665
-1.9843146	bếp kiểm	-0.101960324
-1.9626287	ngoài kiểm	-0.101960324
-1.7083158	sen kiểm	-0.101960324
-1.0750391	liệu kiểm	-0.101960324
-1.3670052	lí kiểm	-0.101960324
-1.3869303	ảo kiểm	-0.24699612
-1.473776	đê kiểm	-0.101960324
-1.4846971	cháu kiểm	-0.101960324
-1.8668184	tí kiểm	-0.101960324
-1.6360785	nữa kiểm	-0.45170537
-1.7210627	sảnh kiểm	-0.24699612
-1.5304575	cả kiểm	-0.101960324
-1.6861553	tay kiểm	-0.101960324
-1.1109066	đấy kiểm	-0.62779665
-1.747689	kia kiểm	-0.101960324
-1.6693132	fax kiểm	-0.101960324
-1.7752876	39% kiểm	-0.101960324
-1.8261169	mành kiểm	-0.101960324
-1.4892721	cậu kiểm	-0.24699612
-1.5496347	tớ kiểm	-0.101960324
-1.4322271	đề kiểm	-0.101960324
-1.8052217	chung kiểm	-0.101960324
-1.7449985	vườn kiểm	-0.101960324
-1.7964429	phải kiểm	-0.101960324
-1.8939193	nha kiểm	-0.24699612
-1.3323784	mày kiểm	-0.101960324
-1.5445377	gym kiểm	-0.101960324
-1.617917	trước kiểm	-0.24699612
-1.5770556	bà kiểm	-0.101960324
-1.2260334	92% kiểm	-0.101960324
-1.6797904	nhạc kiểm	-0.101960324
-1.7911512	hỏng kiểm	-0.101960324
-1.6480964	thì kiểm	-0.24699612
-1.8494714	2 kiểm	-0.101960324
-1.7181242	đợi kiểm	-0.101960324
-1.4164412	vậy kiểm	-0.101960324
-1.297271	sai kiểm	-0.101960324
-1.6078213	wc kiểm	-0.101960324
-0.9632147	duy kiểm	-0.101960324
-1.2263982	lát kiểm	-0.32676664
-1.6375068	65% kiểm	-0.101960324
-1.7270079	kìa kiểm	-0.101960324
-1.4839036	lang kiểm	-0.101960324
-1.1924537	á kiểm	-0.24699612
-1.7673533	đây kiểm	-0.101960324
-1.3323784	47% kiểm	-0.101960324
-1.5261348	viện kiểm	-0.101960324
-1.1592195	bố kiểm	-0.101960324
-1.5784736	51% kiểm	-0.101960324
-1.5439379	31% kiểm	-0.101960324
-1.3431203	bài kiểm	-0.101960324
-0.5135733	ế kiểm	-0.101960324
-0.5135733	giai kiểm	-0.101960324
-1.7698087	đâu kiểm	-0.101960324
-1.4369779	50% kiểm	-0.101960324
-1.1592195	hôn kiểm	-0.101960324
-1.1592195	í kiểm	-0.101960324
-0.5135733	44% kiểm	-0.101960324
-1.0750391	siri kiểm	-0.101960324
-0.80064607	lịch kiểm	-0.101960324
-0.0046216454	kiểm tra	-0.96867967
-3.029205	đi ngay	-0.101960324
-1.9254624	tra ngay	-0.10196036
-2.3088596	bật ngay	-0.2930809
-2.0107207	mở ngay	-0.21126325
-2.6777627	mình ngay	-0.101960324
-1.8638659	tưới ngay	-0.10196036
-2.110914	đóng ngay	-0.35567126
-2.4703143	giảm ngay	-0.101960324
-2.760429	anh ngay	-0.101960324
-2.969936	lên ngay	-0.101960324
-2.7735999	phòng ngay	-0.101960324
-2.8563972	tăng ngay	-0.101960324
-1.9332689	tắm ngay	-0.101960324
-1.8846295	tắt ngay	-0.3937134
-2.4227924	ở ngay	-0.10196036
-1.9620198	cafe ngay	-0.101960324
-1.9620198	đón ngay	-0.101960324
-2.0257094	cửa ngay	-0.101960324
-2.050203	in ngay	-0.101960324
-2.2123055	chính ngay	-0.101960324
-2.0160031	và ngay	-0.101960324
-2.1052184	chung ngay	-0.101960324
-1.9549129	camera ngay	-0.101960324
-2.3999758	cái nhé	-0.101960324
-2.197394	đèn nhé	-0.101960324
-1.5154417	tranh nhé	-0.10196036
-1.6016297	đồ nhé	-0.101960324
-1.5602988	sa nhé	-0.101960324
-2.0435927	không nhé	-0.10196036
-1.1905006	đi nhé	-0.35520688
-1.6149241	tra nhé	-0.101960324
-1.0061456	ngay nhé	-0.21385527
-2.389693	bật nhé	-0.101960324
-1.6630545	nướng nhé	-0.10196036
-1.7688229	giờ nhé	-0.101960324
-1.1188787	3 nhé	-0.1845461
-1.0660375	phút nhé	-0.4242234
-1.9305792	bạn nhé	-0.101960324
-1.7650642	radio nhé	-0.10196036
-1.8494828	mình nhé	-0.17500672
-1.5926615	với nhé	-0.35840547
-1.6297395	tưới nhé	-0.16845168
-1.6841573	cây nhé	-0.101960324
-2.2907717	rồi nhé	-0.101960324
-1.8784047	tôi nhé	-0.14447154
-0.96237767	em nhé	-0.37556866
-1.7523456	sáng nhé	-0.19308788
-1.5943869	tường nhé	-0.15808098
-1.3056339	xuống nhé	-0.14820936
-1.9184495	anh nhé	-0.20012966
-2.1420422	bóng nhé	-0.101960324
-1.5602988	đứng nhé	-0.101960324
-1.0481336	lên nhé	-0.41012186
-1.9563603	phòng nhé	-0.16845168
-1.8016659	mùi nhé	-0.101960324
-0.84665596	thôi nhé	-0.17332232
-1.654949	lạnh nhé	-0.14166018
-1.4669755	cuốn nhé	-0.15830664
-1.4870875	long nhé	-0.101960324
-1.3878647	lại nhé	-0.101960324
-1.7252266	nước nhé	-0.10196036
-1.5466383	tắm nhé	-0.13615246
-1.5408592	học nhé	-0.10196036
-2.4461153	tắt nhé	-0.101960324
-1.5337874	chưa nhé	-0.101960324
-1.6816078	chị nhé	-0.16478898
-1.5602988	công nhé	-0.101960324
-1.7013696	sao nhé	-0.101960324
-1.4080797	ngủ nhé	-0.19720912
-1.591476	tròn nhé	-0.101960324
-1.7438836	việc nhé	-0.101960324
-1.372116	chơi nhé	-0.101960324
-1.681992	game nhé	-0.101960324
-1.7454466	rèm nhé	-0.101960324
-1.5339599	sưởi nhé	-0.101960324
-1.3882309	cổng nhé	-0.15266867
-1.6187711	ẩm nhé	-0.10196036
-1.6324228	cafe nhé	-0.101960324
-2.0124931	hơi nhé	-0.101960324
-1.5205365	trần nhé	-0.101960324
-1.5069333	họp nhé	-0.101960324
-1.5602988	đình nhé	-0.10196036
-1.6015798	led nhé	-0.101960324
-1.4655042	chùm nhé	-0.101960324
-1.5696443	hòa nhé	-0.101960324
-1.6324228	đón nhé	-0.101960324
-1.635443	cửa nhé	-0.17332232
-1.5976999	ra nhé	-0.10196036
-1.6955227	in nhé	-0.101960324
-1.5602988	sóng nhé	-0.10196036
-1.4193248	loa nhé	-0.10196036
-1.4611993	thượng nhé	-0.101960324
-1.8274014	nó nhé	-0.101960324
-0.50789094	nhảy nhé	-0.101960324
-1.5029173	vào nhé	-0.13393477
-1.7178046	khách nhé	-0.10196036
-1.2788717	giặt nhé	-0.14513831
-1.6742826	hầm nhé	-0.10196036
-1.539538	rượu nhé	-0.101960324
-1.5602988	đốt nhé	-0.101960324
-1.4709232	phim nhé	-0.10196036
-1.4335229	hân nhé	-0.101960324
-1.5696275	thả nhé	-0.15431406
-1.4171246	4 nhé	-0.13026355
-1.7428705	tuýp nhé	-0.10196036
-1.5256096	sân nhé	-0.101960324
-1.3595645	my nhé	-0.10196036
-1.2237366	bếp nhé	-0.13615246
-1.6268902	sen nhé	-0.101960324
-1.6481807	bàn nhé	-0.101960324
-1.4809978	compact nhé	-0.101960324
-1.6787658	5 nhé	-0.101960324
-1.520377	chờ nhé	-0.101960324
-1.0546868	liệu nhé	-0.101960324
-1.9988129	chói nhé	-0.101960324
-1.608439	cuối nhé	-0.10196036
-1.2170403	nữa nhé	-0.20645483
-1.565511	bé nhé	-0.101960324
-1.5701085	chính nhé	-0.12734877
-1.2602357	sảnh nhé	-0.18306506
-1.3258718	hè nhé	-0.10196036
-0.7131453	89% nhé	-0.19308788
-1.3279976	xuân nhé	-0.101960324
-1.608439	hồ nhé	-0.101960324
-1.608439	tay nhé	-0.101960324
-1.2487057	thờ nhé	-0.101960324
-1.595003	gió nhé	-0.10196036
-1.4531575	sinh nhé	-0.101960324
-1.4391866	yêu nhé	-0.101960324
-1.3724339	26% nhé	-0.101960324
-1.4776604	đấy nhé	-0.19308788
-1.5943122	fax nhé	-0.101960324
-1.6269853	9 nhé	-0.10196036
-1.426203	39% nhé	-0.101960324
-1.5279572	thu nhé	-0.101960324
-1.7441025	mành nhé	-0.101960324
-1.5001528	tớ nhé	-0.101960324
-0.62258434	83% nhé	-0.16845168
-1.667295	bụi nhé	-0.101960324
-1.4580171	7 nhé	-0.101960324
-1.1539724	13% nhé	-0.10196036
-1.4900821	chung nhé	-0.13615246
-1.0589893	84% nhé	-0.101960324
-1.3874419	vườn nhé	-0.10196036
-1.7149689	phải nhé	-0.101960324
-1.5279572	đọc nhé	-0.101960324
-1.2487057	đông nhé	-0.101960324
-1.6286616	8 nhé	-0.101960324
-1.4870875	gym nhé	-0.101960324
-1.3279976	trái nhé	-0.10196036
-0.98055744	29% nhé	-0.14513831
-1.0829177	luôn nhé	-0.10196036
-1.0719737	6% nhé	-0.14513831
-1.0408818	hiên nhé	-0.101960324
-1.4167112	trước nhé	-0.15431406
-0.9439114	95% nhé	-0.101960324
-1.2981589	61% nhé	-0.101960324
-1.3747782	camera nhé	-0.10196036
-1.5154417	bà nhé	-0.101960324
-1.4335229	quang nhé	-0.101960324
-1.1974918	92% nhé	-0.101960324
-0.99175984	73% nhé	-0.15431406
-1.4709232	nhi nhé	-0.101960324
-1.161333	2 nhé	-0.21126325
-1.1974918	quân nhé	-0.10196036
-1.6360517	đợi nhé	-0.10196036
-1.3595645	khôi nhé	-0.10196036
-1.5154417	ngơi nhé	-0.101960324
-0.9465518	34% nhé	-0.101960324
-1.4116844	đạt nhé	-0.101960324
-1.0829177	97% nhé	-0.101960324
-0.6366968	71% nhé	-0.13393477
-1.0307417	wc nhé	-0.101960324
-1.056565	78% nhé	-0.16845168
-1.4870875	xép nhé	-0.10196036
-0.7131453	77% nhé	-0.101960324
-1.1420488	15% nhé	-0.101960324
-1.0855746	9% nhé	-0.101960324
-0.7888232	37% nhé	-0.101960324
-1.0557563	65% nhé	-0.22254519
-1.4335229	lang nhé	-0.101960324
-1.6339573	1 nhé	-0.101960324
-1.2981589	62% nhé	-0.101960324
-1.4119884	chút nhé	-0.101960324
-1.1613734	38% nhé	-0.101960324
-1.5475321	88% nhé	-0.10196036
-1.0881073	4% nhé	-0.1387009
-1.1346347	33% nhé	-0.101960324
-1.2981589	47% nhé	-0.101960324
-1.4709232	viện nhé	-0.101960324
-1.3993381	59% nhé	-0.101960324
-1.4870875	c nhé	-0.101960324
-1.3279976	20% nhé	-0.101960324
-0.8595538	8% nhé	-0.15431406
-0.7897075	kiệm nhé	-0.101960324
-0.57404065	64% nhé	-0.101960324
-0.747332	35% nhé	-0.101960324
-1.1822087	51% nhé	-0.101960324
-1.1921036	36% nhé	-0.101960324
-0.9420878	31% nhé	-0.101960324
-1.2981589	85% nhé	-0.101960324
-1.0546868	72% nhé	-0.101960324
-0.62258434	96% nhé	-0.101960324
-0.82839286	đâu nhé	-0.1249784
-1.3720822	19% nhé	-0.10196036
-1.3932347	50% nhé	-0.101960324
-0.986357	2% nhé	-0.101960324
-0.50789094	nhà nhé	-0.101960324
-1.0546868	14% nhé	-0.101960324
-0.6095909	28% nhé	-0.101960324
-1.1346347	linh nhé	-0.101960324
-1.0546868	74% nhé	-0.101960324
-0.85598886	16% nhé	-0.16845168
-1.3279976	58% nhé	-0.101960324
-1.4870875	tùng nhé	-0.101960324
-1.3279976	mạn nhé	-0.101960324
-1.0546868	24% nhé	-0.101960324
-0.7897075	nấc nhé	-0.101960324
-1.9766432	cái bật	-0.22306886
-1.5794263	tranh bật	-0.101960324
-1.8176847	nhà bật	-0.24699612
-1.6725703	đồ bật	-0.101960324
-1.2439052	còn bật	-0.45170537
-1.6795381	không bật	-0.24253802
-1.4956223	ấy bật	-0.16845168
-1.4910979	nhờ bật	-0.101960324
-1.5929726	đi bật	-0.28091928
-1.8759243	ngay bật	-0.101960324
-1.3963666	nhé bật	-0.52574193
-1.7534168	nướng bật	-0.101960324
-2.0202932	giờ bật	-0.101960324
-1.588968	phút bật	-0.46050256
-1.3053842	bạn bật	-0.5294896
-1.4209315	ơi bật	-0.36806566
-1.185273	quá bật	-0.41843584
-1.9339257	mình bật	-0.101960324
-1.4807014	với bật	-0.6941299
-1.3684653	tính bật	-0.101960324
-1.7747571	cây bật	-0.101960324
-1.2653631	rồi bật	-0.46937752
-1.7378942	tôi bật	-0.13026355
-1.2988006	em bật	-0.63607204
-2.2264082	xuống bật	-0.101960324
-1.7468029	anh bật	-0.16845168
-1.2985463	nhá bật	-0.45787585
-2.253569	bóng bật	-0.101960324
-1.6318502	đứng bật	-0.101960324
-1.7652643	lên bật	-0.22447486
-1.6256114	này bật	-0.30172646
-1.8360697	thôi bật	-0.101960324
-1.4841428	nào bật	-0.101960324
-1.8501616	lạnh bật	-0.19308788
-1.9077	cuốn bật	-0.101960324
-1.9988112	lại bật	-0.101960324
-1.2113096	nhớ bật	-0.2787811
-1.4339242	thể bật	-0.10196036
-1.8037086	nước bật	-0.101960324
-1.951515	học bật	-0.101960324
-2.0566092	chị bật	-0.101960324
-2.5879128	ở bật	-0.101960324
-1.6318502	công bật	-0.101960324
-2.2601707	tối bật	-0.101960324
-1.5695248	thế bật	-0.14513831
-1.639743	lắm bật	-0.101960324
-2.0065022	ngủ bật	-0.101960324
-1.631359	việc bật	-0.101960324
-1.7783355	game bật	-0.101960324
-1.0706028	đang bật	-0.24342598
-1.4160596	ê bật	-0.101960324
-1.5427989	muốn bật	-0.101960324
-2.0258515	cổng bật	-0.101960324
-1.7203948	trần bật	-0.24699612
-1.6318502	đình bật	-0.101960324
-1.7961268	chùm bật	-0.101960324
-0.8456881	hãy bật	-0.46162522
-1.710284	nhở bật	-0.101960324
-2.0426219	cửa bật	-0.101960324
-1.2324445	nhanh bật	-0.101960324
-1.6318502	sóng bật	-0.101960324
-1.7675745	loa bật	-0.101960324
-1.8976964	nó bật	-0.101960324
-1.438176	về bật	-0.101960324
-1.0861086	lý bật	-0.15431406
-1.8108821	khách bật	-0.101960324
-1.8576844	quên bật	-0.101960324
-1.7439272	mất bật	-0.101960324
-1.4073557	à bật	-0.101960324
-1.7442306	hầm bật	-0.101960324
-1.6790668	đó bật	-0.101960324
-1.6318502	đốt bật	-0.101960324
-1.8767543	thả bật	-0.101960324
-1.9310534	đến bật	-0.101960324
-1.8528261	sân bật	-0.101960324
-1.163	nhỉ bật	-0.32175082
-1.0242869	ý bật	-0.30399135
-1.6233616	bếp bật	-0.19308788
-1.7115263	sen bật	-0.101960324
-1.7274262	bàn bật	-0.101960324
-1.7388302	5 bật	-0.101960324
-1.075784	liệu bật	-0.101960324
-1.7164929	ảo bật	-0.10196036
-1.8695827	tí bật	-0.101960324
-1.7972499	nữa bật	-0.25876126
-1.8660474	chính bật	-0.101960324
-1.9467357	sảnh bật	-0.101960324
-1.5325236	cả bật	-0.101960324
-1.6892054	hồ bật	-0.101960324
-1.6892054	tay bật	-0.101960324
-1.4749577	và bật	-0.24699612
-1.6833556	đấy bật	-0.15431406
-1.6722469	fax bật	-0.101960324
-1.5939621	thu bật	-0.101960324
-1.8293529	mành bật	-0.101960324
-1.4900771	cậu bật	-0.101960324
-1.7586424	bụi bật	-0.101960324
-1.4339242	đề bật	-0.101960324
-1.3162198	phải bật	-0.10196036
-1.8962616	nha bật	-0.101960324
-1.7036804	8 bật	-0.101960324
-1.752214	vẫn bật	-0.101960324
-1.6377094	hiên bật	-0.101960324
-1.8693768	trước bật	-0.101960324
-1.9857763	để bật	-0.101960324
-1.4858156	quang bật	-0.101960324
-1.1601237	23% bật	-0.101960324
-1.5282426	nhi bật	-0.101960324
-1.5509244	nghỉ bật	-0.101960324
-1.1431035	thì bật	-0.1605407
-1.4032416	khôi bật	-0.101960324
-1.2270883	garage bật	-0.101960324
-1.4484482	12% bật	-0.101960324
-1.4318069	lát bật	-0.101960324
-1.7293123	kìa bật	-0.101960324
-1.8371817	cần bật	-0.101960324
-1.4129325	99% bật	-0.101960324
-0.95935607	phát bật	-0.101960324
-1.5467368	tư bật	-0.101960324
-1.4612603	ơn bật	-0.101960324
-1.5828646	á bật	-0.101960324
-1.563975	38% bật	-0.101960324
-0.80104184	sợ bật	-0.101960324
-1.7704265	đây bật	-0.101960324
-0.51377755	hẳn bật	-0.101960324
-1.075784	sang bật	-0.101960324
-1.3442687	bài bật	-0.101960324
-0.9637903	21% bật	-0.101960324
-0.80104184	hãng bật	-0.101960324
-1.3387848	45% bật	-0.101960324
-0.51377755	quả bật	-0.101960324
-1.1601237	linh bật	-0.101960324
-1.2821527	tới bật	-0.101960324
-1.075784	bánh bật	-0.101960324
-0.51377755	hanh bật	-0.101960324
-1.5467368	tùng bật	-0.101960324
-1.075784	24% bật	-0.101960324
-1.3906845	cái lò	-0.985308
-1.9526643	tra lò	-0.10196036
-3.2586925	nhé lò	-0.101960324
-1.8649089	bật lò	-0.4348525
-2.7774835	mình lò	-0.10196036
-1.4281358	đóng lò	-0.6947434
-2.2144666	tôi lò	-0.16845168
-2.5242245	anh lò	-0.101960324
-2.0368001	tăng lò	-0.45170537
-2.1625078	của lò	-0.101960324
-2.9938347	tắt lò	-0.101960324
-1.0672756	chiếc lò	-0.19308788
-1.3642689	các lò	-0.101960324
-0.60001713	lò nướng	-0.19477361
-2.9968233	anh nướng	-0.101960324
-2.54423	bị nướng	-0.101960324
-2.358302	muốn nướng	-0.101960324
-1.4274508	đã nướng	-0.101960324
-1.6474867	tranh lúc	-0.101960324
-1.7094685	sa lúc	-0.101960324
-2.3340786	không lúc	-0.101960324
-2.1855428	ấy lúc	-0.101960324
-2.6415882	đi lúc	-0.101960324
-1.7886304	tra lúc	-0.101960324
-2.004007	nhé lúc	-0.12734877
-2.646715	bật lúc	-0.101960324
-1.8565358	nướng lúc	-0.101960324
-1.5527517	3 lúc	-0.24699612
-2.6290832	phút lúc	-0.101960324
-1.8838029	ơi lúc	-0.14718325
-2.649394	mở lúc	-0.101960324
-1.6214428	radio lúc	-0.24699612
-2.028737	mình lúc	-0.101960324
-2.5513625	với lúc	-0.15431406
-2.0541387	tưới lúc	-0.101960324
-1.8782152	cây lúc	-0.101960324
-2.5641727	rồi lúc	-0.101960324
-2.3594205	tôi lúc	-0.101960324
-2.7769687	em lúc	-0.101960324
-2.295188	sáng lúc	-0.101960324
-1.8748347	tường lúc	-0.10196036
-2.1208055	anh lúc	-0.1387009
-2.4862056	nhá lúc	-0.101960324
-1.7094685	đứng lúc	-0.101960324
-2.6105118	lên lúc	-0.101960324
-2.0151312	mùi lúc	-0.101960324
-2.1877785	lạnh lúc	-0.101960324
-2.0004275	nhớ lúc	-0.10196036
-2.1398919	nước lúc	-0.101960324
-1.816759	học lúc	-0.101960324
-2.2046683	chị lúc	-0.101960324
-2.734613	ở lúc	-0.101960324
-2.0492165	điện lúc	-0.101960324
-1.6027167	ngủ lúc	-0.16845168
-1.7331371	tròn lúc	-0.101960324
-1.984625	việc lúc	-0.101960324
-1.8901329	game lúc	-0.101960324
-1.9676925	sưởi lúc	-0.101960324
-1.4511067	cổng lúc	-0.30172646
-1.3132757	nay lúc	-0.101960324
-1.7910964	ẩm lúc	-0.101960324
-1.7932833	trần lúc	-0.10196036
-1.7688711	led lúc	-0.101960324
-1.722703	hòa lúc	-0.101960324
-1.7094685	sóng lúc	-0.101960324
-1.5616252	thượng lúc	-0.101960324
-0.44380468	vào lúc	-0.57315886
-1.7038753	lý lúc	-0.101960324
-1.5357995	giặt lúc	-0.101960324
-1.7094685	đốt lúc	-0.101960324
-1.5398189	hân lúc	-0.101960324
-1.5780418	đến lúc	-0.10196036
-2.0872009	nhỉ lúc	-0.101960324
-2.1834383	ý lúc	-0.101960324
-1.8469036	bếp lúc	-0.101960324
-1.815162	bàn lúc	-0.101960324
-1.9500903	tí lúc	-0.101960324
-2.0203876	nữa lúc	-0.15431406
-1.675988	bé lúc	-0.101960324
-1.5186245	đầu lúc	-0.101960324
-1.9237256	hè lúc	-0.101960324
-2.0211558	khoảng lúc	-0.101960324
-1.0996354	83% lúc	-0.101960324
-1.612448	13% lúc	-0.101960324
-2.259367	nha lúc	-0.101960324
-1.6094873	gym lúc	-0.101960324
-1.5467602	29% lúc	-0.101960324
-1.6474867	bà lúc	-0.101960324
-0.80619013	một lúc	-0.3686732
-1.8173751	đợi lúc	-0.101960324
-1.7548692	bát lúc	-0.101960324
-1.000155	71% lúc	-0.32676664
-1.5398189	lang lúc	-0.101960324
-1.7526569	1 lúc	-0.101960324
-1.2085915	38% lúc	-0.24699612
-1.6094873	c lúc	-0.101960324
-1.6005138	31% lúc	-0.101960324
-0.97932917	54% lúc	-0.101960324
-0.51365155	40% lúc	-0.24699612
-1.6148726	28% lúc	-0.101960324
-0.5192274	nhávào lúc	-0.101960324
-0.81166434	18% lúc	-0.101960324
-2.4447894	trong 16	-0.24699612
-3.159916	đi 16	-0.101960324
-1.4789922	lúc 16	-0.6947434
-1.9369831	giờ 16	-0.32676664
-1.807437	tiếng 16	-0.24699612
-1.6481231	đến 16	-0.32676664
-2.5941486	nữa 16	-0.101960324
-2.2931838	khoảng 16	-0.101960324
-1.7612692	vòng 16	-0.101960324
-2.1839561	tầm 16	-0.101960324
-1.3644046	tới 16	-0.101960324
-0.5267422	dến 16	-0.101960324
-2.434626	nhé giờ	-0.101960324
-0.26315284	16 giờ	-0.41391683
-1.3766963	3 giờ	-0.19308788
-2.4984453	ơi giờ	-0.101960324
-2.904665	với giờ	-0.19308788
-2.5228534	tôi giờ	-0.101960324
-2.583836	nhá giờ	-0.24699612
-2.2411783	sao giờ	-0.101960324
-2.29629	ngủ giờ	-0.101960324
-0.82088083	18 giờ	-0.45170537
-0.6350791	22 giờ	-0.21817847
-2.4228072	trời giờ	-0.101960324
-1.7695643	đình giờ	-0.101960324
-0.45950842	23 giờ	-0.28481868
-1.6041551	mấy giờ	-0.101960324
-1.1685065	4 giờ	-0.25283882
-1.0880417	đến giờ	-0.21817847
-0.82147706	11 giờ	-0.25166398
-0.29593515	15 giờ	-0.27199292
-2.184305	ngoài giờ	-0.101960324
-0.5793542	5 giờ	-0.35171402
-2.4059167	nữa giờ	-0.101960324
-0.38369602	6 giờ	-0.3646422
-0.25611222	21 giờ	-0.6947434
-0.59402156	17 giờ	-0.16591266
-0.575709	9 giờ	-0.383681
-0.1476572	13 giờ	-0.41713142
-0.028566575	bây giờ	-0.31821924
-1.9020855	vườn giờ	-0.101960324
-2.366355	nha giờ	-0.101960324
-1.7183444	đọc giờ	-0.101960324
-0.22922955	19 giờ	-0.37252414
-1.5514481	hết giờ	-0.24699612
-0.29078302	0 giờ	-0.24699612
-1.2121742	2 giờ	-0.35567126
-0.49709684	12 giờ	-0.2930809
-0.54792887	14 giờ	-0.25480404
-0.7136827	10 giờ	-0.1845461
-1.1714579	nãy giờ	-0.101960324
-0.19794284	bao giờ	-0.35567126
-0.879537	sai giờ	-0.101960324
-0.93042356	1 giờ	-0.2930809
-1.112071	20 giờ	-0.101960324
-1.9331369	đây giờ	-0.101960324
-1.9280528	đâu giờ	-0.101960324
-1.2063471	hiện giờ	-0.101960324
-0.29078302	hẹn giờ	-0.24699612
-1.3383944	tới giờ	-0.101960324
-0.52286416	nữ giờ	-0.101960324
-2.224732	trong 3	-0.32676664
-3.1201947	đi 3	-0.101960324
-1.8123577	lúc 3	-0.45170537
-1.9309119	giờ 3	-0.32676664
-2.910922	giảm 3	-0.101960324
-2.0847397	độ 3	-0.101960324
-2.1316545	xuống 3	-0.15431406
-3.0502803	lên 3	-0.10196036
-0.9559688	số 3	-0.12734877
-1.4190891	khoảng 3	-0.45170537
-2.3033125	mức 3	-0.10196036
-1.7558827	vòng 3	-0.101960324
-2.1718314	tầm 3	-0.101960324
-1.9314333	vẫn 3	-0.101960324
-1.8563113	sau 3	-0.101960324
-1.1129407	16 phút	-0.123951845
-1.9634786	3 phút	-0.101960324
-1.696	18 phút	-0.101960324
-1.0741265	22 phút	-0.14513831
-1.6904877	23 phút	-0.101960324
-0.3418701	57 phút	-0.1133169
-2.0757563	4 phút	-0.101960324
-1.7012321	11 phút	-0.10196036
-0.8818661	15 phút	-0.12301296
-0.3418701	51 phút	-0.14711659
-0.3418701	45 phút	-0.15085036
-0.52203023	38 phút	-0.101960324
-1.5393256	6 phút	-0.101960324
-1.5009333	21 phút	-0.101960324
-1.4979329	17 phút	-0.101960324
-0.63986325	30 phút	-0.1249784
-1.7724421	9 phút	-0.10196036
-1.1159493	13 phút	-0.11671437
-0.52203023	24 phút	-0.101960324
-1.1063675	7 phút	-0.101960324
-0.3418701	34 phút	-0.15830664
-1.8344921	8 phút	-0.101960324
-1.2879657	19 phút	-0.101960324
-0.52203023	43 phút	-0.101960324
-0.3418701	28 phút	-0.101960324
-2.005985	2 phút	-0.10196036
-0.52203023	25 phút	-0.101960324
-0.52203023	44 phút	-0.10196036
-0.9368494	12 phút	-0.101960324
-0.98697627	14 phút	-0.14513831
-0.3418701	42 phút	-0.118719965
-1.4010229	10 phút	-0.101960324
-0.52203023	27 phút	-0.101960324
-0.3418701	40 phút	-0.101960324
-0.52203023	58 phút	-0.101960324
-0.52203023	56 phút	-0.101960324
-0.52203023	59 phút	-0.101960324
-0.2904421	26 phút	-0.14513831
-0.3418701	47 phút	-0.101960324
-1.787199	1 phút	-0.101960324
-1.109197	20 phút	-0.101960324
-0.52203023	48 phút	-0.10196036
-0.52203023	29 phút	-0.101960324
-0.3418701	55 phút	-0.13026355
-0.3418701	33 phút	-0.13026355
-0.52203023	53 phút	-0.10196036
-0.52203023	39 phút	-0.10196036
-0.3418701	46 phút	-0.101960324
-0.52203023	41 phút	-0.101960324
-0.3418701	31 phút	-0.101960324
-0.52203023	50 phút	-0.101960324
-0.52203023	52 phút	-0.101960324
-0.8171773	36 phút	-0.101960324
-0.52203023	54 phút	-0.101960324
-0.52203023	32 phút	-0.101960324
-0.52203023	37 phút	-0.101960324
-0.52203023	49 phút	-0.101960324
-1.8318781	cái bạn	-0.55979127
-1.7485878	không bạn	-0.22447486
-1.2665789	ấy bạn	-0.24253802
-1.2355125	đi bạn	-0.43957466
-1.8332074	ngay bạn	-0.101960324
-1.0494741	nhé bạn	-0.7505501
-1.6997241	nướng bạn	-0.101960324
-1.8048699	giờ bạn	-0.15431406
-1.3575162	phút bạn	-0.3705657
-2.2040973	bạn bạn	-0.14513831
-1.6891577	ơi bạn	-0.24506487
-1.1273378	quá bạn	-0.40569755
-1.6836243	gì bạn	-0.101960324
-2.4278057	mở bạn	-0.101960324
-1.8838881	mình bạn	-0.19997706
-1.2246393	với bạn	-0.7621465
-2.2345061	máy bạn	-0.101960324
-1.6568753	tưới bạn	-0.24699612
-1.7209173	cây bạn	-0.101960324
-1.259711	rồi bạn	-0.3737336
-2.0015628	tôi bạn	-0.16845168
-2.2996721	em bạn	-0.22254519
-1.906566	sáng bạn	-0.10196036
-1.7442204	tường bạn	-0.24699612
-2.152006	xuống bạn	-0.101960324
-1.99568	cho bạn	-0.45170537
-1.7820431	anh bạn	-0.22306886
-1.0021571	nhá bạn	-0.7449653
-1.628512	lên bạn	-0.38663775
-2.0848975	phòng bạn	-0.101960324
-1.2635738	này bạn	-0.20595068
-1.8414122	mùi bạn	-0.101960324
-1.5105796	thôi bạn	-0.101960324
-1.0981034	nào bạn	-0.22254519
-1.6789857	lạnh bạn	-0.19308788
-1.8451796	cuốn bạn	-0.101960324
-1.8114567	của bạn	-0.101960324
-1.5118009	long bạn	-0.101960324
-1.5664772	lại bạn	-0.19308788
-1.1112722	nhớ bạn	-0.5235752
-0.15752332	chào bạn	-0.3249158
-1.9258698	nước bạn	-0.101960324
-1.5684289	tắm bạn	-0.16845168
-2.2601368	được bạn	-0.101960324
-1.7073092	chị bạn	-0.16845168
-2.2001717	tối bạn	-0.101960324
-1.9894423	thế bạn	-0.101960324
-1.3082147	điện bạn	-0.16845168
-1.063122	lắm bạn	-0.19308788
-1.7812474	ngủ bạn	-0.101960324
-1.8179165	tròn bạn	-0.101960324
-1.7876396	việc bạn	-0.101960324
-1.7209303	game bạn	-0.101960324
-1.21015	ê bạn	-0.19308788
-1.7997828	sưởi bạn	-0.101960324
-1.8750033	muốn bạn	-0.101960324
-1.658299	cổng bạn	-0.16845168
-1.7204881	là bạn	-0.101960324
-1.1874235	nên bạn	-0.101960324
-1.6520511	ẩm bạn	-0.101960324
-1.6673627	cafe bạn	-0.101960324
-2.0562942	hơi bạn	-0.101960324
-1.8800708	trần bạn	-0.101960324
-1.7412587	chùm bạn	-0.101960324
-1.6688895	nhở bạn	-0.101960324
-1.5997148	hòa bạn	-0.101960324
-1.6673627	đón bạn	-0.101960324
-1.6576569	cửa bạn	-0.16845168
-1.7322638	in bạn	-0.10196036
-1.5897069	sóng bạn	-0.101960324
-1.7177728	loa bạn	-0.101960324
-1.7409735	thượng bạn	-0.101960324
-2.013863	vào bạn	-0.24699612
-1.7555065	khách bạn	-0.101960324
-1.7303188	giặt bạn	-0.101960324
-1.6963537	à bạn	-0.101960324
-1.7030628	hầm bạn	-0.101960324
-1.5675281	rượu bạn	-0.101960324
-1.6381291	đó bạn	-0.101960324
-1.5897069	đốt bạn	-0.101960324
-1.4947084	phim bạn	-0.101960324
-1.4552956	hân bạn	-0.101960324
-1.5949076	thả bạn	-0.24699612
-1.5947137	4 bạn	-0.101960324
-1.5502168	tuýp bạn	-0.24699612
-1.7970091	sân bạn	-0.101960324
-1.1561155	nhỉ bạn	-0.14513831
-1.377855	my bạn	-0.101960324
-1.7724364	ý bạn	-0.101960324
-1.9224563	bếp bạn	-0.101960324
-1.9066026	ngoài bạn	-0.101960324
-1.6613698	sen bạn	-0.101960324
-1.6805823	bàn bạn	-0.101960324
-1.7036443	5 bạn	-0.101960324
-1.063655	liệu bạn	-0.101960324
-2.0228815	chói bạn	-0.101960324
-1.4122206	mắt bạn	-0.101960324
-1.6718762	ảo bạn	-0.101960324
-1.6414285	cuối bạn	-0.101960324
-0.95438874	hôi bạn	-0.101960324
-1.8260804	tí bạn	-0.101960324
-1.5035418	nữa bạn	-0.19997706
-1.5974232	chính bạn	-0.19308788
-1.8815073	sảnh bạn	-0.101960324
-1.6414285	tay bạn	-0.101960324
-1.7292802	và bạn	-0.101960324
-1.8915889	đấy bạn	-0.101960324
-1.7033305	kia bạn	-0.101960324
-1.626206	fax bạn	-0.101960324
-1.4438839	39% bạn	-0.24699612
-1.5551871	thu bạn	-0.101960324
-1.7043396	bụi bạn	-0.101960324
-1.406736	đề bạn	-0.101960324
-1.7508758	chung bạn	-0.101960324
-1.7494678	phải bạn	-0.101960324
-1.0450109	nha bạn	-0.46321848
-1.5551871	đọc bạn	-0.101960324
-1.6594228	8 bạn	-0.101960324
-1.5118009	gym bạn	-0.101960324
-1.6079215	sau bạn	-0.101960324
-1.610287	6% bạn	-0.101960324
-1.808729	trước bạn	-0.101960324
-1.679307	camera bạn	-0.101960324
-1.6378262	nhạc bạn	-0.101960324
-1.5165998	nghỉ bạn	-0.101960324
-1.4499846	thì bạn	-0.101960324
-1.6707903	đợi bạn	-0.101960324
-1.063655	lỗi bạn	-0.101960324
-1.6297684	bát bạn	-0.101960324
-1.4323633	đạt bạn	-0.101960324
-1.4657342	97% bạn	-0.101960324
-1.5604126	71% bạn	-0.101960324
-1.5735816	wc bạn	-0.101960324
-1.4488649	78% bạn	-0.101960324
-1.5118009	xép bạn	-0.101960324
-1.1520581	77% bạn	-0.101960324
-1.2228959	37% bạn	-0.101960324
-1.692768	kìa bạn	-0.101960324
-1.7843218	cần bạn	-0.101960324
-0.85203123	các bạn	-0.101960324
-1.2752823	gấp bạn	-0.101960324
-1.3131032	62% bạn	-0.101960324
-1.3507973	phát bạn	-0.101960324
-1.714328	chút bạn	-0.101960324
-1.4323633	ơn bạn	-0.101960324
-0.7760909	á bạn	-0.16845168
-1.2100024	hơn bạn	-0.101960324
-1.3566933	ơ bạn	-0.101960324
-1.5315994	38% bạn	-0.101960324
-1.7223043	đây bạn	-0.101960324
-1.1454386	33% bạn	-0.101960324
-1.5118009	c bạn	-0.101960324
-1.2100024	87% bạn	-0.101960324
-1.6007755	8% bạn	-0.101960324
-1.6266762	35% bạn	-0.101960324
-1.5467695	51% bạn	-0.101960324
-0.95438874	ổn bạn	-0.101960324
-0.9095279	ghê bạn	-0.101960324
-0.95438874	chậm bạn	-0.101960324
-1.1454386	qua bạn	-0.101960324
-1.063655	72% bạn	-0.101960324
-1.4296647	đâu bạn	-0.101960324
-1.3892212	19% bạn	-0.101960324
-1.0272331	50% bạn	-0.24699612
-1.5391779	28% bạn	-0.101960324
-1.063655	74% bạn	-0.101960324
-0.79455674	nhó bạn	-0.101960324
-0.33585685	ờm bạn	-0.24699612
-1.377855	giãn bạn	-0.101960324
-0.79455674	sớm bạn	-0.101960324
-2.3485572	nhà ơi	-0.101960324
-2.3531456	ấy ơi	-0.101960324
-0.5617722	bạn ơi	-0.79409796
-1.4788795	gì ơi	-0.16845168
-2.089291	radio ơi	-0.101960324
-1.4520713	tính ơi	-0.101960324
-0.55157644	em ơi	-0.788763
-1.5214752	anh ơi	-0.331143
-0.5181169	gái ơi	-0.101960324
-1.2953448	chị ơi	-0.18709101
-2.4784012	trời ơi	-0.101960324
-0.7140919	con ơi	-0.10196036
-2.4498708	trợ ơi	-0.10196036
-1.7868652	lý ơi	-0.101960324
-0.9948256	chú ơi	-0.101960324
-1.4520713	lí ơi	-0.10196036
-1.4640597	ảo ơi	-0.101960324
-0.6724182	cháu ơi	-0.101960324
-0.7037	bé ơi	-0.101960324
-1.1437744	yêu ơi	-0.10196036
-0.5245369	smarthome ơi	-0.101960324
-0.26062512	cậu ơi	-0.41431415
-0.45613873	ông ơi	-0.19997706
-0.9384675	mày ơi	-0.10196036
-1.724896	bà ơi	-0.101960324
-1.1178768	vợ ơi	-0.101960324
-0.9948256	thân ơi	-0.101960324
-1.2099476	bố ơi	-0.101960324
-0.343158	eo ơi	-0.101960324
-0.5245369	giời ơi	-0.101960324
-0.5245369	chồng ơi	-0.101960324
-0.8157673	cô ơi	-0.101960324
-0.5245369	zai ơi	-0.101960324
-2.7922983	không chán	-0.101960324
-3.3306088	nhé chán	-0.101960324
-2.8386884	ơi chán	-0.101960324
-2.735313	với chán	-0.45170537
-2.5840442	chị chán	-0.101960324
-1.771992	bé chán	-0.101960324
-2.2882657	chính chán	-0.101960324
-1.5197604	giãn chán	-0.101960324
-2.7350197	đi quá	-0.101960324
-0.35263097	chán quá	-0.14513831
-2.445188	tôi quá	-0.101960324
-0.52033067	sáng quá	-0.64426094
-0.6329733	mùi quá	-0.3353633
-0.7768953	lạnh quá	-0.47128028
-1.9282387	nước quá	-0.101960324
-0.3554983	tối quá	-0.67856205
-2.100189	điện quá	-0.101960324
-2.23118	ngủ quá	-0.10196036
-0.34218085	nóng quá	-0.4099363
-1.4473139	ẩm quá	-0.10196036
-1.8579475	cafe quá	-0.101960324
-2.0064971	hơi quá	-0.101960324
-0.45439598	ồn quá	-0.21126325
-0.3720742	mỏi quá	-0.25876126
-1.7834779	xa quá	-0.101960324
-1.7344322	hắt quá	-0.101960324
-1.4704949	nhiều quá	-0.101960324
-1.5962336	ăn quá	-0.101960324
-1.8869771	về quá	-0.101960324
-0.5094004	nồm quá	-0.19308788
-0.5264763	mạnh quá	-0.30172646
-1.2002108	khô quá	-0.101960324
-0.3166548	chói quá	-0.43060023
-1.5034518	mắt quá	-0.101960324
-0.14660634	to quá	-0.36282447
-0.9853405	hôi quá	-0.101960324
-1.0534085	bé quá	-0.16845168
-1.5381594	đầu quá	-0.101960324
-0.39094496	nắng quá	-0.42568648
-1.7877929	gió quá	-0.101960324
-1.5645663	yêu quá	-0.101960324
-0.81574124	chịu quá	-0.101960324
-1.1066978	ít quá	-0.101960324
-1.3495353	bụi quá	-0.19308788
-1.3282781	nháy quá	-0.101960324
-0.63815767	lưng quá	-0.16845168
-0.4382367	yếu quá	-0.35567126
-0.9881974	lâu quá	-0.101960324
-1.5329652	chờn quá	-0.101960324
-0.58729136	bẩn quá	-0.101960324
-0.52130187	ào quá	-0.101960324
-0.9346664	muộn quá	-0.101960324
-0.22516122	mệt quá	-0.15266867
-0.5153972	kinh quá	-0.101960324
-0.9853405	nhỏ quá	-0.101960324
-0.52130187	rét quá	-0.101960324
-1.1066978	ướt quá	-0.101960324
-1.0358984	buồn quá	-0.24699612
-0.81574124	oi quá	-0.101960324
-0.5094004	bí quá	-0.101960324
-0.52130187	bách quá	-0.101960324
-0.9853405	chậm quá	-0.10196036
-0.9853405	lặng quá	-0.101960324
-0.81574124	vội quá	-0.101960324
-0.34149516	mờ quá	-0.101960324
-1.1038828	tốt quá	-0.101960324
-0.52130187	toé quá	-0.101960324
-0.52130187	nháp quá	-0.101960324
-0.81574124	ngạt quá	-0.101960324
-0.52130187	đắng quá	-0.101960324
-0.81574124	khói quá	-0.101960324
-0.52130187	nặc quá	-0.101960324
-2.5142238	cái gì	-0.16845168
-2.5629542	có gì	-0.101960324
-2.9956799	phút gì	-0.101960324
-2.3795128	bạn gì	-0.32676664
-2.736697	em gì	-0.24699612
-2.5649679	sáng gì	-0.101960324
-2.2209573	mùi gì	-0.10196036
-2.4760623	được gì	-0.101960324
-2.3509223	học gì	-0.101960324
-2.474991	bị gì	-0.101960324
-2.4729912	ngủ gì	-0.101960324
-1.7502098	làm gì	-0.101960324
-2.2367918	việc gì	-0.101960324
-1.9763618	thấy gì	-0.10196036
-1.5491098	đề gì	-0.10196036
-1.8987362	nhạc gì	-0.101960324
-1.7029243	tùng gì	-0.10196036
-1.4655766	mạn gì	-0.101960324
-3.0471702	bạn nghe	-0.101960324
-2.814203	ơi nghe	-0.101960324
-1.9652243	gì nghe	-0.101960324
-2.8124862	mình nghe	-0.101960324
-2.086983	máy nghe	-0.24699612
-2.8318856	tôi nghe	-0.101960324
-2.9172971	anh nghe	-0.101960324
-3.109272	lên nghe	-0.101960324
-1.0399647	muốn nghe	-0.37606832
-2.369343	để nghe	-0.101960324
-2.1650722	cái mở	-0.16845168
-1.6819721	đồ mở	-0.101960324
-1.6413407	sa mở	-0.101960324
-1.5959014	còn mở	-0.101960324
-1.6853534	không mở	-0.18306506
-1.6728492	ấy mở	-0.19308788
-1.5714885	đi mở	-0.29801503
-1.3297595	nhé mở	-0.5304205
-2.0379286	giờ mở	-0.101960324
-1.7723846	phút mở	-0.15808098
-1.1882259	bạn mở	-0.5566419
-1.2778803	ơi mở	-0.35352904
-0.9847632	quá mở	-0.49103802
-1.9453237	mình mở	-0.22939186
-1.3776702	với mở	-0.66829956
-1.3736145	tính mở	-0.101960324
-1.7041609	tưới mở	-0.101960324
-1.7870891	cây mở	-0.101960324
-1.3797967	rồi mở	-0.33044773
-2.075853	tôi mở	-0.101960324
-1.2562258	em mở	-0.6008427
-2.002303	tường mở	-0.101960324
-1.9148413	anh mở	-0.10196036
-1.3511732	nhá mở	-0.32918715
-2.269193	bóng mở	-0.101960324
-2.1155183	lên mở	-0.16845168
-2.1555111	phòng mở	-0.101960324
-1.5109621	này mở	-0.21385527
-1.8087198	nào mở	-0.101960324
-1.860548	lạnh mở	-0.101960324
-1.9222035	cuốn mở	-0.10196036
-1.7595806	lại mở	-0.101960324
-1.3346264	nhớ mở	-0.2478787
-1.4399168	thể mở	-0.101960324
-2.0125709	nước mở	-0.101960324
-1.7542441	tắm mở	-0.101960324
-1.9671558	học mở	-0.101960324
-2.5745168	tắt mở	-0.101960324
-1.8857324	chị mở	-0.101960324
-2.2740378	tối mở	-0.101960324
-1.0722669	thế mở	-0.17883943
-1.6777985	điện mở	-0.24699612
-1.6476613	lắm mở	-0.101960324
-1.8683542	việc mở	-0.101960324
-1.7915528	game mở	-0.101960324
-0.97570163	đang mở	-0.24401897
-1.840175	rèm mở	-0.101960324
-1.4202467	ê mở	-0.10196036
-1.8699256	sưởi mở	-0.101960324
-1.7077336	muốn mở	-0.24699612
-1.5402117	cổng mở	-0.15431406
-1.3033428	là mở	-0.10196036
-1.3995397	nên mở	-0.101960324
-1.7298665	cafe mở	-0.101960324
-0.9971591	hãy mở	-0.35146466
-1.7195958	nhở mở	-0.101960324
-1.7298665	đón mở	-0.101960324
-1.6957464	cửa mở	-0.101960324
-2.06911	ra mở	-0.101960324
-1.7789148	loa mở	-0.101960324
-2.130219	nó mở	-0.101960324
-1.2308006	mới mở	-0.101960324
-1.5281774	ăn mở	-0.101960324
-1.6405834	lý mở	-0.101960324
-1.8235945	khách mở	-0.101960324
-1.7941742	giặt mở	-0.101960324
-1.4119045	à mở	-0.24699612
-1.3390765	đó mở	-0.101960324
-1.4925748	hân mở	-0.101960324
-1.6386912	thả mở	-0.101960324
-1.6311436	4 mở	-0.101960324
-1.2984996	nhỉ mở	-0.25876126
-1.408823	my mở	-0.101960324
-1.330779	ý mở	-0.101960324
-1.7350641	hay mở	-0.101960324
-1.7229532	sen mở	-0.101960324
-1.3736145	lí mở	-0.101960324
-1.3929724	ảo mở	-0.16845168
-1.7000527	cuối mở	-0.101960324
-1.4812841	đê mở	-0.101960324
-1.4916692	cháu mở	-0.101960324
-1.8793985	tí mở	-0.101960324
-1.6267538	bé mở	-0.101960324
-1.8809526	chính mở	-0.101960324
-1.7326313	sảnh mở	-0.24699612
-1.8333964	hè mở	-0.101960324
-1.3736145	xuân mở	-0.101960324
-1.1589975	cả mở	-0.101960324
-1.7000527	hồ mở	-0.101960324
-1.7000527	tay mở	-0.101960324
-1.4805582	và mở	-0.101960324
-1.3393409	đấy mở	-0.21385527
-1.7614641	kia mở	-0.101960324
-1.6826738	fax mở	-0.101960324
-1.6894951	9 mở	-0.101960324
-1.7894502	39% mở	-0.101960324
-1.4929065	cậu mở	-0.101960324
-1.771089	bụi mở	-0.101960324
-1.822363	chung mở	-0.101960324
-0.51449347	cu mở	-0.101960324
-1.3199433	phải mở	-0.10196036
-1.1482381	nha mở	-0.2840271
-0.86311704	vẫn mở	-0.101960324
-1.8834072	trước mở	-0.101960324
-1.7387168	camera mở	-0.101960324
-1.5878271	bà mở	-0.101960324
-1.3600364	nhạc mở	-0.19308788
-1.5585678	nghỉ mở	-0.101960324
-1.6549491	thì mở	-0.15431406
-1.7328912	đợi mở	-0.10196036
-1.5012534	97% mở	-0.101960324
-1.5951618	71% mở	-0.101960324
-1.8220012	lát mở	-0.101960324
-1.3706106	kìa mở	-0.101960324
-1.849272	cần mở	-0.101960324
-1.4676452	ơn mở	-0.101960324
-1.5893728	á mở	-0.101960324
-0.80243	mến mở	-0.101960324
-1.7813578	đây mở	-0.101960324
-1.6180723	88% mở	-0.101960324
-1.4490064	59% mở	-0.101960324
-1.5545231	c mở	-0.101960324
-1.3736145	20% mở	-0.101960324
-0.80243	oi mở	-0.101960324
-1.1633036	qua mở	-0.101960324
-1.7679383	sẽ mở	-0.101960324
-1.7832773	đâu mở	-0.101960324
-0.80243	vãi mở	-0.101960324
-1.1633036	í mở	-0.101960324
-0.51449347	kem mở	-0.101960324
-1.6422302	cái radio	-0.32604367
-2.0806365	ngay radio	-0.101960324
-2.7379744	ơi radio	-0.101960324
-1.622614	nghe radio	-0.101960324
-1.8251529	mở radio	-0.21126325
-2.384583	mình radio	-0.101960324
-3.0772705	với radio	-0.101960324
-2.8998346	giảm radio	-0.101960324
-2.9410655	cho radio	-0.101960324
-2.8258905	anh radio	-0.101960324
-2.0340252	tăng radio	-0.101960324
-2.148955	của radio	-0.101960324
-2.5564566	tắt radio	-0.24699612
-2.2259219	tiếng radio	-0.101960324
-2.452924	cửa radio	-0.101960324
-1.7585523	chiếc radio	-0.101960324
-1.4186305	lượng radio	-0.101960324
-1.8429865	đèn giúp	-0.15431406
-1.5451568	tranh giúp	-0.10196036
-1.5933735	sa giúp	-0.101960324
-1.8357322	đi giúp	-0.3443363
-1.6526296	tra giúp	-0.101960324
-1.8369217	ngay giúp	-0.101960324
-2.3436613	nhé giúp	-0.10196036
-0.83345485	bật giúp	-0.8789692
-1.70434	nướng giúp	-0.10196036
-1.764174	3 giúp	-0.101960324
-1.5122871	phút giúp	-0.47803432
-1.4959878	bạn giúp	-0.72470665
-1.7810105	ơi giúp	-0.22939186
-0.7727469	mở giúp	-1.0731695
-1.5445796	radio giúp	-0.24699612
-2.061314	với giúp	-0.44371158
-1.6602485	tưới giúp	-0.24699612
-1.4636115	cây giúp	-0.101960324
-2.0787208	rồi giúp	-0.32676664
-0.8275602	đóng giúp	-0.9858241
-2.3032491	em giúp	-0.32676664
-0.88105327	giảm giúp	-0.9258152
-1.9103149	sáng giúp	-0.19308788
-1.473268	tường giúp	-0.32324952
-1.667474	xuống giúp	-0.14513831
-2.1211314	anh giúp	-0.101960324
-2.3166988	nhá giúp	-0.101960324
-2.0020337	bóng giúp	-0.24699612
-1.5933735	đứng giúp	-0.101960324
-1.2026826	lên giúp	-0.84087145
-2.212733	phòng giúp	-0.101960324
-1.8464358	mùi giúp	-0.101960324
-0.7654894	tăng giúp	-0.8519205
-1.7541643	nào giúp	-0.101960324
-1.8082639	lạnh giúp	-0.10196036
-1.6349949	cuốn giúp	-0.10196036
-1.5148633	long giúp	-0.101960324
-1.2813863	lại giúp	-0.3054089
-2.0366485	nhớ giúp	-0.24699612
-1.4091386	thể giúp	-0.10196036
-1.7613498	nước giúp	-0.16845168
-1.7062622	tắm giúp	-0.19308788
-1.700304	học giúp	-0.10196036
-0.91430146	tắt giúp	-0.8365654
-1.4827739	điện giúp	-0.25480404
-1.6691458	ngủ giúp	-0.19308788
-1.6230907	tròn giúp	-0.15431406
-1.7931994	việc giúp	-0.101960324
-1.7258465	game giúp	-0.101960324
-1.5959656	18 giúp	-0.101960324
-1.7837496	rèm giúp	-0.101960324
-1.5592675	sưởi giúp	-0.19308788
-1.6612555	cổng giúp	-0.19308788
-1.6562216	ẩm giúp	-0.101960324
-1.6717509	cafe giúp	-0.101960324
-2.06186	hơi giúp	-0.101960324
-1.3844019	trần giúp	-0.3446054
-1.5352701	họp giúp	-0.101960324
-1.638095	led giúp	-0.101960324
-1.4526235	hãy giúp	-0.32175082
-1.6034672	hòa giúp	-0.101960324
-1.6717509	đón giúp	-0.101960324
-1.6218226	xa giúp	-0.101960324
-1.5070064	cửa giúp	-0.32324952
-1.4480325	ra giúp	-0.24699612
-1.5953805	hắt giúp	-0.101960324
-1.7368891	in giúp	-0.101960324
-1.5933735	sóng giúp	-0.101960324
-1.7220715	loa giúp	-0.101960324
-1.7456132	thượng giúp	-0.101960324
-1.2864021	nó giúp	-0.45170537
-2.017386	vào giúp	-0.24699612
-1.7602588	khách giúp	-0.101960324
-1.2938261	giặt giúp	-0.21385527
-1.7066481	hầm giúp	-0.101960324
-1.5710114	rượu giúp	-0.101960324
-1.6416954	đó giúp	-0.101960324
-1.5933735	đốt giúp	-0.10196036
-1.4976523	phim giúp	-0.101960324
-1.5980426	thả giúp	-0.21385527
-1.2568203	4 giúp	-0.15431406
-1.553164	tuýp giúp	-0.16845168
-1.8017972	sân giúp	-0.101960324
-1.4397556	bếp giúp	-0.32676664
-1.6656975	sen giúp	-0.10196036
-1.7585067	compact giúp	-0.10196036
-1.4145557	mắt giúp	-0.101960324
-1.3686533	ảo giúp	-0.101960324
-1.6455611	cuối giúp	-0.101960324
-1.6008195	chính giúp	-0.21385527
-1.2727044	sảnh giúp	-0.19308788
-1.5083926	hè giúp	-0.101960324
-1.1532749	89% giúp	-0.101960324
-1.3470635	xuân giúp	-0.101960324
-1.6455611	hồ giúp	-0.101960324
-1.6455611	tay giúp	-0.101960324
-1.3916388	26% giúp	-0.101960324
-1.8965185	đấy giúp	-0.101960324
-1.7074306	kia giúp	-0.101960324
-1.6301956	fax giúp	-0.101960324
-1.0850132	39% giúp	-0.19308788
-1.5585725	thu giúp	-0.10196036
-1.3323356	mành giúp	-0.16845168
-1.8280151	mức giúp	-0.101960324
-1.709005	bụi giúp	-0.101960324
-1.5196105	13% giúp	-0.101960324
-1.5161588	chung giúp	-0.101960324
-1.0676363	84% giúp	-0.101960324
-1.4058275	vườn giúp	-0.19308788
-1.7537981	phải giúp	-0.101960324
-1.2645313	đông giúp	-0.101960324
-1.663265	8 giúp	-0.101960324
-1.5148633	gym giúp	-0.101960324
-1.3470635	trái giúp	-0.101960324
-1.3080312	29% giúp	-0.10196036
-1.273521	6% giúp	-0.101960324
-0.5107228	ayo giúp	-0.101960324
-1.2689633	trước giúp	-0.25876126
-1.3149316	61% giúp	-0.101960324
-1.6834916	camera giúp	-0.101960324
-1.4579831	thang giúp	-0.101960324
-1.4579831	quang giúp	-0.101960324
-1.2115282	92% giúp	-0.101960324
-0.9988771	73% giúp	-0.101960324
-1.1467532	23% giúp	-0.101960324
-1.4976523	nhi giúp	-0.101960324
-1.5196105	nghỉ giúp	-0.101960324
-1.3540474	2 giúp	-0.10196036
-1.6751521	đợi giúp	-0.101960324
-1.2768316	rửa giúp	-0.101960324
-1.6335768	bát giúp	-0.101960324
-1.3801025	khôi giúp	-0.101960324
-1.5451568	ngơi giúp	-0.101960324
-1.4682997	97% giúp	-0.101960324
-1.5767796	wc giúp	-0.101960324
-1.4512143	78% giúp	-0.101960324
-0.7172929	15% giúp	-0.101960324
-1.391324	99% giúp	-0.101960324
-0.95523506	41% giúp	-0.101960324
-1.7185538	chút giúp	-0.101960324
-1.4349123	ơn giúp	-0.101960324
-1.5344449	38% giúp	-0.101960324
-1.2706379	ạ giúp	-0.101960324
-1.2329854	88% giúp	-0.10196036
-1.2115282	huy giúp	-0.101960324
-0.89298403	4% giúp	-0.19308788
-1.2115282	vy giúp	-0.101960324
-1.4976523	viện giúp	-0.101960324
-1.0304391	59% giúp	-0.16845168
-1.5148633	c giúp	-0.101960324
-1.3470635	20% giúp	-0.101960324
-1.603922	8% giúp	-0.10196036
-0.95523506	3% giúp	-0.101960324
-1.629773	35% giúp	-0.101960324
-1.1943043	51% giúp	-0.101960324
-1.0026098	36% giúp	-0.10196036
-1.149668	31% giúp	-0.10196036
-0.5107228	hồng giúp	-0.101960324
-0.99417025	19% giúp	-0.101960324
-1.391324	2% giúp	-0.101960324
-1.3209318	45% giúp	-0.101960324
-1.4566855	16% giúp	-0.101960324
-1.3470635	58% giúp	-0.101960324
-1.0951248	hủy giúp	-0.101960324
-0.5107228	trị giúp	-0.101960324
-1.0647438	24% giúp	-0.101960324
-0.5107228	10% giúp	-0.101960324
-2.5353131	đèn mình	-0.101960324
-1.9133837	nhà mình	-0.101960324
-1.7393358	sa mình	-0.101960324
-2.5582857	đi mình	-0.101960324
-1.824724	tra mình	-0.101960324
-1.9258176	nhé mình	-0.21450931
-2.7076492	bật mình	-0.101960324
-1.2414789	giờ mình	-0.32175082
-2.4801598	phút mình	-0.101960324
-2.31612	bạn mình	-0.10196036
-1.9097121	ơi mình	-0.16845168
-2.552887	quá mình	-0.101960324
-2.4509268	mở mình	-0.101960324
-0.5756942	giúp mình	-0.6186356
-2.403099	mình mình	-0.101960324
-1.8895395	với mình	-0.30342403
-2.032845	rồi mình	-0.16845168
-2.229825	tôi mình	-0.101960324
-2.846375	em mình	-0.101960324
-0.77302986	cho mình	-0.38228416
-2.0131714	nhá mình	-0.17883943
-2.5212939	phòng mình	-0.101960324
-2.3392253	này mình	-0.101960324
-1.9713665	thôi mình	-0.101960324
-2.2493682	lạnh mình	-0.101960324
-1.6493441	của mình	-0.101960324
-2.196314	nhớ mình	-0.10196036
-0.46398818	hộ mình	-0.5010388
-2.1445134	học mình	-0.101960324
-1.8808439	sao mình	-0.101960324
-1.1963656	ờ mình	-0.101960324
-1.7276566	lắm mình	-0.101960324
-2.223192	ngủ mình	-0.101960324
-1.9357507	game mình	-0.101960324
-2.0128675	sưởi mình	-0.101960324
-1.9083014	nay mình	-0.101960324
-1.8472445	nên mình	-0.101960324
-2.309231	hơi mình	-0.101960324
-1.599829	chắc mình	-0.101960324
-1.7796916	xa mình	-0.101960324
-2.4239	trợ mình	-0.101960324
-0.33652732	giùm mình	-0.6967879
-1.5387837	đê mình	-0.101960324
-1.5847664	tí mình	-0.101960324
-1.5609279	nữa mình	-0.14513831
-2.1329374	sảnh mình	-0.101960324
-1.8338866	tại mình	-0.101960324
-1.5354161	và mình	-0.101960324
-2.1071558	đấy mình	-0.101960324
-1.7613175	9 mình	-0.101960324
-1.8016814	nha mình	-0.10196036
-1.1306448	để mình	-0.1605407
-1.610586	nhi mình	-0.101960324
-1.0245461	vậy mình	-0.101960324
-1.1651807	nãy mình	-0.24699612
-1.3390483	khi mình	-0.101960324
-1.2452072	lát mình	-0.101960324
-1.4264547	phát mình	-0.101960324
-1.8965883	đây mình	-0.101960324
-1.6330427	c mình	-0.101960324
-1.2749527	ui mình	-0.101960324
-1.6207541	31% mình	-0.101960324
-1.8934095	đâu mình	-0.101960324
-1.1059864	bọn mình	-0.101960324
-1.6330427	tùng mình	-0.101960324
-0.52109396	gúp mình	-0.101960324
-2.1848345	đèn với	-0.101960324
-1.50832	tranh với	-0.101960324
-1.745415	nhà với	-0.101960324
-1.294246	đồ với	-0.101960324
-1.5524093	sa với	-0.101960324
-1.4478165	đi với	-0.36379933
-1.6059878	tra với	-0.101960324
-1.1352184	ngay với	-0.16845168
-2.3549325	nhé với	-0.24699612
-1.6533184	nướng với	-0.101960324
-1.8837273	giờ với	-0.101960324
-1.4584084	3 với	-0.10196036
-1.3729637	phút với	-0.24153157
-1.7553037	radio với	-0.101960324
-1.7398521	mình với	-0.22487225
-1.6224357	tưới với	-0.1722499
-1.434886	cây với	-0.13026355
-1.765274	tôi với	-0.16952936
-2.3608336	em với	-0.1387009
-1.8684702	sáng với	-0.10196036
-1.4493394	tường với	-0.22311893
-1.2658997	xuống với	-0.14129308
-1.7492502	anh với	-0.21689713
-2.1303308	bóng với	-0.10196036
-1.5524093	đứng với	-0.101960324
-1.0043074	lên với	-0.43901384
-2.1422348	phòng với	-0.101960324
-2.0223386	này với	-0.101960324
-1.7911592	mùi với	-0.101960324
-1.5933676	xem với	-0.101960324
-1.6484504	lạnh với	-0.16370702
-1.4618356	cuốn với	-0.19226418
-1.4804126	long với	-0.101960324
-1.5436115	lại với	-0.101960324
-1.6023122	nước với	-0.16370702
-1.2858335	tắm với	-0.16862272
-2.155604	hộ với	-0.101960324
-1.659234	học với	-0.18679659
-2.4343061	tắt với	-0.101960324
-1.5275323	chưa với	-0.101960324
-1.674676	chị với	-0.1329304
-1.5524093	công với	-0.101960324
-1.8625115	sao với	-0.101960324
-2.148971	tối với	-0.101960324
-1.6097941	điện với	-0.10196036
-1.5031542	ngủ với	-0.17456204
-1.5839192	tròn với	-0.1249784
-1.7323825	việc với	-0.101960324
-1.6716871	game với	-0.101960324
-1.568428	18 với	-0.101960324
-1.7363763	rèm với	-0.101960324
-1.2110355	sưởi với	-0.15431406
-1.384555	cổng với	-0.19334751
-1.6098921	ẩm với	-0.101960324
-1.623123	cafe với	-0.10196036
-2.0009809	hơi với	-0.10196036
-1.3644264	trần với	-0.16983774
-1.500129	họp với	-0.101960324
-1.5524093	đình với	-0.101960324
-1.5929112	led với	-0.101960324
-1.459748	chùm với	-0.13696171
-1.5615848	hòa với	-0.101960324
-1.623123	đón với	-0.10196036
-1.57822	xa với	-0.101960324
-1.485017	cửa với	-0.17548718
-1.5929787	ra với	-0.101960324
-1.2466191	hắt với	-0.14513831
-1.4460973	in với	-0.1151375
-1.4469806	vi với	-0.101960324
-1.5524093	sóng với	-0.101960324
-1.6743875	loa với	-0.101960324
-1.4555815	thượng với	-0.1249784
-1.5887222	vào với	-0.19308788
-1.4762405	khách với	-0.101960324
-1.4362091	giặt với	-0.21385527
-1.6665545	hầm với	-0.101960324
-1.5320135	rượu với	-0.101960324
-1.6018077	đó với	-0.101960324
-1.5524093	đốt với	-0.101960324
-1.4644902	phim với	-0.101960324
-1.4276172	hân với	-0.101960324
-1.562805	thả với	-0.13393477
-1.4130808	4 với	-0.12734877
-1.5199653	tuýp với	-0.14513831
-1.5197024	sân với	-0.118719965
-1.3545783	my với	-0.101960324
-1.5824122	11 với	-0.101960324
-1.148209	bếp với	-0.1986604
-1.617707	sen với	-0.101960324
-1.3647223	bàn với	-0.1249784
-1.4751375	compact với	-0.128727
-1.6720479	5 với	-0.101960324
-1.51335	chờ với	-0.101960324
-1.5996339	cuối với	-0.101960324
-1.5627586	chính với	-0.14332621
-1.2571737	sảnh với	-0.17594135
-1.1493818	hè với	-0.101960324
-1.323359	xuân với	-0.101960324
-1.5996339	hồ với	-0.101960324
-1.5996339	tay với	-0.101960324
-1.7696495	nắng với	-0.101960324
-1.2448379	thờ với	-0.10196036
-1.2993721	gió với	-0.1249784
-1.4469806	sinh với	-0.10196036
-1.4334059	yêu với	-0.10196036
-1.3677626	26% với	-0.101960324
-1.8422209	đấy với	-0.101960324
-1.2198024	kia với	-0.19308788
-1.5857861	fax với	-0.101960324
-1.6207603	9 với	-0.101960324
-1.2538044	39% với	-0.16845168
-1.520629	thu với	-0.101960324
-1.4785001	mành với	-0.101960324
-1.1394898	tớ với	-0.101960324
-1.7661158	mức với	-0.101960324
-1.6574646	bụi với	-0.101960324
-1.453506	7 với	-0.101960324
-1.4857209	13% với	-0.101960324
-1.4838005	chung với	-0.14513831
-1.4304497	84% với	-0.101960324
-1.2107636	vườn với	-0.14513831
-1.7057809	phải với	-0.10196036
-1.520629	đọc với	-0.101960324
-1.2448379	đông với	-0.101960324
-1.6204251	8 với	-0.101960324
-1.4804126	gym với	-0.101960324
-1.323359	trái với	-0.101960324
-1.2733512	sau với	-0.15431406
-1.468842	29% với	-0.10196036
-1.5768797	6% với	-0.101960324
-1.575837	hiên với	-0.101960324
-1.4118696	trước với	-0.16295953
-1.3299419	95% với	-0.101960324
-0.89712036	61% với	-0.101960324
-1.6370145	camera với	-0.101960324
-1.50832	bà với	-0.101960324
-1.4276172	thang với	-0.101960324
-1.4276172	quang với	-0.10196036
-1.1940525	92% với	-0.101960324
-1.4644902	nhi với	-0.10196036
-1.598382	nhạc với	-0.101960324
-1.4857209	nghỉ với	-0.10196036
-1.3364819	2 với	-0.1387009
-1.1940525	quân với	-0.101960324
-1.3299419	27% với	-0.101960324
